{"learner":{"attributes":{},"feature_names":["time","stake","distance","rank"],"feature_types":["float","int","float","int"],"gradient_booster":{"model":{"gbtree_model_param":{"num_parallel_tree":"1","num_trees":"100"},"iteration_indptr":[0,1,2,3,4,5,6,7,8,9,10,11,12,13,14,15,16,17,18,19,20,21,22,23,24,25,26,27,28,29,30,31,32,33,34,35,36,37,38,39,40,41,42,43,44,45,46,47,48,49,50,51,52,53,54,55,56,57,58,59,60,61,62,63,64,65,66,67,68,69,70,71,72,73,74,75,76,77,78,79,80,81,82,83,84,85,86,87,88,89,90,91,92,93,94,95,96,97,98,99,100],"tree_info":[0,0,0,0,0,0,0,0,0,0,0,0,0,0,0,0,0,0,0,0,0,0,0,0,0,0,0,0,0,0,0,0,0,0,0,0,0,0,0,0,0,0,0,0,0,0,0,0,0,0,0,0,0,0,0,0,0,0,0,0,0,0,0,0,0,0,0,0,0,0,0,0,0,0,0,0,0,0,0,0,0,0,0,0,0,0,0,0,0,0,0,0,0,0,0,0,0,0,0,0],"trees":[{"base_weights":[-9.285948E-2,4.2750484E-1,-5.0037205E-1,3.806672E-2,7.7342486E-1,2.9876906E-1,-6.71567E-1,6.3359356E-1,-1.5203543E-1,1.5832047E0,5.316074E-1,4.4659373E-1,7.956841E-2,-8.012098E-1,-3.1567168E-1,9.3411326E-1,3.41291E-1,-2.2275098E-1,9.864409E-2,8.1286407E-1,1.8889556E0,3.8267908E-1,1.369814E0,6.644609E-1,1.2588474E-1,-8.4611215E-2,5.099901E-1,-8.4068936E-1,3.5026234E-1,-1.1603577E-1,-5.7046497E-1,2.2639334E0,8.817638E-1,1.8076031E-1,8.246022E-1,-6.251715E-1,-2.0166714E-1,2.5480705E-1,-5.988515E-1,4.0973577E-1,1.3724594E0,1.925654E0,1.0812456E-1,5.9935606E-1,7.3929794E-2,1.380111E-1,1.4934711E0,-2.0822631E-2,6.9295657E-1,-2.0495522E-1,2.0074399E-1,-3.1379846E-1,9.78354E-2,8.328518E-1,9.862282E-2,-6.0642886E-1,-1.0068673E0,-1.0641361E-1,7.627561E-1,-1.9115086E-1,8.7443516E-2,-6.751047E-1,-2.7425477E-1,9.7859335E-1,6.561813E-1,-1.2604465E-2,3.5780296E-1,2.094194E-1,4.3476425E-2,2.4352086E-1,6.1129063E-1,-1.8279001E-1,-4.4263235E-1,-6.873756E-2,-1.3242541E-1,1.5869632E-2,1.819078E-1,-2.998374E-1,5.8590002E-2,-4.8304853E-1,1.8473803E-1,7.706944E-1,2.1885188E-1,7.946157E-1,4.5753023E-1,-5.2409136E-1,3.9055598E-1,9.1909714E-2,6.0173196E-1,1.2859075E-1,-1.20728135E-1,9.5200694E-1,-3.7575442E-1,1.461049E0,5.479603E-1,7.325433E-1,-1.9746964E-1,2.8585228E-1,1.6144963E-1,4.9363393E-2,1.9239031E-1,-2.6174268E-2,-2.1506166E-1,2.3677103E-1,-7.875224E-2,1.8812647E-1,4.06212E-1,5.4431166E-3,2.889418E-1,-2.0811835E-1,-2.7081484E-1,-4.057745E-1,-2.5868446E-1,3.946421E-3,-9.140358E-2,3.9452386E-1,3.7459906E-2,-6.717646E-2,-2.939154E-1,5.6048285E-2,-1.5125076E-1,-2.0845056E-1,-3.437434E-1,-4.2605135E-1,-3.8598467E-2],"categories":[],"categories_nodes":[],"categories_segments":[],"categories_sizes":[],"default_left":[0,0,0,0,0,0,0,0,0,0,0,0,0,0,0,0,0,0,0,0,0,0,0,0,0,0,0,0,0,0,0,0,0,0,0,0,0,0,0,0,0,0,0,0,0,0,0,0,0,0,0,0,0,0,0,0,0,0,0,0,0,0,0,0,0,0,0,0,0,0,0,0,0,0,0,0,0,0,0,0,0,0,0,0,0,0,0,0,0,0,0,0,0,0,0,0,0,0,0,0,0,0,0,0,0,0,0,0,0,0,0,0,0,0,0,0,0,0,0,0,0,0,0,0,0],"id":0,"left_children":[1,3,5,7,9,11,13,15,17,19,21,23,25,27,29,31,33,35,37,39,41,43,45,47,49,51,53,55,57,59,61,63,65,67,69,71,73,75,77,79,81,83,85,87,89,91,93,95,97,-1,99,101,103,105,107,109,111,113,115,117,119,121,123,-1,-1,-1,-1,-1,-1,-1,-1,-1,-1,-1,-1,-1,-1,-1,-1,-1,-1,-1,-1,-1,-1,-1,-1,-1,-1,-1,-1,-1,-1,-1,-1,-1,-1,-1,-1,-1,-1,-1,-1,-1,-1,-1,-1,-1,-1,-1,-1,-1,-1,-1,-1,-1,-1,-1,-1,-1,-1,-1,-1,-1,-1],"loss_changes":[1.554044E4,4.335887E3,5.622907E3,1.7142987E3,3.3369531E3,2.3494397E2,1.5614795E3,3.215448E2,2.0350204E2,9.21541E2,1.6381799E3,3.0251587E2,2.0652713E2,1.1281387E3,4.5973175E2,1.2373425E2,1.4408498E2,7.583865E1,2.7532343E2,2.510357E2,1.8309766E2,7.45751E2,3.01406E2,5.036902E1,8.386879E1,8.8510376E1,1.0709181E2,9.3320703E2,1.5514114E2,7.750161E1,1.22892944E2,3.699646E0,2.0270874E1,3.4449905E1,6.940781E1,3.5547333E1,3.2779633E1,8.880858E1,5.206607E1,5.5314423E1,2.1239258E2,1.2854199E2,7.232807E1,2.1906035E3,4.2782404E2,4.4124545E2,4.750786E2,9.1914185E1,1.5236694E1,0E0,3.3961647E1,5.2121117E1,1.717845E2,2.9455322E1,1.886606E1,6.02041E1,3.759375E1,5.5608406E0,6.4618546E1,4.6599884E1,3.3592014E1,8.278186E1,1.458601E2,0E0,0E0,0E0,0E0,0E0,0E0,0E0,0E0,0E0,0E0,0E0,0E0,0E0,0E0,0E0,0E0,0E0,0E0,0E0,0E0,0E0,0E0,0E0,0E0,0E0,0E0,0E0,0E0,0E0,0E0,0E0,0E0,0E0,0E0,0E0,0E0,0E0,0E0,0E0,0E0,0E0,0E0,0E0,0E0,0E0,0E0,0E0,0E0,0E0,0E0,0E0,0E0,0E0,0E0,0E0,0E0,0E0,0E0,0E0,0E0,0E0,0E0],"parents":[2147483647,0,0,1,1,2,2,3,3,4,4,5,5,6,6,7,7,8,8,9,9,10,10,11,11,12,12,13,13,14,14,15,15,16,16,17,17,18,18,19,19,20,20,21,21,22,22,23,23,24,24,25,25,26,26,27,27,28,28,29,29,30,30,31,31,32,32,33,33,34,34,35,35,36,36,37,37,38,38,39,39,40,40,41,41,42,42,43,43,44,44,45,45,46,46,47,47,48,48,50,50,51,51,52,52,53,53,54,54,55,55,56,56,57,57,58,58,59,59,60,60,61,61,62,62],"right_children":[2,4,6,8,10,12,14,16,18,20,22,24,26,28,30,32,34,36,38,40,42,44,46,48,50,52,54,56,58,60,62,64,66,68,70,72,74,76,78,80,82,84,86,88,90,92,94,96,98,-1,100,102,104,106,108,110,112,114,116,118,120,122,124,-1,-1,-1,-1,-1,-1,-1,-1,-1,-1,-1,-1,-1,-1,-1,-1,-1,-1,-1,-1,-1,-1,-1,-1,-1,-1,-1,-1,-1,-1,-1,-1,-1,-1,-1,-1,-1,-1,-1,-1,-1,-1,-1,-1,-1,-1,-1,-1,-1,-1,-1,-1,-1,-1,-1,-1,-1,-1,-1,-1,-1,-1],"split_conditions":[2E0,3.7250626E1,8.299866E1,8.348424E0,4.7863095E2,4.999115E1,4E0,5.66882E0,2.4029892E2,4.6868015E2,4.723897E1,5E0,4E0,4.9939883E2,4.1671857E2,1.097641E0,7.2680054E0,7.759383E1,4.655476E2,4.664475E1,4.809125E1,4.905292E2,4.837274E2,1.4078188E-1,1.4078188E-1,7.2680054E0,6.781062E1,4.357505E2,4.8623867E1,4.1453655E1,5E0,8.581791E-1,8.2287245E0,6.3453836E0,7.759383E1,7.626572E1,1.8727655E1,2.9605826E2,3.7044933E1,3.1763925E2,7.93158E2,4.7767252E2,5.033702E1,4.8627066E2,4.467584E1,4.8063364E2,4.8401965E2,4E0,6.201301E0,-2.0495522E-1,3.595097E0,5.7311398E1,8.348424E0,7.2680054E0,8.039782E1,2.1924986E2,4.9358643E1,4.6062992E1,5.2657425E1,4.092639E2,4.700718E1,4.5631213E2,4.1973434E2,9.7859335E-1,6.561813E-1,-1.2604465E-2,3.5780296E-1,2.094194E-1,4.3476425E-2,2.4352086E-1,6.1129063E-1,-1.8279001E-1,-4.4263235E-1,-6.873756E-2,-1.3242541E-1,1.5869632E-2,1.819078E-1,-2.998374E-1,5.8590002E-2,-4.8304853E-1,1.8473803E-1,7.706944E-1,2.1885188E-1,7.946157E-1,4.5753023E-1,-5.2409136E-1,3.9055598E-1,9.1909714E-2,6.0173196E-1,1.2859075E-1,-1.20728135E-1,9.5200694E-1,-3.7575442E-1,1.461049E0,5.479603E-1,7.325433E-1,-1.9746964E-1,2.8585228E-1,1.6144963E-1,4.9363393E-2,1.9239031E-1,-2.6174268E-2,-2.1506166E-1,2.3677103E-1,-7.875224E-2,1.8812647E-1,4.06212E-1,5.4431166E-3,2.889418E-1,-2.0811835E-1,-2.7081484E-1,-4.057745E-1,-2.5868446E-1,3.946421E-3,-9.140358E-2,3.9452386E-1,3.7459906E-2,-6.717646E-2,-2.939154E-1,5.6048285E-2,-1.5125076E-1,-2.0845056E-1,-3.437434E-1,-4.2605135E-1,-3.8598467E-2],"split_indices":[3,0,2,0,2,2,3,0,2,2,0,3,3,2,2,0,0,2,2,0,0,2,2,0,0,0,2,2,0,0,3,0,2,0,2,2,0,2,0,2,0,2,0,2,0,2,2,3,0,0,0,2,0,0,2,2,0,0,0,2,0,2,2,0,0,0,0,0,0,0,0,0,0,0,0,0,0,0,0,0,0,0,0,0,0,0,0,0,0,0,0,0,0,0,0,0,0,0,0,0,0,0,0,0,0,0,0,0,0,0,0,0,0,0,0,0,0,0,0,0,0,0,0,0,0],"split_type":[0,0,0,0,0,0,0,0,0,0,0,0,0,0,0,0,0,0,0,0,0,0,0,0,0,0,0,0,0,0,0,0,0,0,0,0,0,0,0,0,0,0,0,0,0,0,0,0,0,0,0,0,0,0,0,0,0,0,0,0,0,0,0,0,0,0,0,0,0,0,0,0,0,0,0,0,0,0,0,0,0,0,0,0,0,0,0,0,0,0,0,0,0,0,0,0,0,0,0,0,0,0,0,0,0,0,0,0,0,0,0,0,0,0,0,0,0,0,0,0,0,0,0,0,0],"sum_hessian":[7.3282945E4,3.218498E4,4.109796E4,1.5140668E4,1.7044312E4,7.250722E3,3.384724E4,3.6630903E3,1.1477577E4,3.9181082E3,1.3126205E4,4.329771E3,2.920951E3,2.4808824E4,9.038415E3,1.8050754E3,1.8580149E3,8.952289E3,2.5252883E3,1.1142953E3,2.8038127E3,1.1147102E4,1.9791039E3,2.577635E3,1.7521361E3,2.115008E3,8.0594305E2,2.3986684E4,8.221409E2,5.0685522E3,3.9698623E3,6.676685E1,1.7383086E3,1.3957828E3,4.6223206E2,4.4425638E2,8.508033E3,2.0638464E3,4.6144193E2,6.4870514E2,4.6559015E2,2.74712E3,5.6692566E1,6.5496704E3,4.597431E3,1.8074458E2,1.7983593E3,1.0291577E2,2.4747192E3,1.8331255E2,1.5688235E3,9.371064E2,1.1779016E3,4.5097256E2,3.5497052E2,9.956162E3,1.40305205E4,3.9052682E2,4.3161414E2,3.7020046E3,1.3665476E3,2.9326057E3,1.0372566E3,4.9383766E1,1.7383085E1,2.3901743E1,1.7144069E3,2.4138785E2,1.1543949E3,3.5516806E2,1.07064E2,3.306737E2,1.13582664E2,6.9162954E3,1.5917375E3,9.947866E2,1.0690598E3,3.8381064E2,7.763128E1,1.9555971E1,6.291492E2,2.777343E2,1.8785585E2,2.5472146E3,1.9990549E2,2.1333788E1,3.5358776E1,4.6513584E3,1.898312E3,2.7716145E3,1.8258167E3,5.8272846E1,1.2247174E2,9.5804504E1,1.7025548E3,2.0346111E1,8.256966E1,2.3008884E3,1.7383086E2,1.2306434E3,3.3818002E2,4.4484897E2,4.922574E2,4.3971307E2,7.3818854E2,1.5229953E2,2.9867303E2,3.1329062E2,4.16799E1,4.488787E3,5.4673755E3,1.3739946E4,2.905741E2,2.004981E2,1.9002873E2,3.2316736E2,1.08446754E2,3.5516804E3,1.5032419E2,1.2282731E3,1.3827455E2,1.599639E3,1.3329667E3,1.8943613E2,8.478205E2],"tree_param":{"num_deleted":"0","num_feature":"4","num_nodes":"125","size_leaf_vector":"1"}},{"base_weights":[-8.0553845E-2,2.1816705E-1,-3.5510454E-1,1.512072E-2,3.8078287E-1,1.4673126E-1,-4.959069E-1,3.3789608E-1,-9.606212E-2,6.325183E-1,2.1100709E-1,2.100642E-1,-5.8525633E-2,-3.2683235E-1,-6.828218E-1,4.6976736E-1,2.055617E-1,-8.3459415E-2,-7.7905345E-1,4.509353E-1,1.6420553E0,-5.5663043E-1,3.4550375E-1,-2.3510416E-1,2.2963263E-1,-1.4131214E-1,3.5935256E-1,-4.5560312E-1,-1.3759452E-1,-7.4339604E-1,1.9662611E-1,4.5341706E-1,1.4394324E0,1.4403832E-1,7.004094E-1,-9.197635E-2,1.580501E0,-9.3408257E-1,1.0338582E0,7.085409E-1,-4.682321E-1,-5.5214375E-1,1.7819614E0,-8.2279265E-2,-8.925201E-1,2.4907856E0,2.8478602E-1,7.9105866E-1,-1.4020835E-1,2.7492145E-1,1.2536298E-1,-9.3520606E-1,-1.03809446E-1,2.1162468E-1,9.276576E-1,-4.607653E-1,1.1733637E0,-6.858139E-2,-3.1701452E-1,-7.720888E-1,-1.1361681E-2,-9.7708955E-2,3.9659533E-1,3.6072245E-1,1.7264973E-1,4.3618637E-1,7.494994E-1,3.5981517E-2,1.8894188E-1,4.249239E-1,1.695825E-1,-5.5012286E-2,3.2511346E-2,3.597386E-1,1.1617405E0,-2.7357218E-1,-5.183763E-1,3.3234695E-1,6.489796E-1,2.7071717E-1,7.658663E-1,4.588911E-2,-3.5058007E-1,1.1161056E0,5.53467E-1,-1.8538819E-1,6.641535E-1,4.6562025E-1,-4.1682854E-1,1.1466358E0,-4.7302148E-1,-4.76186E-1,1.4361121E-1,1.8648013E-1,4.1358224E-1,7.922893E-2,1.9252916E-1,-1.3263836E-2,1.6963756E-1,-7.186832E-2,-3.8542387E-1,1.2739284E-1,-7.698055E-2,4.6236027E-2,2.2003841E-1,-7.72707E-2,4.9112996E-1,-1.550908E-1,-2.0403747E-1,-4.6718946E-1,8.9770716E-1,-3.168029E-1,-1.6964471E-2,-1.8205455E-1,-6.9862425E-2,-3.145238E-1,-7.8263246E-2,-3.9991102E-1,1.0313493E-1,1.5541677E-2,-9.170117E-2,1.877207E-1,-1.0147961E-1],"categories":[],"categories_nodes":[],"categories_segments":[],"categories_sizes":[],"default_left":[0,0,0,0,0,0,0,0,0,0,0,0,0,0,0,0,0,0,0,0,0,0,0,0,0,0,0,0,0,0,0,0,0,0,0,0,0,0,0,0,0,0,0,0,0,0,0,0,0,0,0,0,0,0,0,0,0,0,0,0,0,0,0,0,0,0,0,0,0,0,0,0,0,0,0,0,0,0,0,0,0,0,0,0,0,0,0,0,0,0,0,0,0,0,0,0,0,0,0,0,0,0,0,0,0,0,0,0,0,0,0,0,0,0,0,0,0,0,0,0,0,0,0],"id":1,"left_children":[1,3,5,7,9,11,13,15,17,19,21,23,25,27,29,31,33,35,37,39,41,43,45,47,49,51,53,55,57,59,61,63,65,67,69,71,73,75,77,79,81,-1,83,85,87,89,91,93,-1,95,97,99,101,103,105,107,109,111,113,115,117,119,121,-1,-1,-1,-1,-1,-1,-1,-1,-1,-1,-1,-1,-1,-1,-1,-1,-1,-1,-1,-1,-1,-1,-1,-1,-1,-1,-1,-1,-1,-1,-1,-1,-1,-1,-1,-1,-1,-1,-1,-1,-1,-1,-1,-1,-1,-1,-1,-1,-1,-1,-1,-1,-1,-1,-1,-1,-1,-1,-1,-1],"loss_changes":[5.842649E3,1.126527E3,2.623066E3,5.44581E2,8.095591E2,1.0575191E2,9.158843E2,6.775128E1,9.7088776E1,1.3979949E3,1.168509E3,5.4205902E1,6.6430695E1,3.7088354E2,7.3353467E2,3.0208893E1,5.903224E1,1.5722176E2,5.840696E1,1.5319393E3,4.9416748E2,2.6878796E2,1.2536029E3,3.133622E1,2.8086914E1,4.7606354E1,2.6464294E1,7.670972E1,7.632097E1,2.7052344E2,5.2299786E1,1.833081E1,2.7792206E0,3.0655361E1,2.1012184E1,8.705122E1,4.833458E1,1.620404E1,6.323166E-1,1.9218677E2,3.3721075E2,0E0,4.4264795E2,4.6619907E2,3.0502618E2,3.6909106E2,1.0262039E3,1.6342869E0,0E0,6.574603E1,8.549738E1,1.3724556E0,5.7373848E1,8.171177E0,2.218024E1,3.2336426E1,7.507355E1,8.4290565E1,3.359204E1,1.01444336E2,1.2979019E2,6.47609E0,2.512629E1,0E0,0E0,0E0,0E0,0E0,0E0,0E0,0E0,0E0,0E0,0E0,0E0,0E0,0E0,0E0,0E0,0E0,0E0,0E0,0E0,0E0,0E0,0E0,0E0,0E0,0E0,0E0,0E0,0E0,0E0,0E0,0E0,0E0,0E0,0E0,0E0,0E0,0E0,0E0,0E0,0E0,0E0,0E0,0E0,0E0,0E0,0E0,0E0,0E0,0E0,0E0,0E0,0E0,0E0,0E0,0E0,0E0,0E0,0E0,0E0],"parents":[2147483647,0,0,1,1,2,2,3,3,4,4,5,5,6,6,7,7,8,8,9,9,10,10,11,11,12,12,13,13,14,14,15,15,16,16,17,17,18,18,19,19,20,20,21,21,22,22,23,23,24,24,25,25,26,26,27,27,28,28,29,29,30,30,31,31,32,32,33,33,34,34,35,35,36,36,37,37,38,38,39,39,40,40,42,42,43,43,44,44,45,45,46,46,47,47,49,49,50,50,51,51,52,52,53,53,54,54,55,55,56,56,57,57,58,58,59,59,60,60,61,61,62,62],"right_children":[2,4,6,8,10,12,14,16,18,20,22,24,26,28,30,32,34,36,38,40,42,44,46,48,50,52,54,56,58,60,62,64,66,68,70,72,74,76,78,80,82,-1,84,86,88,90,92,94,-1,96,98,100,102,104,106,108,110,112,114,116,118,120,122,-1,-1,-1,-1,-1,-1,-1,-1,-1,-1,-1,-1,-1,-1,-1,-1,-1,-1,-1,-1,-1,-1,-1,-1,-1,-1,-1,-1,-1,-1,-1,-1,-1,-1,-1,-1,-1,-1,-1,-1,-1,-1,-1,-1,-1,-1,-1,-1,-1,-1,-1,-1,-1,-1,-1,-1,-1,-1,-1,-1],"split_conditions":[2E0,3.7250626E1,9.01318E1,8.140949E0,4.8340417E2,6.629063E1,4.4342E2,5.1897607E0,4.7767252E2,4.8136737E2,4.853139E2,1.4078188E-1,1.0191655E1,4E0,4.9939883E2,4.676177E1,7.324733E1,4.7606073E2,4.9547092E2,4.7950977E2,4.058514E1,4.8415152E2,4.8567508E2,4E0,6.201301E0,7.2680054E0,8.8278725E1,7.93158E2,4.092639E2,5E0,4.825216E1,1.097641E0,4.999115E1,7.2680054E0,7.626572E1,2.4029892E2,3.66301E1,3.66301E1,4.9828036E2,4.7886127E2,4.4230614E1,-5.5214375E-1,4.816868E2,4.5416615E1,3.9504227E1,4.723897E1,4.8601678E2,3E0,-1.4020835E-1,4.028084E0,7.2680054E0,6.3453836E0,8.348424E0,1.174662E1,1.0437012E1,2.1924986E2,1.2254742E2,1.2045271E1,4.2758575E1,4.9688347E1,4.257176E1,4.581973E1,5.705865E1,3.6072245E-1,1.7264973E-1,4.3618637E-1,7.494994E-1,3.5981517E-2,1.8894188E-1,4.249239E-1,1.695825E-1,-5.5012286E-2,3.2511346E-2,3.597386E-1,1.1617405E0,-2.7357218E-1,-5.183763E-1,3.3234695E-1,6.489796E-1,2.7071717E-1,7.658663E-1,4.588911E-2,-3.5058007E-1,1.1161056E0,5.53467E-1,-1.8538819E-1,6.641535E-1,4.6562025E-1,-4.1682854E-1,1.1466358E0,-4.7302148E-1,-4.76186E-1,1.4361121E-1,1.8648013E-1,4.1358224E-1,7.922893E-2,1.9252916E-1,-1.3263836E-2,1.6963756E-1,-7.186832E-2,-3.8542387E-1,1.2739284E-1,-7.698055E-2,4.6236027E-2,2.2003841E-1,-7.72707E-2,4.9112996E-1,-1.550908E-1,-2.0403747E-1,-4.6718946E-1,8.9770716E-1,-3.168029E-1,-1.6964471E-2,-1.8205455E-1,-6.9862425E-2,-3.145238E-1,-7.8263246E-2,-3.9991102E-1,1.0313493E-1,1.5541677E-2,-9.170117E-2,1.877207E-1,-1.0147961E-1],"split_indices":[3,0,2,0,2,2,2,0,2,2,2,0,0,3,2,2,2,2,2,2,0,2,2,3,0,0,2,0,2,3,0,0,2,0,2,2,0,0,2,2,0,0,2,0,0,0,2,3,0,0,0,0,0,0,0,2,2,0,0,0,0,0,0,0,0,0,0,0,0,0,0,0,0,0,0,0,0,0,0,0,0,0,0,0,0,0,0,0,0,0,0,0,0,0,0,0,0,0,0,0,0,0,0,0,0,0,0,0,0,0,0,0,0,0,0,0,0,0,0,0,0,0,0],"split_type":[0,0,0,0,0,0,0,0,0,0,0,0,0,0,0,0,0,0,0,0,0,0,0,0,0,0,0,0,0,0,0,0,0,0,0,0,0,0,0,0,0,0,0,0,0,0,0,0,0,0,0,0,0,0,0,0,0,0,0,0,0,0,0,0,0,0,0,0,0,0,0,0,0,0,0,0,0,0,0,0,0,0,0,0,0,0,0,0,0,0,0,0,0,0,0,0,0,0,0,0,0,0,0,0,0,0,0,0,0,0,0,0,0,0,0,0,0,0,0,0,0,0,0],"sum_hessian":[7.123769E4,3.4117184E4,3.7120504E4,1.5172945E4,1.894424E4,8.133114E3,2.898739E4,3.8868823E3,1.1286063E4,7.6292407E3,1.1314999E4,6.2153237E3,1.9177898E3,1.5221489E4,1.37659E4,1.9455702E3,1.941312E3,1.1082686E4,2.0337788E2,6.46741E3,1.1618306E3,1.6864536E3,9.628546E3,2.612416E2,5.954082E3,1.6012295E3,3.165603E2,9.057036E3,6.1644536E3,1.2878982E4,8.869181E2,1.9147516E3,3.08186E1,1.7277905E3,2.1352148E2,1.10271875E4,5.5497677E1,1.8780289E2,1.5574994E1,5.051818E3,1.4155919E3,5.1009E1,1.1108217E3,6.996444E2,9.8680914E2,2.6391364E2,9.364632E3,2.582037E1,2.3542123E2,4.1499453E3,1.8041367E3,7.114863E1,1.5300809E3,2.523386E2,6.42217E1,9.02914E3,2.7895985E1,4.453006E3,1.7114475E3,1.2393166E4,4.858165E2,3.5900677E2,5.279113E2,8.687642E1,1.8278751E3,1.9035017E1,1.1783583E1,1.4845159E3,2.4327469E2,9.123917E1,1.2228231E2,8.731576E3,2.2956118E3,3.7752434E1,1.7745243E1,1.1274942E2,7.5053474E1,1.337418E1,2.2008145E0,4.923774E3,1.2804396E2,5.8331256E2,8.322793E2,3.1284146E2,7.979801E2,5.7467395E2,1.2497049E2,6.6435104E1,9.20374E2,2.3961888E2,2.4294758E1,4.4797418E2,8.916658E3,1.2295414E1,1.3524955E1,3.0254458E3,1.1244996E3,1.1792518E3,6.2488495E2,2.8388479E0,6.830978E1,2.6500415E2,1.2650768E3,1.9761166E2,5.472693E1,1.3641257E1,5.0580444E1,3.643395E3,5.385745E3,8.726481E0,1.9169504E1,1.5444354E2,4.2985625E3,8.675341E2,8.4391345E2,1.209443E4,2.9873593E2,1.0341062E2,3.8240588E2,1.7648866E2,1.8251811E2,4.7507382E2,5.2837486E1],"tree_param":{"num_deleted":"0","num_feature":"4","num_nodes":"123","size_leaf_vector":"1"}},{"base_weights":[-6.0602922E-2,1.207414E-1,-2.4417986E-1,8.041525E-2,4.7649407E-1,-6.9137104E-2,-4.7705352E-1,1.0311788E-1,-2.597365E-1,6.302576E-1,1.6827537E-1,1.1996509E-1,-1.7094068E-1,-5.1653767E-1,1.2124174E-1,7.787909E-2,1.1085013E0,-6.795467E-1,3.4787795E-1,4.3267357E-1,1.1287826E0,4.857269E-1,4.086973E-2,1.679623E-1,1.5719349E-2,-2.400235E-1,7.590608E-2,-5.943643E-1,-2.5616723E-1,-2.768712E-2,2.5644356E-1,1.0591262E-1,-1.1498895E0,-9.09733E-1,1.2770265E0,-1.2166196E0,-2.3902203E-1,1.6035591E0,2.712527E-2,8.114947E-1,-6.434189E-1,1.6632881E0,4.775268E-1,-6.018344E-1,6.376324E-1,-1.783955E-1,3.1537658E-1,4.050192E-2,2.7665558E-1,3.1998374E-2,-4.8920643E-1,-3.5484383E-1,-1.3664727E-1,3.123099E-1,-5.695529E-2,-3.39493E-1,-6.380447E-1,-2.9629272E-1,2.4089323E-1,3.2043878E-2,-2.5378612E-1,4.8760697E-1,4.8602697E-2,3.8904466E-2,7.0185715E-1,-7.889772E-2,-5.4470444E-1,2.7709892E-1,-5.808418E-1,1.098713E0,4.6039253E-1,1.1487549E-1,-5.421318E-1,-3.9022288E-1,6.4313605E-2,4.5000926E-1,9.477269E-1,-5.3299E-1,3.2858753E-1,2.0700215E-1,5.12659E-1,-5.979014E-1,-5.9164383E-2,-4.0033156E-1,7.055765E-1,5.43991E-1,-1.0203733E-1,8.8083345E-1,-5.9749794E-1,6.858065E-1,2.1674414E-1,2.0836642E-2,-6.542785E-1,1.6863297E-1,-6.9427E-2,6.8686984E-2,-6.900539E-2,1.1560428E-1,-1.1268939E-1,3.5157471E-3,3.8494056E-1,-2.2535007E-1,7.447036E-2,-1.06214814E-1,-2.1228385E-1,-1.08415976E-1,-3.952023E-2,-8.612227E-2,1.8028788E-1,-1.1832702E-2,-1.5715797E-1,-4.123834E-1,-1.0531439E-1,-2.4596973E-1,-3.5431865E-1,-4.324235E-1,-1.0956719E-1,-7.020342E-2,2.2779357E-1,-1.7740062E-2,2.0060658E-1,3.4892926E-1,-1.8521315E-1,3.1028152E-1,1.323514E-3,1.866711E-3,3.1710985E-1],"categories":[],"categories_nodes":[],"categories_segments":[],"categories_sizes":[],"default_left":[0,0,0,0,0,0,0,0,0,0,0,0,0,0,0,0,0,0,0,0,0,0,0,0,0,0,0,0,0,0,0,0,0,0,0,0,0,0,0,0,0,0,0,0,0,0,0,0,0,0,0,0,0,0,0,0,0,0,0,0,0,0,0,0,0,0,0,0,0,0,0,0,0,0,0,0,0,0,0,0,0,0,0,0,0,0,0,0,0,0,0,0,0,0,0,0,0,0,0,0,0,0,0,0,0,0,0,0,0,0,0,0,0,0,0,0,0,0,0,0,0,0,0,0,0,0,0],"id":2,"left_children":[1,3,5,7,9,11,13,15,17,19,21,23,25,27,29,31,33,35,37,39,41,43,45,47,49,51,53,55,57,59,61,63,65,67,69,71,73,75,77,79,81,83,85,87,89,91,93,95,97,99,101,103,105,107,109,111,113,115,117,119,121,123,125,-1,-1,-1,-1,-1,-1,-1,-1,-1,-1,-1,-1,-1,-1,-1,-1,-1,-1,-1,-1,-1,-1,-1,-1,-1,-1,-1,-1,-1,-1,-1,-1,-1,-1,-1,-1,-1,-1,-1,-1,-1,-1,-1,-1,-1,-1,-1,-1,-1,-1,-1,-1,-1,-1,-1,-1,-1,-1,-1,-1,-1,-1,-1,-1],"loss_changes":[2.2738367E3,4.929014E2,1.3835496E3,2.3836372E2,1.6568134E2,3.7307782E2,3.4413232E2,7.3407886E2,4.9287814E2,2.2936108E2,4.71258E1,3.3931625E1,2.1483679E2,2.767202E2,1.817949E1,9.7160785E2,2.421261E2,2.700182E2,3.180587E2,6.824201E2,2.2954907E2,5.552182E1,5.0189423E1,6.432475E1,1.7599869E1,1.1678339E2,8.6559814E1,1.16883545E2,6.2817963E1,5.8201275E0,2.270899E1,3.9346185E2,1.2692377E2,4.8967155E1,1.1804736E2,1.0772894E2,1.8535355E2,5.6214905E1,6.816162E2,1.704068E2,1.8374568E2,9.911279E1,1.9409322E2,1.068697E2,2.9324104E1,1.5583347E2,1.9298637E1,5.980441E1,1.737172E1,4.4761547E1,3.454979E0,7.309137E1,2.63264E1,7.250498E1,1.6217321E1,8.093404E1,5.088452E1,5.0826187E1,3.2328613E1,1.22632885E1,2.162165E1,3.1236607E1,8.178609E0,0E0,0E0,0E0,0E0,0E0,0E0,0E0,0E0,0E0,0E0,0E0,0E0,0E0,0E0,0E0,0E0,0E0,0E0,0E0,0E0,0E0,0E0,0E0,0E0,0E0,0E0,0E0,0E0,0E0,0E0,0E0,0E0,0E0,0E0,0E0,0E0,0E0,0E0,0E0,0E0,0E0,0E0,0E0,0E0,0E0,0E0,0E0,0E0,0E0,0E0,0E0,0E0,0E0,0E0,0E0,0E0,0E0,0E0,0E0,0E0,0E0,0E0,0E0,0E0],"parents":[2147483647,0,0,1,1,2,2,3,3,4,4,5,5,6,6,7,7,8,8,9,9,10,10,11,11,12,12,13,13,14,14,15,15,16,16,17,17,18,18,19,19,20,20,21,21,22,22,23,23,24,24,25,25,26,26,27,27,28,28,29,29,30,30,31,31,32,32,33,33,34,34,35,35,36,36,37,37,38,38,39,39,40,40,41,41,42,42,43,43,44,44,45,45,46,46,47,47,48,48,49,49,50,50,51,51,52,52,53,53,54,54,55,55,56,56,57,57,58,58,59,59,60,60,61,61,62,62],"right_children":[2,4,6,8,10,12,14,16,18,20,22,24,26,28,30,32,34,36,38,40,42,44,46,48,50,52,54,56,58,60,62,64,66,68,70,72,74,76,78,80,82,84,86,88,90,92,94,96,98,100,102,104,106,108,110,112,114,116,118,120,122,124,126,-1,-1,-1,-1,-1,-1,-1,-1,-1,-1,-1,-1,-1,-1,-1,-1,-1,-1,-1,-1,-1,-1,-1,-1,-1,-1,-1,-1,-1,-1,-1,-1,-1,-1,-1,-1,-1,-1,-1,-1,-1,-1,-1,-1,-1,-1,-1,-1,-1,-1,-1,-1,-1,-1,-1,-1,-1,-1,-1,-1,-1,-1,-1,-1],"split_conditions":[2E0,4.700718E1,4.1671857E2,4.9808554E2,4.9688347E1,7.12093E1,4.9939883E2,4.9649622E2,4.348484E1,4.9554602E2,3.9117722E2,5E0,3.8882267E1,4E0,4.9358643E1,4.9547092E2,4.1711452E1,4.996969E2,4.992767E2,4.9018988E2,4.9939883E2,1.637582E2,4.996969E2,3E0,9.08322E0,3E0,3.7407553E2,4.4087134E2,4.9688347E1,3E0,5.1181385E1,4.952203E2,4.293416E1,3.7044933E1,4.9662122E2,3.903571E1,4.0449966E1,4.986759E2,4.996969E2,4.8495792E2,4.9106033E2,4.7905773E1,4.7739235E1,4.676177E1,2.0977513E2,4.9828036E2,5.705865E1,6.3453836E0,6.9438225E1,6.2232388E1,6.9438225E1,2.2413824E2,1.2386831E1,3.1763925E2,4.571827E1,3.775557E1,4.932167E2,3.7464462E1,4.737973E2,4.825216E1,4.5528664E1,3E0,4E0,3.8904466E-2,7.0185715E-1,-7.889772E-2,-5.4470444E-1,2.7709892E-1,-5.808418E-1,1.098713E0,4.6039253E-1,1.1487549E-1,-5.421318E-1,-3.9022288E-1,6.4313605E-2,4.5000926E-1,9.477269E-1,-5.3299E-1,3.2858753E-1,2.0700215E-1,5.12659E-1,-5.979014E-1,-5.9164383E-2,-4.0033156E-1,7.055765E-1,5.43991E-1,-1.0203733E-1,8.8083345E-1,-5.9749794E-1,6.858065E-1,2.1674414E-1,2.0836642E-2,-6.542785E-1,1.6863297E-1,-6.9427E-2,6.8686984E-2,-6.900539E-2,1.1560428E-1,-1.1268939E-1,3.5157471E-3,3.8494056E-1,-2.2535007E-1,7.447036E-2,-1.06214814E-1,-2.1228385E-1,-1.08415976E-1,-3.952023E-2,-8.612227E-2,1.8028788E-1,-1.1832702E-2,-1.5715797E-1,-4.123834E-1,-1.0531439E-1,-2.4596973E-1,-3.5431865E-1,-4.324235E-1,-1.0956719E-1,-7.020342E-2,2.2779357E-1,-1.7740062E-2,2.0060658E-1,3.4892926E-1,-1.8521315E-1,3.1028152E-1,1.323514E-3,1.866711E-3,3.1710985E-1],"split_indices":[3,0,2,2,0,2,2,2,0,2,2,3,0,3,0,2,0,2,2,2,2,2,2,3,0,3,2,2,0,3,0,2,0,0,2,0,0,2,2,2,2,0,0,2,2,2,0,0,2,2,2,2,0,2,0,0,2,0,2,0,0,3,3,0,0,0,0,0,0,0,0,0,0,0,0,0,0,0,0,0,0,0,0,0,0,0,0,0,0,0,0,0,0,0,0,0,0,0,0,0,0,0,0,0,0,0,0,0,0,0,0,0,0,0,0,0,0,0,0,0,0,0,0,0,0,0,0],"split_type":[0,0,0,0,0,0,0,0,0,0,0,0,0,0,0,0,0,0,0,0,0,0,0,0,0,0,0,0,0,0,0,0,0,0,0,0,0,0,0,0,0,0,0,0,0,0,0,0,0,0,0,0,0,0,0,0,0,0,0,0,0,0,0,0,0,0,0,0,0,0,0,0,0,0,0,0,0,0,0,0,0,0,0,0,0,0,0,0,0,0,0,0,0,0,0,0,0,0,0,0,0,0,0,0,0,0,0,0,0,0,0,0,0,0,0,0,0,0,0,0,0,0,0,0,0,0,0],"sum_hessian":[6.83007E4,3.4359457E4,3.3941242E4,3.0862305E4,3.4971536E3,1.9377312E4,1.4563932E4,2.8932002E4,1.9303019E3,2.3324836E3,1.1646699E3,6.7811016E3,1.2596211E4,1.3662425E4,9.01507E2,2.8224541E4,7.074614E2,1.1415022E3,7.8879974E2,1.6717677E3,6.6071606E2,3.3275217E2,8.319177E2,4.642824E3,2.1382773E3,9.841879E3,2.7543313E3,1.051741E4,3.1450146E3,4.2935495E2,4.721521E2,2.7595371E4,6.291689E2,5.418241E1,6.5327905E2,5.1358936E2,6.279128E2,1.5968118E2,6.291186E2,1.2366654E3,4.3510236E2,3.6203165E2,2.986844E2,4.0418163E1,2.92334E2,4.6268964E2,3.6922806E2,2.1375615E3,2.5052625E3,2.072399E3,6.587841E1,4.66169E3,5.180189E3,9.905206E2,1.7638107E3,1.5400607E3,8.97735E3,2.9104695E3,2.3454527E2,3.403099E2,8.9045044E1,2.22897E2,2.4925508E2,2.7452379E4,1.429932E2,1.14822014E2,5.1434686E2,1.3631067E1,4.0551346E1,4.995732E1,6.033217E2,4.3281937E1,4.7030743E2,2.2041582E2,4.0749695E2,9.978987E1,5.989132E1,2.3176007E2,3.9735852E2,7.621741E2,4.7449124E2,1.5933372E2,2.7576862E2,1.2854385E1,3.4917728E2,1.3509924E2,1.6358516E2,9.399572E0,3.1018589E1,2.2494837E1,2.6983917E2,4.0033655E2,6.2353085E1,3.034517E2,6.577639E1,1.3228759E3,8.1468567E2,2.4515012E3,5.376138E1,2.0229431E3,4.9455803E1,5.950911E1,6.369296E0,3.093356E3,1.5683342E3,1.1369055E3,4.0432837E3,2.0572922E2,7.8479144E2,1.631924E3,1.3188681E2,1.5163852E2,1.3884221E3,8.21427E3,7.630799E2,7.936942E1,2.8310999E3,1.0365538E2,1.308899E2,2.9346234E2,4.684757E1,1.345657E1,7.558848E1,1.3938103E2,8.3515976E1,2.3630963E2,1.2945453E1],"tree_param":{"num_deleted":"0","num_feature":"4","num_nodes":"127","size_leaf_vector":"1"}},{"base_weights":[-4.4332862E-2,7.000706E-2,-1.6866346E-1,-2.9045422E-2,1.6100147E-1,-7.751833E-2,-4.100888E-1,2.2631775E-1,-7.688379E-2,4.5391846E-1,8.5083865E-2,5.9317645E-2,-1.545441E-1,-4.6137786E-1,1.16804324E-1,6.616604E-1,2.1550764E-1,-6.84688E-2,-1.1036109E0,-3.416906E-2,6.046898E-1,1.0844387E0,6.821525E-2,4.4823878E-2,2.6145706E-1,-2.0100035E-1,9.7255455E-3,-4.8918182E-1,-9.265899E-3,2.4029985E-1,-5.4086304E-1,3.565729E-1,1.9292079E-1,1.4684564E-1,2.500869E-1,-8.491168E-2,1.1321416E0,-3.417838E-1,-5.760106E-1,3.226319E-1,-2.912872E-1,5.017224E-1,1.0540863E0,1.4438814E0,-1.1787947E-1,-1.2265152E0,7.862785E-2,5.805139E-2,-3.9442098E-1,-7.5546235E-2,3.293665E-1,-2.3070678E-1,-4.5736562E-2,7.149367E-2,-3.2088435E-1,-5.5882126E-1,-3.5685045E-1,-4.4160888E-2,4.1530788E-1,3.770428E-1,1.7364013E-1,-1.0263715E0,5.503639E-1,1.1035599E-1,-1.7429428E-1,2.0736301E-1,7.851935E-2,-2.4210313E-2,-3.9729807E-1,-3.124381E-1,7.497148E-1,-4.8873025E-1,1.5353619E-1,-1.936198E-2,3.4061158E-1,-9.09177E-2,-3.5830662E-1,2.4939077E-1,-7.7508265E-1,6.4063483E-1,1.3951963E-1,2.1199773E-1,7.2119653E-1,-4.888434E-1,2.1633153E-1,-2.5496548E-1,-6.22274E-1,6.971812E-2,-1.9684086E-2,-5.134651E-2,2.9153544E-2,-2.553386E-1,6.536626E-2,8.913588E-2,-1.2838688E-1,5.295889E-1,1.00083314E-1,-8.030644E-2,-1.9693342E-1,-4.5082238E-2,1.4966801E-1,1.2896255E-2,1.509185E-1,6.69729E-1,-1.4543672E-1,-3.967345E-1,-2.085146E-1,7.033535E-1,-1.5208301E-1,-8.731822E-3,-1.9631979E-1,1.27259E-1,5.130699E-1,1.1828532E-1,1.1792207E0,-4.2063472E-1,8.8632725E-2,-4.627653E-1,-3.08128E-1,6.018765E-1,-1.15868345E-1],"categories":[],"categories_nodes":[],"categories_segments":[],"categories_sizes":[],"default_left":[0,0,0,0,0,0,0,0,0,0,0,0,0,0,0,0,0,0,0,0,0,0,0,0,0,0,0,0,0,0,0,0,0,0,0,0,0,0,0,0,0,0,0,0,0,0,0,0,0,0,0,0,0,0,0,0,0,0,0,0,0,0,0,0,0,0,0,0,0,0,0,0,0,0,0,0,0,0,0,0,0,0,0,0,0,0,0,0,0,0,0,0,0,0,0,0,0,0,0,0,0,0,0,0,0,0,0,0,0,0,0,0,0,0,0,0,0,0,0,0,0],"id":3,"left_children":[1,3,5,7,9,11,13,15,17,19,21,23,25,27,29,31,33,35,37,39,41,43,45,47,49,51,53,55,57,59,61,-1,-1,63,65,67,69,71,-1,73,75,77,79,81,83,85,87,89,91,93,95,97,99,101,103,105,107,109,111,113,115,117,119,-1,-1,-1,-1,-1,-1,-1,-1,-1,-1,-1,-1,-1,-1,-1,-1,-1,-1,-1,-1,-1,-1,-1,-1,-1,-1,-1,-1,-1,-1,-1,-1,-1,-1,-1,-1,-1,-1,-1,-1,-1,-1,-1,-1,-1,-1,-1,-1,-1,-1,-1,-1,-1,-1,-1,-1,-1,-1],"loss_changes":[9.410458E2,3.108166E2,6.97797E2,2.0172786E2,3.996418E2,2.4266533E2,2.3491858E2,1.2118881E1,1.2008241E2,2.722445E2,2.4057019E2,2.4283907E1,1.12418915E2,9.955725E1,6.2811184E1,2.151785E0,6.00296E0,2.7243683E2,2.8466309E1,8.027152E1,1.3025073E2,1.0254489E2,1.893648E2,4.4987877E1,1.2717598E1,5.2954803E1,6.636125E1,6.856091E1,6.8316927E0,5.863449E0,6.536785E1,0E0,0E0,6.435537E1,2.429451E1,3.014062E2,2.6620493E2,2.3408548E1,0E0,7.1964E1,1.946492E1,6.8472394E2,2.0253033E2,5.891971E1,4.0989597E1,2.0739609E1,1.7034781E2,2.0785027E1,3.0906837E1,6.942689E0,3.60255E1,7.540558E1,5.193895E1,3.285327E1,4.419908E1,7.891077E1,1.2791028E2,4.2368064E0,2.5433831E0,4.3522057E1,2.602723E1,1.9500046E0,3.115136E1,0E0,0E0,0E0,0E0,0E0,0E0,0E0,0E0,0E0,0E0,0E0,0E0,0E0,0E0,0E0,0E0,0E0,0E0,0E0,0E0,0E0,0E0,0E0,0E0,0E0,0E0,0E0,0E0,0E0,0E0,0E0,0E0,0E0,0E0,0E0,0E0,0E0,0E0,0E0,0E0,0E0,0E0,0E0,0E0,0E0,0E0,0E0,0E0,0E0,0E0,0E0,0E0,0E0,0E0,0E0,0E0,0E0,0E0],"parents":[2147483647,0,0,1,1,2,2,3,3,4,4,5,5,6,6,7,7,8,8,9,9,10,10,11,11,12,12,13,13,14,14,15,15,16,16,17,17,18,18,19,19,20,20,21,21,22,22,23,23,24,24,25,25,26,26,27,27,28,28,29,29,30,30,33,33,34,34,35,35,36,36,37,37,39,39,40,40,41,41,42,42,43,43,44,44,45,45,46,46,47,47,48,48,49,49,50,50,51,51,52,52,53,53,54,54,55,55,56,56,57,57,58,58,59,59,60,60,61,61,62,62],"right_children":[2,4,6,8,10,12,14,16,18,20,22,24,26,28,30,32,34,36,38,40,42,44,46,48,50,52,54,56,58,60,62,-1,-1,64,66,68,70,72,-1,74,76,78,80,82,84,86,88,90,92,94,96,98,100,102,104,106,108,110,112,114,116,118,120,-1,-1,-1,-1,-1,-1,-1,-1,-1,-1,-1,-1,-1,-1,-1,-1,-1,-1,-1,-1,-1,-1,-1,-1,-1,-1,-1,-1,-1,-1,-1,-1,-1,-1,-1,-1,-1,-1,-1,-1,-1,-1,-1,-1,-1,-1,-1,-1,-1,-1,-1,-1,-1,-1,-1,-1,-1,-1],"split_conditions":[2E0,3.8663593E1,4.5415958E2,6.47313E0,4.7638565E2,9.01318E1,4.9688347E1,8.581791E-1,4.9458566E2,4.567412E2,3.903571E1,9.70929E0,5E0,4.9939883E2,5.705865E1,3.619678E-1,2.0036617E1,4.8941183E2,3.7044933E1,3.9117722E2,4.7606073E2,4.915868E2,4.7711862E2,8.299866E1,7.626572E1,4.293416E1,4.5101875E1,3E0,4.9358643E1,4.932167E2,3E0,3.565729E-1,1.9292079E-1,1.8177544E1,3.1812532E0,4.7767252E2,3.7250626E1,4.9547092E2,-5.760106E-1,3.1763925E2,4.521477E2,4.7583807E2,4.741091E1,4.8800998E2,4.9701392E2,4.7670132E2,4.905292E2,3.619678E-1,9.421833E0,5E0,7.759383E1,4.2028114E1,4.4770862E2,4.1171036E2,2.0977513E2,4.5631213E2,4.0146465E1,4.910376E1,4E0,4.915868E2,4.9547092E2,4.9701392E2,4E0,1.1035599E-1,-1.7429428E-1,2.0736301E-1,7.851935E-2,-2.4210313E-2,-3.9729807E-1,-3.124381E-1,7.497148E-1,-4.8873025E-1,1.5353619E-1,-1.936198E-2,3.4061158E-1,-9.09177E-2,-3.5830662E-1,2.4939077E-1,-7.7508265E-1,6.4063483E-1,1.3951963E-1,2.1199773E-1,7.2119653E-1,-4.888434E-1,2.1633153E-1,-2.5496548E-1,-6.22274E-1,6.971812E-2,-1.9684086E-2,-5.134651E-2,2.9153544E-2,-2.553386E-1,6.536626E-2,8.913588E-2,-1.2838688E-1,5.295889E-1,1.00083314E-1,-8.030644E-2,-1.9693342E-1,-4.5082238E-2,1.4966801E-1,1.2896255E-2,1.509185E-1,6.69729E-1,-1.4543672E-1,-3.967345E-1,-2.085146E-1,7.033535E-1,-1.5208301E-1,-8.731822E-3,-1.9631979E-1,1.27259E-1,5.130699E-1,1.1828532E-1,1.1792207E0,-4.2063472E-1,8.8632725E-2,-4.627653E-1,-3.08128E-1,6.018765E-1,-1.15868345E-1],"split_indices":[3,0,2,0,2,2,0,0,2,2,0,0,3,2,0,0,2,2,0,2,2,2,2,2,2,0,0,3,0,2,3,0,0,2,0,2,0,2,0,2,2,2,0,2,2,2,2,0,0,3,2,0,2,2,2,2,0,0,3,2,2,2,3,0,0,0,0,0,0,0,0,0,0,0,0,0,0,0,0,0,0,0,0,0,0,0,0,0,0,0,0,0,0,0,0,0,0,0,0,0,0,0,0,0,0,0,0,0,0,0,0,0,0,0,0,0,0,0,0,0,0],"split_type":[0,0,0,0,0,0,0,0,0,0,0,0,0,0,0,0,0,0,0,0,0,0,0,0,0,0,0,0,0,0,0,0,0,0,0,0,0,0,0,0,0,0,0,0,0,0,0,0,0,0,0,0,0,0,0,0,0,0,0,0,0,0,0,0,0,0,0,0,0,0,0,0,0,0,0,0,0,0,0,0,0,0,0,0,0,0,0,0,0,0,0,0,0,0,0,0,0,0,0,0,0,0,0,0,0,0,0,0,0,0,0,0,0,0,0,0,0,0,0,0,0],"sum_hessian":[6.619465E4,3.4482992E4,3.1711652E4,1.6510775E4,1.7972217E4,2.3021635E4,8.690019E3,2.6044397E3,1.3906336E4,3.6982153E3,1.4274002E4,8.291697E3,1.4729937E4,7.9192627E3,7.707557E2,6.164573E1,2.542794E3,1.3794345E4,1.1199091E2,8.72965E2,2.8252502E3,2.3588817E2,1.4038114E4,7.7380845E3,5.536131E2,1.1482427E4,3.2475098E3,7.4603823E3,4.588801E2,6.494397E2,1.2131593E2,2.5284382E1,3.6361347E1,8.5343164E2,1.6893623E3,1.3608895E4,1.8545041E2,3.4922787E1,7.706813E1,3.655036E2,5.0746146E2,2.300311E3,5.249392E2,1.814433E2,5.4444866E1,1.1106606E2,1.3927048E4,7.512713E3,2.2537158E2,9.2829704E1,4.607834E2,9.637929E3,1.8444984E3,2.7369473E3,5.105624E2,4.885934E3,2.5744482E3,4.2485776E2,3.4022343E1,2.1131035E2,4.3812936E2,8.400146E1,3.7314476E1,6.991036E2,1.5432806E2,2.8066174E2,1.4087006E3,1.325413E4,3.547651E2,5.1816353E1,1.3363406E2,1.5473092E1,1.9449694E1,2.1534279E2,1.5016081E2,4.6012637E2,4.733508E1,2.191667E3,1.08644035E2,2.9481177E2,2.3012746E2,5.1883217E1,1.2956009E2,2.0023335E1,3.442153E1,4.0866104E1,7.019996E1,7.965621E3,5.9614263E3,5.5313525E2,6.9595776E3,1.5670483E2,6.866674E1,4.1935726E1,5.0893982E1,3.2809803E1,4.2797357E2,8.649809E3,9.881201E2,1.5914213E3,2.5307712E2,2.4265757E3,3.1037155E2,9.898942E0,5.0066348E2,3.877124E2,4.4982217E3,2.7306074E1,2.547142E3,4.056259E2,1.9231878E1,3.182426E1,2.198082E0,2.059117E2,5.398647E0,1.5709637E1,4.2241974E2,5.330626E1,3.0695202E1,1.7098444E1,2.0216032E1],"tree_param":{"num_deleted":"0","num_feature":"4","num_nodes":"121","size_leaf_vector":"1"}},{"base_weights":[-3.2345973E-2,3.937837E-2,-1.1388388E-1,1.7302427E-2,2.3812479E-1,-4.2101264E-2,-2.8534868E-1,4.0662292E-2,-1.1155858E-1,1.3662039E-1,4.517887E-1,3.0028777E-2,-8.855605E-2,-3.2181013E-1,3.332301E-2,7.974551E-3,3.653479E-1,-3.1668368E-1,6.0224716E-2,2.3876826E-1,-1.3997127E0,1.6073508E0,2.9306525E-1,-3.1049382E-2,6.2215287E-2,-4.2410618E-1,-6.804669E-2,-4.1571176E-1,-1.985294E-1,-2.9318464E-1,5.215269E-2,4.908419E-2,-5.0765836E-1,4.7767833E-1,-1.6380591E0,2.1412742E-1,-6.24864E-1,6.264912E-1,-1.817679E-1,1.6183901E-1,1.3990886E0,-4.8079652E-1,-1.5042456E0,-2.9523343E-1,6.547198E-1,7.294187E-1,1.6192062E-1,6.908531E-2,-1.2067109E-1,-4.9512394E-2,8.999876E-2,7.131945E-2,-6.714987E-1,-1.7164406E-1,-2.1717122E-2,-3.7129465E-1,-8.2182086E-1,-2.3191312E-1,6.831234E-1,-2.0926382E-1,-4.6615624E-1,9.817359E-2,-5.423396E-2,9.926659E-4,2.5970137E-1,-2.6922032E-1,5.717309E-1,-2.991805E-2,4.12227E-1,-3.8056988E-1,-7.079703E-1,-3.4492245E-1,1.1593767E-1,-3.716513E-1,-3.2162946E-2,1.5636611E-1,4.2470098E-1,-2.3724401E-1,4.7850188E-2,9.62307E-2,-3.9082557E-1,9.1969126E-1,3.896345E-1,7.8371185E-1,-4.6992514E-1,-6.6794765E-1,-3.0281487E-1,-1.0087861E-1,3.8830605E-1,-5.0052255E-1,1.02229714E-1,-1.4867151E-2,1.1321502E-1,-1.51295E-1,-6.2085924E-6,4.944542E-1,-6.4629935E-2,4.8869602E-2,1.0790656E-2,-2.043873E-1,1.4362118E-1,-2.9317018E-1,8.43893E-2,9.820403E-2,-8.437182E-2,3.7652656E-2,-2.4020614E-2,-1.5788968E-1,3.461013E-1,8.763998E-1,-3.371385E-1,-8.307355E-2,-3.8761657E-1,8.550132E-1,9.378582E-2,3.6589794E-2,-1.7840023E-1,6.6895425E-2,-3.3522274E-2,-2.777934E-2,5.304038E-1],"categories":[],"categories_nodes":[],"categories_segments":[],"categories_sizes":[],"default_left":[0,0,0,0,0,0,0,0,0,0,0,0,0,0,0,0,0,0,0,0,0,0,0,0,0,0,0,0,0,0,0,0,0,0,0,0,0,0,0,0,0,0,0,0,0,0,0,0,0,0,0,0,0,0,0,0,0,0,0,0,0,0,0,0,0,0,0,0,0,0,0,0,0,0,0,0,0,0,0,0,0,0,0,0,0,0,0,0,0,0,0,0,0,0,0,0,0,0,0,0,0,0,0,0,0,0,0,0,0,0,0,0,0,0,0,0,0,0,0,0,0],"id":4,"left_children":[1,3,5,7,9,11,13,15,17,19,21,23,25,27,29,31,33,35,37,39,41,43,45,47,49,51,53,55,57,59,61,63,65,67,69,71,73,75,77,79,81,83,85,-1,-1,87,89,91,93,95,97,99,101,103,105,107,109,111,113,115,-1,117,119,-1,-1,-1,-1,-1,-1,-1,-1,-1,-1,-1,-1,-1,-1,-1,-1,-1,-1,-1,-1,-1,-1,-1,-1,-1,-1,-1,-1,-1,-1,-1,-1,-1,-1,-1,-1,-1,-1,-1,-1,-1,-1,-1,-1,-1,-1,-1,-1,-1,-1,-1,-1,-1,-1,-1,-1,-1,-1],"loss_changes":[3.7711588E2,1.5051645E2,3.714145E2,9.2952644E1,7.431886E1,7.1284004E1,1.0348169E2,2.7742883E2,1.6700084E2,3.6543655E2,2.0204047E2,1.6386284E1,8.902121E1,9.242291E1,5.6419506E0,5.0346994E2,5.3884595E2,3.5347266E2,3.5363608E2,1.9457104E2,1.3222839E1,1.0402588E1,5.5504944E1,2.5826466E1,1.6948307E1,9.1376755E1,5.8530376E1,8.14989E1,1.01905014E2,3.419784E0,4.2459736E0,6.1525336E2,5.6281244E2,6.9186395E2,9.830261E0,6.4976234E1,2.2635028E2,7.88082E1,2.2424593E2,1.8386519E2,4.9620117E1,2.9902943E1,1.4810059E1,0E0,0E0,5.3392212E1,9.940819E1,3.091388E1,4.7190628E1,1.5690448E2,8.861458E0,4.191401E1,2.7099823E1,6.1809708E1,3.7434834E1,1.1882904E2,3.0116669E1,5.93002E1,8.196175E1,3.378331E0,0E0,7.617384E0,5.5978503E0,0E0,0E0,0E0,0E0,0E0,0E0,0E0,0E0,0E0,0E0,0E0,0E0,0E0,0E0,0E0,0E0,0E0,0E0,0E0,0E0,0E0,0E0,0E0,0E0,0E0,0E0,0E0,0E0,0E0,0E0,0E0,0E0,0E0,0E0,0E0,0E0,0E0,0E0,0E0,0E0,0E0,0E0,0E0,0E0,0E0,0E0,0E0,0E0,0E0,0E0,0E0,0E0,0E0,0E0,0E0,0E0,0E0,0E0],"parents":[2147483647,0,0,1,1,2,2,3,3,4,4,5,5,6,6,7,7,8,8,9,9,10,10,11,11,12,12,13,13,14,14,15,15,16,16,17,17,18,18,19,19,20,20,21,21,22,22,23,23,24,24,25,25,26,26,27,27,28,28,29,29,30,30,31,31,32,32,33,33,34,34,35,35,36,36,37,37,38,38,39,39,40,40,41,41,42,42,45,45,46,46,47,47,48,48,49,49,50,50,51,51,52,52,53,53,54,54,55,55,56,56,57,57,58,58,59,59,61,61,62,62],"right_children":[2,4,6,8,10,12,14,16,18,20,22,24,26,28,30,32,34,36,38,40,42,44,46,48,50,52,54,56,58,60,62,64,66,68,70,72,74,76,78,80,82,84,86,-1,-1,88,90,92,94,96,98,100,102,104,106,108,110,112,114,116,-1,118,120,-1,-1,-1,-1,-1,-1,-1,-1,-1,-1,-1,-1,-1,-1,-1,-1,-1,-1,-1,-1,-1,-1,-1,-1,-1,-1,-1,-1,-1,-1,-1,-1,-1,-1,-1,-1,-1,-1,-1,-1,-1,-1,-1,-1,-1,-1,-1,-1,-1,-1,-1,-1,-1,-1,-1,-1,-1,-1],"split_conditions":[2E0,4.700718E1,4.4342E2,4.905292E2,4.9554602E2,9.01318E1,4.9939883E2,4.8627066E2,4.9649622E2,4.9403482E2,4.9617722E2,3E0,1.1896202E1,3E0,4.2518475E1,4.837274E2,4.559001E1,4.305082E1,4.9808554E2,4.9106033E2,4.7905773E1,4.741091E1,4.9828036E2,6.3453836E0,8.581791E-1,1.0611914E1,3E0,4.932167E2,4.9202795E2,3E0,5.1181385E1,4.8136737E2,4.5528664E1,4.3686333E1,4.8687253E2,3.7464462E1,4.571827E1,4.977632E2,4.996969E2,4.9018988E2,4.9202795E2,4.9547092E2,4.9358643E1,-2.9523343E-1,6.547198E-1,4.9701392E2,4.992767E2,3.501889E1,6.2232388E1,4E0,5.7311398E1,9.70929E0,1.1742087E2,1.2506051E2,2.2413824E2,4.8687253E2,4.058514E1,4.9018988E2,4.9403482E2,4.1711452E1,-4.6615624E-1,3E0,5E0,9.926659E-4,2.5970137E-1,-2.6922032E-1,5.717309E-1,-2.991805E-2,4.12227E-1,-3.8056988E-1,-7.079703E-1,-3.4492245E-1,1.1593767E-1,-3.716513E-1,-3.2162946E-2,1.5636611E-1,4.2470098E-1,-2.3724401E-1,4.7850188E-2,9.62307E-2,-3.9082557E-1,9.1969126E-1,3.896345E-1,7.8371185E-1,-4.6992514E-1,-6.6794765E-1,-3.0281487E-1,-1.0087861E-1,3.8830605E-1,-5.0052255E-1,1.02229714E-1,-1.4867151E-2,1.1321502E-1,-1.51295E-1,-6.2085924E-6,4.944542E-1,-6.4629935E-2,4.8869602E-2,1.0790656E-2,-2.043873E-1,1.4362118E-1,-2.9317018E-1,8.43893E-2,9.820403E-2,-8.437182E-2,3.7652656E-2,-2.4020614E-2,-1.5788968E-1,3.461013E-1,8.763998E-1,-3.371385E-1,-8.307355E-2,-3.8761657E-1,8.550132E-1,9.378582E-2,3.6589794E-2,-1.7840023E-1,6.6895425E-2,-3.3522274E-2,-2.777934E-2,5.304038E-1],"split_indices":[3,0,2,2,2,2,2,2,2,2,2,3,0,3,0,2,0,0,2,2,0,0,2,0,0,0,3,2,2,3,0,2,0,0,2,0,0,2,2,2,2,2,0,0,0,2,2,2,2,3,2,0,2,2,2,2,0,2,2,0,0,3,3,0,0,0,0,0,0,0,0,0,0,0,0,0,0,0,0,0,0,0,0,0,0,0,0,0,0,0,0,0,0,0,0,0,0,0,0,0,0,0,0,0,0,0,0,0,0,0,0,0,0,0,0,0,0,0,0,0,0],"split_type":[0,0,0,0,0,0,0,0,0,0,0,0,0,0,0,0,0,0,0,0,0,0,0,0,0,0,0,0,0,0,0,0,0,0,0,0,0,0,0,0,0,0,0,0,0,0,0,0,0,0,0,0,0,0,0,0,0,0,0,0,0,0,0,0,0,0,0,0,0,0,0,0,0,0,0,0,0,0,0,0,0,0,0,0,0,0,0,0,0,0,0,0,0,0,0,0,0,0,0,0,0,0,0,0,0,0,0,0,0,0,0,0,0,0,0,0,0,0,0,0,0],"sum_hessian":[6.4481742E4,3.4305566E4,3.0176174E4,3.0876965E4,3.4286008E3,2.1272025E4,8.904149E3,2.6139156E4,4.7378105E3,2.3254832E3,1.1031178E3,8.333308E3,1.2938718E4,7.989953E3,9.1419653E2,2.3749225E4,2.3899302E3,2.1589644E3,2.578846E3,2.1812974E3,1.4418575E2,1.3211894E2,9.709989E2,2.8759146E3,5.4573926E3,7.441487E2,1.2194568E4,4.534046E3,3.4559067E3,4.9052544E1,8.6514404E2,2.199643E4,1.7527949E3,2.2637632E3,1.2616697E2,7.9314795E2,1.3658163E3,7.716303E2,1.8072158E3,2.046738E3,1.3455928E2,1.5298746E1,1.28887E2,1.3398969E0,1.3077905E2,2.2333646E2,7.476625E2,1.3583992E3,1.5175155E3,1.0866772E3,4.3707153E3,2.4807265E2,4.9607602E2,3.7674602E3,8.427108E3,4.0887627E3,4.4528333E2,3.3305334E3,1.2537342E2,4.5878216E1,3.174328E0,6.039595E2,2.611845E2,2.041243E4,1.5840001E3,1.6155051E3,1.3728975E2,1.1327399E3,1.1310234E3,2.1649952E1,1.0451701E2,5.144122E1,7.417067E2,8.7572144E2,4.9009488E2,5.0189072E2,2.6973956E2,7.6380524E2,1.0434105E3,1.9151251E3,1.3161288E2,4.1741787E1,9.28175E1,2.9840586E0,1.2314688E1,1.0449107E2,2.439592E1,4.4065647E1,1.7927081E2,4.5699486E1,7.0196295E2,9.081961E2,4.5020303E2,4.8341748E2,1.034098E3,8.632091E1,1.0003563E3,2.8928596E3,1.4778556E3,8.178602E1,1.6628664E2,4.6395093E2,3.212508E1,3.2381122E2,3.443649E3,2.0948618E3,6.3322466E3,4.0133997E3,7.536324E1,2.370669E0,4.4291266E2,3.2257842E3,1.0474918E2,2.8670027E1,9.670339E1,2.047783E1,2.5400385E1,4.3786246E2,1.6609705E2,2.592762E2,1.908312E0],"tree_param":{"num_deleted":"0","num_feature":"4","num_nodes":"121","size_leaf_vector":"1"}},{"base_weights":[-2.28807E-2,2.07216E-2,-7.333266E-2,-3.996187E-2,6.1222322E-2,-1.203537E-2,-1.7127511E-1,9.912812E-2,-1.0702556E-1,2.0067078E-1,1.4308953E-3,-3.260278E-2,1.3086075E-1,-2.1673316E-1,-4.8214197E-2,7.6081194E-2,2.2520615E-1,-5.1701444E-1,-8.993404E-2,1.525424E-1,1.1334763E0,-2.9386887E-1,4.929396E-2,5.6947826E-4,-1.7311147E-1,6.769558E-1,9.439348E-2,-2.441666E-1,8.243704E-3,-9.1745013E-1,-3.2427475E-2,8.506172E-2,-8.367452E-1,6.049716E-1,1.400609E-1,-3.9919457E-1,-9.285598E-1,-8.493099E-2,-1.0265979E0,5.7491425E-2,3.4838113E-1,1.3098947E0,-1.5788466E0,-1.1010536E0,-2.2408551E-1,9.2617345E-1,2.3236793E-2,-1.3731551E-2,5.703272E-1,-4.2210037E-1,-5.481779E-2,-3.5958326E-1,1.1634307E0,4.4400275E-1,2.3999013E-2,-2.0658056E-1,-4.3113586E-1,-7.7089325E-2,5.006827E-2,6.301855E-2,-3.793055E-1,-4.1004306E-1,-9.569288E-3,2.906376E-2,7.4546194E-1,-5.7044214E-1,1.5478325E-1,5.6847095E-2,3.0940533E-1,2.8933538E-2,1.769253E-1,-3.0904526E-1,-8.413482E-2,-3.9624643E-1,7.8688465E-2,-7.104856E-2,-2.5241885E-2,-2.0044838E-1,-6.951803E-1,5.0278336E-2,-1.0981516E-1,4.4599852E-1,5.261333E-3,-5.226981E-1,5.8054084E-1,-7.381515E-1,3.5503235E-1,-2.0086479E-1,-4.7586843E-1,9.221598E-1,-1.0518109E-1,-4.7570154E-1,3.9140612E-1,-3.4248328E-1,1.8399013E-2,-1.3409769E-3,-1.9179359E-1,1.2964679E0,2.0106994E-1,-1.8665919E-1,1.3100718E-1,9.10851E-2,-3.767857E-2,-2.303464E-1,-8.954677E-3,1.0176514E0,9.6088946E-2,-4.939799E-2,3.708416E-1,-3.490137E-1,3.0632457E-2,-9.734959E-2,1.802539E-1,-2.4848273E-1,-7.770702E-2,-3.6660803E-3,-1.952411E-1,5.092878E-2,-2.6860824E-2,9.6787596E-1,-2.0905784E-1,1.7298763E-1,-1.9331561E-2],"categories":[],"categories_nodes":[],"categories_segments":[],"categories_sizes":[],"default_left":[0,0,0,0,0,0,0,0,0,0,0,0,0,0,0,0,0,0,0,0,0,0,0,0,0,0,0,0,0,0,0,0,0,0,0,0,0,0,0,0,0,0,0,0,0,0,0,0,0,0,0,0,0,0,0,0,0,0,0,0,0,0,0,0,0,0,0,0,0,0,0,0,0,0,0,0,0,0,0,0,0,0,0,0,0,0,0,0,0,0,0,0,0,0,0,0,0,0,0,0,0,0,0,0,0,0,0,0,0,0,0,0,0,0,0,0,0,0,0,0,0,0,0],"id":5,"left_children":[1,3,5,7,9,11,13,15,17,19,21,23,25,27,29,31,33,35,37,39,41,43,45,47,49,51,53,55,57,59,61,63,65,67,69,71,73,75,77,79,81,83,85,87,89,91,93,95,97,99,101,103,105,107,109,111,113,115,117,-1,-1,119,121,-1,-1,-1,-1,-1,-1,-1,-1,-1,-1,-1,-1,-1,-1,-1,-1,-1,-1,-1,-1,-1,-1,-1,-1,-1,-1,-1,-1,-1,-1,-1,-1,-1,-1,-1,-1,-1,-1,-1,-1,-1,-1,-1,-1,-1,-1,-1,-1,-1,-1,-1,-1,-1,-1,-1,-1,-1,-1,-1,-1],"loss_changes":[1.3832013E2,8.28989E1,1.7499863E2,1.2594831E2,1.6866344E2,5.2699703E1,6.2758545E1,1.27464485E1,6.3787636E1,2.7236282E2,2.0013931E2,7.305896E1,4.4866634E1,5.0571472E1,4.1522106E1,3.0527393E1,2.1849995E1,1.7296074E1,4.0899345E1,1.0745924E2,1.4451443E2,1.1100171E2,2.7839688E2,1.0334046E2,8.815473E1,7.155255E1,5.2067543E1,5.1232544E1,3.1855938E0,1.9373398E0,2.5675606E1,8.1039345E1,2.6722252E1,9.558239E0,1.1337803E1,1.9937393E1,5.8050003E0,1.7591438E1,1.6465332E1,8.809121E1,4.8479312E2,1.0555774E2,1.3887417E1,7.729782E0,1.7944986E2,4.0096497E1,2.3692902E2,5.980691E1,5.4482635E1,3.234694E1,2.2614223E1,3.3290186E0,1.2207039E2,9.7333725E1,8.315314E1,1.4719348E2,5.4871674E1,8.192759E0,5.431706E0,0E0,0E0,5.5363953E1,4.8101418E1,0E0,0E0,0E0,0E0,0E0,0E0,0E0,0E0,0E0,0E0,0E0,0E0,0E0,0E0,0E0,0E0,0E0,0E0,0E0,0E0,0E0,0E0,0E0,0E0,0E0,0E0,0E0,0E0,0E0,0E0,0E0,0E0,0E0,0E0,0E0,0E0,0E0,0E0,0E0,0E0,0E0,0E0,0E0,0E0,0E0,0E0,0E0,0E0,0E0,0E0,0E0,0E0,0E0,0E0,0E0,0E0,0E0,0E0,0E0,0E0],"parents":[2147483647,0,0,1,1,2,2,3,3,4,4,5,5,6,6,7,7,8,8,9,9,10,10,11,11,12,12,13,13,14,14,15,15,16,16,17,17,18,18,19,19,20,20,21,21,22,22,23,23,24,24,25,25,26,26,27,27,28,28,29,29,30,30,31,31,32,32,33,33,34,34,35,35,36,36,37,37,38,38,39,39,40,40,41,41,42,42,43,43,44,44,45,45,46,46,47,47,48,48,49,49,50,50,51,51,52,52,53,53,54,54,55,55,56,56,57,57,58,58,61,61,62,62],"right_children":[2,4,6,8,10,12,14,16,18,20,22,24,26,28,30,32,34,36,38,40,42,44,46,48,50,52,54,56,58,60,62,64,66,68,70,72,74,76,78,80,82,84,86,88,90,92,94,96,98,100,102,104,106,108,110,112,114,116,118,-1,-1,120,122,-1,-1,-1,-1,-1,-1,-1,-1,-1,-1,-1,-1,-1,-1,-1,-1,-1,-1,-1,-1,-1,-1,-1,-1,-1,-1,-1,-1,-1,-1,-1,-1,-1,-1,-1,-1,-1,-1,-1,-1,-1,-1,-1,-1,-1,-1,-1,-1,-1,-1,-1,-1,-1,-1,-1,-1,-1,-1,-1,-1],"split_conditions":[2E0,2.7607132E2,4.092639E2,8.486645E0,4.7767252E2,3.8882267E1,4E0,7.2680054E0,7.759383E1,4.7711862E2,4.8136737E2,2.2413824E2,3E0,4.9939883E2,3.7464462E1,7.759383E1,6.629063E1,7.626572E1,7.93158E2,4.736165E2,4.6414223E1,3.9737526E1,4.816868E2,2.2752838E1,2.9019459E1,3.9992886E1,3.437623E2,4.823552E2,4.711697E1,4.2669955E2,4.1171036E2,7.4750656E1,7.9318214E1,5.9765163E1,8.4869576E1,7.12093E1,9.421833E0,9.85606E1,1.7422252E2,4.7215707E2,4.7450708E2,3.66301E1,4.8623867E1,3.6266582E1,4.0233253E1,4.032975E1,4.8257898E2,2.0060733E2,1.5677844E2,5E0,2.8915314E2,3.9483408E2,4.1252407E1,3.1763925E2,3.49759E2,4.7886127E2,4.8687253E2,4.664475E1,5.1181385E1,6.301855E-2,-3.793055E-1,4.0449966E1,4.1252407E1,2.906376E-2,7.4546194E-1,-5.7044214E-1,1.5478325E-1,5.6847095E-2,3.0940533E-1,2.8933538E-2,1.769253E-1,-3.0904526E-1,-8.413482E-2,-3.9624643E-1,7.8688465E-2,-7.104856E-2,-2.5241885E-2,-2.0044838E-1,-6.951803E-1,5.0278336E-2,-1.0981516E-1,4.4599852E-1,5.261333E-3,-5.226981E-1,5.8054084E-1,-7.381515E-1,3.5503235E-1,-2.0086479E-1,-4.7586843E-1,9.221598E-1,-1.0518109E-1,-4.7570154E-1,3.9140612E-1,-3.4248328E-1,1.8399013E-2,-1.3409769E-3,-1.9179359E-1,1.2964679E0,2.0106994E-1,-1.8665919E-1,1.3100718E-1,9.10851E-2,-3.767857E-2,-2.303464E-1,-8.954677E-3,1.0176514E0,9.6088946E-2,-4.939799E-2,3.708416E-1,-3.490137E-1,3.0632457E-2,-9.734959E-2,1.802539E-1,-2.4848273E-1,-7.770702E-2,-3.6660803E-3,-1.952411E-1,5.092878E-2,-2.6860824E-2,9.6787596E-1,-2.0905784E-1,1.7298763E-1,-1.9331561E-2],"split_indices":[3,2,2,0,2,0,3,0,2,2,2,2,3,2,0,2,2,2,0,2,0,0,2,0,0,0,2,2,0,2,2,2,2,2,2,2,0,2,2,2,2,0,0,0,0,0,2,2,2,3,2,2,0,2,2,2,2,0,0,0,0,0,0,0,0,0,0,0,0,0,0,0,0,0,0,0,0,0,0,0,0,0,0,0,0,0,0,0,0,0,0,0,0,0,0,0,0,0,0,0,0,0,0,0,0,0,0,0,0,0,0,0,0,0,0,0,0,0,0,0,0,0,0],"split_type":[0,0,0,0,0,0,0,0,0,0,0,0,0,0,0,0,0,0,0,0,0,0,0,0,0,0,0,0,0,0,0,0,0,0,0,0,0,0,0,0,0,0,0,0,0,0,0,0,0,0,0,0,0,0,0,0,0,0,0,0,0,0,0,0,0,0,0,0,0,0,0,0,0,0,0,0,0,0,0,0,0,0,0,0,0,0,0,0,0,0,0,0,0,0,0,0,0,0,0,0,0,0,0,0,0,0,0,0,0,0,0,0,0,0,0,0,0,0,0,0,0,0,0],"sum_hessian":[6.2876203E4,3.372795E4,2.9148254E4,1.3500201E4,2.022775E4,1.79287E4,1.1219554E4,4.3915845E3,9.108616E3,6.0695938E3,1.4158156E4,1.5673538E4,2.2551614E3,8.19252E3,3.027034E3,3.7142305E3,6.773539E2,3.6335132E2,8.745266E3,5.772903E3,2.9669113E2,1.9740096E3,1.2184146E4,1.26807705E4,2.9927676E3,1.4006926E2,2.115092E3,7.3020327E3,8.904875E2,5.2976364E1,2.9740576E3,3.6789434E3,3.528722E1,1.2293467E2,5.544192E2,2.840124E2,7.933891E1,8.699887E3,4.537848E1,3.8874229E3,1.8854797E3,2.7905737E2,1.7633757E1,1.5590277E2,1.8181069E3,3.506162E2,1.183353E4,1.2371227E4,3.0954428E2,9.6307776E2,2.0296898E3,4.482366E1,9.524559E1,3.5360913E2,1.7614829E3,6.081572E3,1.2204606E3,2.9262103E2,5.9786646E2,1.3615905E0,5.1614773E1,1.6878604E2,2.8052715E3,3.654501E3,2.4442392E1,2.370501E1,1.1582209E1,3.3307617E1,8.962705E1,4.539417E2,1.0047746E2,9.4356E1,1.8965639E2,7.530568E1,4.033238E0,1.656792E3,7.0430947E3,2.7079382E1,1.8299097E1,3.225477E3,6.619459E2,5.72936E2,1.3125438E3,1.3889793E1,2.6516757E2,1.6141268E1,1.4924892E0,2.0954615E1,1.3494815E2,2.6631155E1,1.7914758E3,7.9413323E0,3.426749E2,2.9761105E2,1.1535919E4,1.2102533E4,2.68693E2,6.4881954E0,3.030561E2,9.094116E2,5.3666134E1,2.4770366E2,1.7819862E3,2.6876734E1,1.7946928E1,3.7462723E1,5.778287E1,1.6294383E2,1.9066531E2,9.672435E1,1.6647585E3,5.759749E3,3.21823E2,6.7621814E2,5.442424E2,2.5199811E2,4.062294E1,3.603155E2,2.3755095E2,5.6752496E0,1.631108E2,2.2532863E2,2.5799429E3],"tree_param":{"num_deleted":"0","num_feature":"4","num_nodes":"123","size_leaf_vector":"1"}},{"base_weights":[-1.7066568E-2,1.1072702E-2,-5.0145905E-2,-2.7354464E-3,1.3724443E-1,-1.8708462E-2,-1.5565725E-1,7.4730893E-3,-2.175506E-1,2.8432417E-1,6.6764015E-3,-3.2561433E-2,7.566713E-2,-6.238917E-1,-1.19536184E-1,-2.1286245E-4,8.9126176E-1,-4.54772E-1,3.0943763E-2,1.1910383E0,2.4643317E-1,-1.11118E-1,1.6195287E-1,-1.7922683E-2,-2.673781E-1,6.040539E-2,1.6965756E0,-2.5928417E-1,-7.4742264E-1,-1.4652202E-1,5.2869564E-1,5.9965705E-3,-1.1913316E0,1.0212042E0,-7.402733E-1,-8.3805585E-1,1.8186685E-1,-1.17914334E-1,1.3013233E0,1.1474658E-1,5.607589E-1,1.768004E-2,-1.0813457E0,6.5863127E-1,-6.722185E-2,3.0804874E-2,-4.7625553E-2,-8.882832E-1,-1.8510914E-1,2.636105E-1,6.013127E-3,2.7347782E0,1.1856546E0,-6.3389486E-1,6.7449415E-1,3.3680522E-1,-8.183632E-1,-1.7666097E-1,9.1770425E-2,8.8492835E-1,2.199475E-1,9.327679E-3,-7.4118584E-2,-4.870824E-1,3.560855E-1,1.2875067E-1,5.663332E-1,-1.9903624E-1,-4.0357766E-1,-4.3111822E-1,-3.1700838E-1,1.4348757E-2,2.4206948E-1,-5.897266E-1,4.5848104E-1,5.8741254E-1,3.5393387E-1,9.535626E-2,-4.2851463E-1,3.1591952E-1,1.2338652E-2,-5.983728E-2,2.6522562E-1,-4.9467078E-1,-1.8335706E-1,5.018018E-1,1.8524337E-1,-4.054503E-1,2.9234609E-2,2.6034662E-3,9.387614E-2,-3.2188248E-2,2.1014245E-2,8.0130255E-1,-4.330659E-1,-2.2494903E-1,-2.2405071E-2,1.3861355E-1,-1.067387E-1,-4.5962527E-2,6.220693E-2,3.6706197E-1,1.2116094E0,5.607971E-1,-1.9079629E-1,-2.8565672E-1,-1.3388585E-1,7.390925E-2,7.668039E-1,-2.4332602E-1,5.9168285E-1,-3.912533E-1,-2.1177809E-1,6.9139175E-2,-7.953921E-2,6.421368E-2,-1.5928677E-1,2.9135358E-1,6.162833E-1,1.458103E-1,-2.2574942E-1],"categories":[],"categories_nodes":[],"categories_segments":[],"categories_sizes":[],"default_left":[0,0,0,0,0,0,0,0,0,0,0,0,0,0,0,0,0,0,0,0,0,0,0,0,0,0,0,0,0,0,0,0,0,0,0,0,0,0,0,0,0,0,0,0,0,0,0,0,0,0,0,0,0,0,0,0,0,0,0,0,0,0,0,0,0,0,0,0,0,0,0,0,0,0,0,0,0,0,0,0,0,0,0,0,0,0,0,0,0,0,0,0,0,0,0,0,0,0,0,0,0,0,0,0,0,0,0,0,0,0,0,0,0,0,0,0,0,0,0,0,0],"id":6,"left_children":[1,3,5,7,9,11,13,15,17,19,21,23,25,27,29,31,33,-1,35,37,39,41,43,45,47,49,51,53,55,57,59,61,63,65,67,69,71,73,75,77,79,81,83,85,87,89,91,93,95,97,99,101,103,105,107,109,111,113,115,117,119,-1,-1,-1,-1,-1,-1,-1,-1,-1,-1,-1,-1,-1,-1,-1,-1,-1,-1,-1,-1,-1,-1,-1,-1,-1,-1,-1,-1,-1,-1,-1,-1,-1,-1,-1,-1,-1,-1,-1,-1,-1,-1,-1,-1,-1,-1,-1,-1,-1,-1,-1,-1,-1,-1,-1,-1,-1,-1,-1,-1],"loss_changes":[5.761081E1,5.8265892E1,9.436157E1,6.6109474E1,6.3352413E1,2.8659306E1,1.1037549E2,1.9548904E2,3.1248605E2,5.30067E1,3.2001774E1,6.569928E1,6.9309715E1,2.0860825E1,1.0615503E2,2.1103395E2,5.3359222E1,0E0,1.414833E2,9.099358E0,6.1628036E1,1.243479E2,8.595058E1,2.6044666E1,5.7128876E1,3.0733688E1,1.0620956E1,4.2344307E1,2.7090897E1,4.1832054E1,2.6484772E1,9.4063354E1,9.207642E0,6.3084244E1,7.2919273E-1,8.885193E-1,5.6771416E1,1.151904E1,2.6866531E0,1.5447258E2,5.335408E1,9.502526E1,1.0717148E1,2.7191902E1,6.877018E1,3.3758175E1,3.6782898E1,7.577736E1,4.826522E1,2.59193E1,3.969229E1,1.4200706E0,7.6040764E0,1.8265419E0,2.0817081E1,2.4781256E1,1.4600281E1,4.011789E1,2.2112411E1,1.0405708E1,1.5091949E1,0E0,0E0,0E0,0E0,0E0,0E0,0E0,0E0,0E0,0E0,0E0,0E0,0E0,0E0,0E0,0E0,0E0,0E0,0E0,0E0,0E0,0E0,0E0,0E0,0E0,0E0,0E0,0E0,0E0,0E0,0E0,0E0,0E0,0E0,0E0,0E0,0E0,0E0,0E0,0E0,0E0,0E0,0E0,0E0,0E0,0E0,0E0,0E0,0E0,0E0,0E0,0E0,0E0,0E0,0E0,0E0,0E0,0E0,0E0,0E0],"parents":[2147483647,0,0,1,1,2,2,3,3,4,4,5,5,6,6,7,7,8,8,9,9,10,10,11,11,12,12,13,13,14,14,15,15,16,16,18,18,19,19,20,20,21,21,22,22,23,23,24,24,25,25,26,26,27,27,28,28,29,29,30,30,31,31,32,32,33,33,34,34,35,35,36,36,37,37,38,38,39,39,40,40,41,41,42,42,43,43,44,44,45,45,46,46,47,47,48,48,49,49,50,50,51,51,52,52,53,53,54,54,55,55,56,56,57,57,58,58,59,59,60,60],"right_children":[2,4,6,8,10,12,14,16,18,20,22,24,26,28,30,32,34,-1,36,38,40,42,44,46,48,50,52,54,56,58,60,62,64,66,68,70,72,74,76,78,80,82,84,86,88,90,92,94,96,98,100,102,104,106,108,110,112,114,116,118,120,-1,-1,-1,-1,-1,-1,-1,-1,-1,-1,-1,-1,-1,-1,-1,-1,-1,-1,-1,-1,-1,-1,-1,-1,-1,-1,-1,-1,-1,-1,-1,-1,-1,-1,-1,-1,-1,-1,-1,-1,-1,-1,-1,-1,-1,-1,-1,-1,-1,-1,-1,-1,-1,-1,-1,-1,-1,-1,-1,-1],"split_conditions":[2E0,4.700718E1,4.546375E2,4.992767E2,4.8623867E1,4.2758575E1,4.567412E2,4.9828036E2,4.996969E2,4.7450708E2,4.9547092E2,4.3350122E2,4.5415958E2,4.5558423E2,5E0,4.9808554E2,4.559001E1,-4.54772E-1,4.0146465E1,4.6202176E2,4.9106033E2,4.9202795E2,4.9828036E2,8.486645E0,4.3419888E2,4.336832E1,4E0,3E0,4.2069477E1,4.9688347E1,4.6863438E1,4.5101875E1,4.305082E1,4.405063E1,4.664475E1,3.9504227E1,4.5180183E1,4.7739235E1,4.7905773E1,4.9018988E2,4.996969E2,4.8567508E2,4.9358643E1,4.9617722E2,4.996969E2,7.525526E0,3.775557E1,3E0,3.9504227E1,4.4680487E2,4.3012164E2,4.348484E1,4.559001E1,4.445309E1,4.6062992E1,3E0,4.5631213E2,4.589599E2,5.705865E1,4.8340417E2,4.9018988E2,9.327679E-3,-7.4118584E-2,-4.870824E-1,3.560855E-1,1.2875067E-1,5.663332E-1,-1.9903624E-1,-4.0357766E-1,-4.3111822E-1,-3.1700838E-1,1.4348757E-2,2.4206948E-1,-5.897266E-1,4.5848104E-1,5.8741254E-1,3.5393387E-1,9.535626E-2,-4.2851463E-1,3.1591952E-1,1.2338652E-2,-5.983728E-2,2.6522562E-1,-4.9467078E-1,-1.8335706E-1,5.018018E-1,1.8524337E-1,-4.054503E-1,2.9234609E-2,2.6034662E-3,9.387614E-2,-3.2188248E-2,2.1014245E-2,8.0130255E-1,-4.330659E-1,-2.2494903E-1,-2.2405071E-2,1.3861355E-1,-1.067387E-1,-4.5962527E-2,6.220693E-2,3.6706197E-1,1.2116094E0,5.607971E-1,-1.9079629E-1,-2.8565672E-1,-1.3388585E-1,7.390925E-2,7.668039E-1,-2.4332602E-1,5.9168285E-1,-3.912533E-1,-2.1177809E-1,6.9139175E-2,-7.953921E-2,6.421368E-2,-1.5928677E-1,2.9135358E-1,6.162833E-1,1.458103E-1,-2.2574942E-1],"split_indices":[3,0,2,2,0,0,2,2,2,2,2,2,2,2,3,2,0,0,0,2,2,2,2,0,2,0,3,3,0,0,0,0,0,0,0,0,0,0,0,2,2,2,0,2,2,0,0,3,0,2,2,0,0,0,0,3,2,2,0,2,2,0,0,0,0,0,0,0,0,0,0,0,0,0,0,0,0,0,0,0,0,0,0,0,0,0,0,0,0,0,0,0,0,0,0,0,0,0,0,0,0,0,0,0,0,0,0,0,0,0,0,0,0,0,0,0,0,0,0,0,0],"split_type":[0,0,0,0,0,0,0,0,0,0,0,0,0,0,0,0,0,0,0,0,0,0,0,0,0,0,0,0,0,0,0,0,0,0,0,0,0,0,0,0,0,0,0,0,0,0,0,0,0,0,0,0,0,0,0,0,0,0,0,0,0,0,0,0,0,0,0,0,0,0,0,0,0,0,0,0,0,0,0,0,0,0,0,0,0,0,0,0,0,0,0,0,0,0,0,0,0,0,0,0,0,0,0,0,0,0,0,0,0,0,0,0,0,0,0,0,0,0,0,0,0],"sum_hessian":[6.189037E4,3.3442684E4,2.8447688E4,3.014465E4,3.2980315E3,2.1918252E4,6.5294365E3,2.8778016E4,1.3666356E3,1.5503951E3,1.7476365E3,1.9113344E4,2.8049075E3,4.6646146E2,6.062975E3,2.8530895E4,2.4712186E2,2.900252E2,1.0766105E3,6.0970345E1,1.4894248E3,9.9392145E2,7.537151E2,1.7992732E4,1.120612E3,2.7797717E3,2.5135798E1,1.1882947E2,3.47632E2,5.8214043E3,2.415705E2,2.838392E4,1.4697353E2,2.292384E2,1.7883451E1,1.5863776E2,9.179727E2,4.732465E0,5.623788E1,1.0506293E3,4.387955E2,8.783076E2,1.1561384E2,2.3737996E2,5.1633514E2,6.8141245E3,1.1178608E4,1.2996153E2,9.9065045E2,5.861428E2,2.193629E3,6.854554E0,1.8281244E1,8.503607E1,3.3793392E1,2.1118435E1,3.2651355E2,5.168018E3,6.533864E2,1.1129382E2,1.3027667E2,2.6027836E4,2.356084E3,1.455444E2,1.4291254E0,8.334935E1,1.4588905E2,1.0894663E1,6.988789E0,2.1702946E1,1.3693481E2,6.833692E2,2.3460355E2,2.2026894E0,2.5297756E0,3.8325382E1,1.7912498E1,9.52165E2,9.846429E1,3.0603143E2,1.3276407E2,6.981313E2,1.8017628E2,9.175086E1,2.3862974E1,5.7309143E1,1.8007082E2,6.58618E1,4.5047333E2,6.0894956E3,7.246287E2,8.418269E3,2.7603398E3,7.6000824E0,1.2236144E2,2.517107E2,7.3893976E2,5.072016E2,7.894121E1,1.2128796E3,9.8074927E2,1.5292543E0,5.3252997E0,1.631514E1,1.9661043E0,6.595772E1,1.9078356E1,2.506361E1,8.729781E0,1.1812964E1,9.3054695E0,2.0871169E2,1.1780188E2,3.0808093E2,4.859937E3,5.735658E2,7.982062E1,9.155015E1,1.9743673E1,1.1045172E2,1.9824945E1],"tree_param":{"num_deleted":"0","num_feature":"4","num_nodes":"121","size_leaf_vector":"1"}},{"base_weights":[-8.610574E-3,-2.5725726E-2,2.3865106E-2,-1.7124644E-2,-3.7321737E-1,1.5429215E-1,-1.9945152E-2,-2.117589E-2,1.253625E0,-4.663185E-1,6.9585395E-1,1.171759E-1,1.2171382E0,-8.153467E-1,-4.6928716E-3,-1.2324718E-2,-2.184636E-1,3.115292E0,1.0574454E0,-9.854402E-1,-4.1272005E-1,4.2636302E-1,1.0897832E0,1.514041E-1,-5.72299E-1,-1.1193813E0,2.1891458E0,-1.0411544E0,8.728158E-1,-1.019054E-1,3.5319712E-2,5.262523E-2,-2.8980894E-2,-4.0279818E-1,-9.648524E-2,4.499568E0,6.565691E-1,3.7667963E-1,1.8602128E0,4.743259E-1,-1.0820687E0,1.0032992E0,-4.3833557E-1,-2.8539482E-1,5.97971E-1,4.7764412E-1,-1.2773512E-1,-6.1860025E-1,1.7760333E-1,-8.421027E-1,4.988002E-1,-1.1778337E0,1.6575067E-1,1.85471E0,3.2868083E0,7.085433E-1,-1.1754411E0,2.1613793E0,5.6680854E-2,8.4924236E-2,-5.3225064E-1,9.41643E-1,9.082049E-3,3.626595E-2,-6.879049E-3,-1.2916592E-2,7.066306E-2,-8.437193E-2,-2.604208E-1,6.638751E-2,-1.5607435E-1,5.6055367E-1,2.022457E0,6.402163E-1,-7.997074E-2,8.661403E-1,-2.8365657E-1,-3.675941E-1,-7.175655E-1,-4.5816112E-1,6.163718E-1,-2.034746E-1,-2.2739578E-2,1.7534171E-1,1.2264789E0,1.0571965E-1,-4.589621E-1,4.8582E-2,2.026546E-1,1.0433675E-1,-4.4313225E-1,7.305276E-1,-5.4456223E-2,-4.1691908E-1,-5.819873E-1,8.151806E-1,5.1451683E-1,1.6477413E0,6.350096E-1,-4.5218953E-1,7.1090525E-1,-5.3921765E-1,-4.2859155E-1,9.932006E-1,-2.4503005E-1,4.353055E-1,-2.5274095E-1,1.807283E-1,-1.92145E-1,6.601518E-1,-2.6081565E-1,4.401961E-1,-4.2167455E-1,-3.1882945E-1,1.4645519E-2],"categories":[],"categories_nodes":[],"categories_segments":[],"categories_sizes":[],"default_left":[0,0,0,0,0,0,0,0,0,0,0,0,0,0,0,0,0,0,0,0,0,0,0,0,0,0,0,0,0,0,0,0,0,0,0,0,0,0,0,0,0,0,0,0,0,0,0,0,0,0,0,0,0,0,0,0,0,0,0,0,0,0,0,0,0,0,0,0,0,0,0,0,0,0,0,0,0,0,0,0,0,0,0,0,0,0,0,0,0,0,0,0,0,0,0,0,0,0,0,0,0,0,0,0,0,0,0,0,0,0,0,0,0,0,0],"id":7,"left_children":[1,3,5,7,9,11,13,15,17,19,21,23,25,27,29,31,33,35,37,39,41,43,45,47,49,51,53,55,57,59,61,63,65,67,69,71,-1,73,75,-1,77,79,81,-1,83,-1,-1,85,87,89,91,93,-1,95,97,99,101,103,105,107,109,111,113,-1,-1,-1,-1,-1,-1,-1,-1,-1,-1,-1,-1,-1,-1,-1,-1,-1,-1,-1,-1,-1,-1,-1,-1,-1,-1,-1,-1,-1,-1,-1,-1,-1,-1,-1,-1,-1,-1,-1,-1,-1,-1,-1,-1,-1,-1,-1,-1,-1,-1,-1,-1],"loss_changes":[3.4020824E1,1.1979379E2,1.2070979E2,2.013997E2,9.6683E1,2.0939717E2,1.918454E2,6.808716E1,4.2111755E1,2.4389084E1,7.8112755E0,1.2123591E2,4.0926764E2,1.1432689E2,6.0361874E1,4.037425E1,3.7605186E1,1.5747223E1,6.1592422E1,1.86297E1,2.9801361E1,9.802554E0,4.9422226E0,9.878961E1,7.0645325E1,5.2653503E0,4.046649E1,6.260025E1,3.7364403E1,3.6385E2,2.614147E2,2.023365E1,2.0227E1,3.1603516E1,7.7827736E1,2.0062637E0,0E0,4.4731667E1,4.2344925E1,0E0,7.6014175E0,1.87318E1,2.1328583E1,0E0,1.5283139E1,0E0,0E0,7.555541E1,8.734891E1,5.7288437E1,4.199157E1,4.213333E-1,0E0,7.743744E0,3.353351E1,4.0062557E1,2.9433594E0,1.3828873E1,1.6917929E1,6.547712E2,3.5924033E2,9.921591E1,2.3718597E2,0E0,0E0,0E0,0E0,0E0,0E0,0E0,0E0,0E0,0E0,0E0,0E0,0E0,0E0,0E0,0E0,0E0,0E0,0E0,0E0,0E0,0E0,0E0,0E0,0E0,0E0,0E0,0E0,0E0,0E0,0E0,0E0,0E0,0E0,0E0,0E0,0E0,0E0,0E0,0E0,0E0,0E0,0E0,0E0,0E0,0E0,0E0,0E0,0E0,0E0,0E0,0E0],"parents":[2147483647,0,0,1,1,2,2,3,3,4,4,5,5,6,6,7,7,8,8,9,9,10,10,11,11,12,12,13,13,14,14,15,15,16,16,17,17,18,18,19,19,20,20,21,21,22,22,23,23,24,24,25,25,26,26,27,27,28,28,29,29,30,30,31,31,32,32,33,33,34,34,35,35,37,37,38,38,40,40,41,41,42,42,44,44,47,47,48,48,49,49,50,50,51,51,53,53,54,54,55,55,56,56,57,57,58,58,59,59,60,60,61,61,62,62],"right_children":[2,4,6,8,10,12,14,16,18,20,22,24,26,28,30,32,34,36,38,40,42,44,46,48,50,52,54,56,58,60,62,64,66,68,70,72,-1,74,76,-1,78,80,82,-1,84,-1,-1,86,88,90,92,94,-1,96,98,100,102,104,106,108,110,112,114,-1,-1,-1,-1,-1,-1,-1,-1,-1,-1,-1,-1,-1,-1,-1,-1,-1,-1,-1,-1,-1,-1,-1,-1,-1,-1,-1,-1,-1,-1,-1,-1,-1,-1,-1,-1,-1,-1,-1,-1,-1,-1,-1,-1,-1,-1,-1,-1,-1,-1,-1,-1],"split_conditions":[4.6927512E2,4.6462042E2,4.7950977E2,4.6356946E2,4.7566227E1,4.7886127E2,4.7982623E2,4.521477E2,3.9504227E1,3.8353546E1,5.2657425E1,4.7863095E2,4.213463E1,2E0,4.853139E2,6.47313E0,4.567412E2,3E0,4.4341705E1,4.6629327E2,3.8663593E1,2E0,1.3306282E2,3.66301E1,4.595774E1,2E0,2E0,4.0449966E1,3E0,4.837274E2,4.8567508E2,4E0,4.4770862E2,4.5558423E2,3E0,2E0,6.565691E-1,4.293416E1,4.9688347E1,4.743259E-1,4.6868015E2,4.6676968E2,4.595774E1,-2.8539482E-1,4.6868015E2,4.7764412E-1,-1.2773512E-1,3.5838108E1,4.7711862E2,4.445309E1,4.652502E1,3.9504227E1,1.6575067E-1,4.723897E1,3E0,3.9312267E1,4.2332035E1,4.4828156E1,4.3131523E1,4.4124474E1,3.9504227E1,4.9688347E1,4.8601678E2,3.626595E-2,-6.879049E-3,-1.2916592E-2,7.066306E-2,-8.437193E-2,-2.604208E-1,6.638751E-2,-1.5607435E-1,5.6055367E-1,2.022457E0,6.402163E-1,-7.997074E-2,8.661403E-1,-2.8365657E-1,-3.675941E-1,-7.175655E-1,-4.5816112E-1,6.163718E-1,-2.034746E-1,-2.2739578E-2,1.7534171E-1,1.2264789E0,1.0571965E-1,-4.589621E-1,4.8582E-2,2.026546E-1,1.0433675E-1,-4.4313225E-1,7.305276E-1,-5.4456223E-2,-4.1691908E-1,-5.819873E-1,8.151806E-1,5.1451683E-1,1.6477413E0,6.350096E-1,-4.5218953E-1,7.1090525E-1,-5.3921765E-1,-4.2859155E-1,9.932006E-1,-2.4503005E-1,4.353055E-1,-2.5274095E-1,1.807283E-1,-1.92145E-1,6.601518E-1,-2.6081565E-1,4.401961E-1,-4.2167455E-1,-3.1882945E-1,1.4645519E-2],"split_indices":[2,2,2,2,0,2,2,2,0,0,0,2,0,3,2,0,2,3,0,2,0,3,0,0,0,3,3,0,3,2,2,3,2,2,3,3,0,0,0,0,2,2,0,0,2,0,0,0,2,0,0,0,0,0,3,0,0,0,0,0,0,0,2,0,0,0,0,0,0,0,0,0,0,0,0,0,0,0,0,0,0,0,0,0,0,0,0,0,0,0,0,0,0,0,0,0,0,0,0,0,0,0,0,0,0,0,0,0,0,0,0,0,0,0,0],"split_type":[0,0,0,0,0,0,0,0,0,0,0,0,0,0,0,0,0,0,0,0,0,0,0,0,0,0,0,0,0,0,0,0,0,0,0,0,0,0,0,0,0,0,0,0,0,0,0,0,0,0,0,0,0,0,0,0,0,0,0,0,0,0,0,0,0,0,0,0,0,0,0,0,0,0,0,0,0,0,0,0,0,0,0,0,0,0,0,0,0,0,0,0,0,0,0,0,0,0,0,0,0,0,0,0,0,0,0,0,0,0,0,0,0,0,0],"sum_hessian":[6.120556E4,4.008198E4,2.1123576E4,3.9114863E4,9.6711835E2,5.3106816E3,1.5812895E4,3.899154E4,1.23324646E2,8.9016156E2,7.695678E1,5.1325547E3,1.7812665E2,2.965293E2,1.5516365E4,3.731834E4,1.6731981E3,1.0338319E1,1.1298633E2,8.167941E1,8.084821E2,4.6932278E1,3.0024502E1,4.8905493E3,2.4200542E2,5.2287045E1,1.258396E2,2.618832E2,3.4646088E1,4.5238657E3,1.0992499E4,7.6163994E3,2.9701941E4,6.653756E2,1.0078225E3,4.272572E0,6.0657463E0,6.193403E1,5.1052296E1,2.9998782E0,7.8679535E1,1.3687245E1,7.947949E2,5.728034E0,4.1204243E1,2.8096878E1,1.927625E0,1.6018039E2,4.730369E3,1.9348218E2,4.8523247E1,5.059105E1,1.6959926E0,9.851402E1,2.7325579E1,1.8361721E1,2.4352148E2,1.2795485E1,2.1850605E1,3.1549722E3,1.3688937E3,3.082931E2,1.0684206E4,4.9301465E3,2.6862532E3,2.9232174E4,4.6976755E2,3.7635284E2,2.8902277E2,5.3245233E2,4.753702E2,1.1863877E0,3.0861845E0,1.9265902E1,4.266813E1,4.5773457E1,5.2788386E0,6.5877914E1,1.28016205E1,2.5130565E0,1.1174189E1,6.7076416E2,1.24030754E2,3.9807545E1,1.3967005E0,6.018873E1,9.999165E1,4.0419875E3,6.8838153E2,3.7568165E1,1.55914E2,1.509229E1,3.3430958E1,3.7172424E1,1.3418627E1,7.254296E1,2.5971064E1,1.738421E1,9.941368E0,6.7274933E0,1.1634228E1,8.704266E1,1.5647882E2,1.1560059E1,1.2354261E0,8.51404E0,1.3336564E1,1.9133334E3,1.2416387E3,7.055501E1,1.2983387E3,2.8598062E2,2.2312479E1,3.5191284E2,1.0332294E4],"tree_param":{"num_deleted":"0","num_feature":"4","num_nodes":"115","size_leaf_vector":"1"}},{"base_weights":[-8.978467E-3,-2.643874E-2,2.911478E-2,-1.5239032E-2,-1.5169059E-1,1.542762E-1,-1.9708397E-2,-2.7832145E-2,5.6590396E-1,-4.5703363E-1,1.3535173E-2,1.9487579E-1,-4.0139988E-1,-8.781341E-2,5.7488736E-2,-1.4799915E-2,-6.8113625E-1,2.1516352E0,3.8983887E-1,-2.6593128E-1,-9.527989E-1,8.714976E-1,-3.0289065E-2,9.855686E-3,3.0243072E-1,-7.0396984E-1,2.9492754E-1,2.9354224E-2,-2.506712E-1,7.361081E-1,-7.220536E-2,-2.2203287E-2,6.123279E-1,-7.114089E-1,1.3277818E0,-6.3065565E-1,2.5159922E0,4.0656567E0,3.5252035E-1,-6.844624E-1,-2.7706763E-2,-1.1303865E0,-7.067992E-1,3.900636E-1,-1.7314E-1,3.4338847E-2,-2.020562E0,5.3579893E0,2.8326195E-1,-7.892822E-1,1.5321223E-1,5.972792E-1,-1.1568167E-1,-2.5385614E-2,1.2381858E0,-6.2314326E-1,-5.0737403E-2,-3.5560912E-1,9.587702E-1,3.0271667E-1,-1.5154327E-1,-3.7644084E-3,-5.539449E-2,2.6348528E-1,-3.537871E-1,-2.1348667E-1,-3.7507808E-1,2.1829005E-1,1.3424429E0,5.1984304E-1,-4.9745464E-1,1.1231406E0,6.0555875E-1,2.7695742E-1,1.8583078E0,-4.5285723E-1,1.7741714E-1,1.3408552E-1,-6.1667764E-1,-2.715845E-1,1.747954E-1,-4.6755916E-1,2.2877185E-1,-1.7020427E-1,-4.919877E-1,3.0295417E-1,-2.3581763E-1,-4.8572245E-1,-4.1858718E-2,1.9008607E-1,-3.8249213E-3,6.594651E-2,-8.632986E-1,3.721814E0,4.1434175E-1,2.5070772E-1,5.4238122E-2,-3.873745E-1,-2.189097E-1,2.3764448E-1,2.7021304E-2,6.928301E-2,2.6581642E-1,-8.499508E-2,1.1683043E-1,1.3710396E-1,-2.7110899E-2,5.637542E-1,3.5096142E-1,-9.428283E-1,-2.3194571E-1,9.332174E-3,-2.3877876E-1,-4.830627E-1,4.060224E-1,4.3225667E-1,-3.370432E-1,6.781624E-1,-2.1171568E-2,-5.3382605E-1,-2.0561924E-2],"categories":[],"categories_nodes":[],"categories_segments":[],"categories_sizes":[],"default_left":[0,0,0,0,0,0,0,0,0,0,0,0,0,0,0,0,0,0,0,0,0,0,0,0,0,0,0,0,0,0,0,0,0,0,0,0,0,0,0,0,0,0,0,0,0,0,0,0,0,0,0,0,0,0,0,0,0,0,0,0,0,0,0,0,0,0,0,0,0,0,0,0,0,0,0,0,0,0,0,0,0,0,0,0,0,0,0,0,0,0,0,0,0,0,0,0,0,0,0,0,0,0,0,0,0,0,0,0,0,0,0,0,0,0,0,0,0,0,0,0,0],"id":8,"left_children":[1,3,5,7,9,11,13,15,17,19,21,23,25,27,29,31,33,35,37,39,41,-1,43,45,47,49,51,53,55,57,59,61,63,65,67,69,71,73,75,77,79,81,83,85,87,89,91,93,95,97,99,101,103,105,107,109,111,113,115,117,119,-1,-1,-1,-1,-1,-1,-1,-1,-1,-1,-1,-1,-1,-1,-1,-1,-1,-1,-1,-1,-1,-1,-1,-1,-1,-1,-1,-1,-1,-1,-1,-1,-1,-1,-1,-1,-1,-1,-1,-1,-1,-1,-1,-1,-1,-1,-1,-1,-1,-1,-1,-1,-1,-1,-1,-1,-1,-1,-1,-1],"loss_changes":[4.0340977E1,5.8338425E1,1.1649231E2,2.794087E2,1.7221715E2,1.20764275E2,7.210872E1,3.1814148E2,2.2524368E2,1.1330055E2,2.1032973E2,9.9216324E1,7.701749E1,1.390494E2,5.658643E2,1.701196E2,4.53898E1,8.339966E1,9.871505E1,8.6372955E1,1.3752136E1,0E0,1.3054694E2,9.123642E1,3.0403586E2,1.8727226E1,1.3866153E1,2.8051147E2,2.2702542E2,2.5110162E2,1.6061667E2,5.386437E1,3.0264343E1,2.8475342E1,1.5931873E1,1.3619253E1,1.6678192E1,1.0956093E1,9.8318726E1,2.7520734E2,1.677219E2,1.3240585E1,2.0419418E1,1.9887488E2,1.15576385E2,3.5096516E1,6.9356613E0,1.9256168E2,1.5929906E2,9.509903E0,8.6129415E-1,1.7151737E0,1.9554904E0,6.332318E1,1.0106506E1,7.854471E1,8.0324326E1,2.061687E2,1.890744E2,4.6722903E2,5.278171E2,0E0,0E0,0E0,0E0,0E0,0E0,0E0,0E0,0E0,0E0,0E0,0E0,0E0,0E0,0E0,0E0,0E0,0E0,0E0,0E0,0E0,0E0,0E0,0E0,0E0,0E0,0E0,0E0,0E0,0E0,0E0,0E0,0E0,0E0,0E0,0E0,0E0,0E0,0E0,0E0,0E0,0E0,0E0,0E0,0E0,0E0,0E0,0E0,0E0,0E0,0E0,0E0,0E0,0E0,0E0,0E0,0E0,0E0,0E0,0E0],"parents":[2147483647,0,0,1,1,2,2,3,3,4,4,5,5,6,6,7,7,8,8,9,9,10,10,11,11,12,12,13,13,14,14,15,15,16,16,17,17,18,18,19,19,20,20,22,22,23,23,24,24,25,25,26,26,27,27,28,28,29,29,30,30,31,31,32,32,33,33,34,34,35,35,36,36,37,37,38,38,39,39,40,40,41,41,42,42,43,43,44,44,45,45,46,46,47,47,48,48,49,49,50,50,51,51,52,52,53,53,54,54,55,55,56,56,57,57,58,58,59,59,60,60],"right_children":[2,4,6,8,10,12,14,16,18,20,22,24,26,28,30,32,34,36,38,40,42,-1,44,46,48,50,52,54,56,58,60,62,64,66,68,70,72,74,76,78,80,82,84,86,88,90,92,94,96,98,100,102,104,106,108,110,112,114,116,118,120,-1,-1,-1,-1,-1,-1,-1,-1,-1,-1,-1,-1,-1,-1,-1,-1,-1,-1,-1,-1,-1,-1,-1,-1,-1,-1,-1,-1,-1,-1,-1,-1,-1,-1,-1,-1,-1,-1,-1,-1,-1,-1,-1,-1,-1,-1,-1,-1,-1,-1,-1,-1,-1,-1,-1,-1,-1,-1,-1,-1],"split_conditions":[4.283922E1,4.838698E2,4.4230614E1,4.8063364E2,4.8800998E2,4.992767E2,4.853139E2,4.7767252E2,4.8109512E2,4.2241173E1,4.8825443E2,4.7123056E2,4.348484E1,4.7450708E2,4.8825443E2,4.7610352E2,3E0,4.0233253E1,3.66301E1,3.9504227E1,4.8717215E2,8.714976E-1,3.9504227E1,4.707873E2,4.7201315E2,2E0,4.3847633E1,4.7408728E2,4.502588E1,4.467584E1,4.4964886E1,4.3012164E2,4.2518475E1,4.1453655E1,3.9992886E1,3.7250626E1,4.257176E1,3.5838108E1,3.9312267E1,4.8661646E2,4.8529773E2,2E0,4.2690247E1,4.9458566E2,4.8910068E2,4.301853E1,4.293416E1,4.3686333E1,4.8015793E2,4.309216E1,4.293416E1,4.3552452E1,4.4156326E1,3.6112253E2,4.4828156E1,4.7482446E2,4.8401965E2,4.8687253E2,5.033702E1,4.8910068E2,4.8910068E2,-3.7644084E-3,-5.539449E-2,2.6348528E-1,-3.537871E-1,-2.1348667E-1,-3.7507808E-1,2.1829005E-1,1.3424429E0,5.1984304E-1,-4.9745464E-1,1.1231406E0,6.0555875E-1,2.7695742E-1,1.8583078E0,-4.5285723E-1,1.7741714E-1,1.3408552E-1,-6.1667764E-1,-2.715845E-1,1.747954E-1,-4.6755916E-1,2.2877185E-1,-1.7020427E-1,-4.919877E-1,3.0295417E-1,-2.3581763E-1,-4.8572245E-1,-4.1858718E-2,1.9008607E-1,-3.8249213E-3,6.594651E-2,-8.632986E-1,3.721814E0,4.1434175E-1,2.5070772E-1,5.4238122E-2,-3.873745E-1,-2.189097E-1,2.3764448E-1,2.7021304E-2,6.928301E-2,2.6581642E-1,-8.499508E-2,1.1683043E-1,1.3710396E-1,-2.7110899E-2,5.637542E-1,3.5096142E-1,-9.428283E-1,-2.3194571E-1,9.332174E-3,-2.3877876E-1,-4.830627E-1,4.060224E-1,4.3225667E-1,-3.370432E-1,6.781624E-1,-2.1171568E-2,-5.3382605E-1,-2.0561924E-2],"split_indices":[0,2,0,2,2,2,2,2,2,0,2,2,0,2,2,2,3,0,0,0,2,0,0,2,2,3,0,2,0,0,0,2,0,0,0,0,0,0,0,2,2,3,0,2,2,0,0,0,2,0,0,0,0,2,0,2,2,2,0,2,2,0,0,0,0,0,0,0,0,0,0,0,0,0,0,0,0,0,0,0,0,0,0,0,0,0,0,0,0,0,0,0,0,0,0,0,0,0,0,0,0,0,0,0,0,0,0,0,0,0,0,0,0,0,0,0,0,0,0,0,0],"split_type":[0,0,0,0,0,0,0,0,0,0,0,0,0,0,0,0,0,0,0,0,0,0,0,0,0,0,0,0,0,0,0,0,0,0,0,0,0,0,0,0,0,0,0,0,0,0,0,0,0,0,0,0,0,0,0,0,0,0,0,0,0,0,0,0,0,0,0,0,0,0,0,0,0,0,0,0,0,0,0,0,0,0,0,0,0,0,0,0,0,0,0,0,0,0,0,0,0,0,0,0,0,0,0,0,0,0,0,0,0,0,0,0,0,0,0,0,0,0,0,0,0],"sum_hessian":[6.0650164E4,4.1588246E4,1.9061918E4,3.8175785E4,3.4124612E3,5.3485073E3,1.3713411E4,3.7367008E4,8.087746E2,1.1975607E3,2.2149004E3,4.98494E3,3.6356735E2,7.2856836E3,6.4277275E3,3.6637188E4,7.298227E2,7.970354E1,7.2907104E2,8.654807E2,3.3207996E2,4.2974194E1,2.1719263E3,1.8329393E3,3.1520007E3,2.5343372E2,1.1013364E2,4.2377007E3,3.047983E3,1.0305802E3,5.3971475E3,3.6210676E4,4.2650992E2,7.1962445E2,1.0198243E1,9.144409E0,7.055913E1,6.24257E0,7.228285E2,3.1325574E2,5.52225E2,1.9076868E2,1.413113E2,5.5044836E2,1.6214779E3,1.812072E3,2.086722E1,1.0854009E1,3.1411467E3,2.3056554E2,2.2868176E1,6.3166462E1,4.6967175E1,4.0550535E3,1.8264706E2,1.0638809E3,1.984102E3,1.7448402E2,8.560962E2,9.4213696E2,4.4550103E3,3.2622916E4,3.5877607E3,4.1423285E2,1.227705E1,4.0497488E2,3.1464954E2,8.276243E0,1.9220003E0,1.9340345E0,7.210375E0,5.3248554E1,1.731057E1,1.2379049E0,5.0046654E0,4.1094822E1,6.8173364E2,1.4335E2,1.6990573E2,2.2976129E2,3.2246368E2,1.8685481E2,3.9138632E0,9.307939E1,4.82319E1,4.005003E2,1.4994806E2,9.905241E1,1.5224255E3,1.6321042E2,1.6488617E3,1.2250429E0,1.9642178E1,5.0709534E0,5.7830553E0,9.4337964E2,2.197767E3,1.307627E2,9.980285E1,2.754516E0,2.0113659E1,9.136698E0,5.4029766E1,3.834302E1,8.624153E0,4.1798892E2,3.6370645E3,1.21897385E2,6.0749683E1,2.4605986E1,1.0392748E3,1.7480217E3,2.3608034E2,1.0767122E2,6.681281E1,8.0222235E2,5.3873882E1,1.9088283E2,7.5125415E2,3.4670923E2,4.1083013E3],"tree_param":{"num_deleted":"0","num_feature":"4","num_nodes":"121","size_leaf_vector":"1"}},{"base_weights":[-8.316066E-3,-1.4545478E-2,5.792891E-2,-6.398595E-3,-1.1122353E-1,5.52751E-1,5.475139E-2,-1.7256377E-2,5.3094704E-2,1.6903684E-2,-2.948033E-1,-4.246734E-1,5.9896607E-2,-1.21731125E-2,-2.3101237E-1,8.607433E-2,-1.02681845E-1,-1.1411444E-1,7.666872E-1,-1.5385784E0,-1.2721506E-1,1.7657813E-2,1.4585823E-1,-1.7015435E-2,5.960171E-1,-4.4105172E-2,-7.8458965E-1,2.701003E-2,9.0476257E-1,-5.802427E-1,2.444587E-1,-2.2770615E-1,2.6671814E-2,1.0089906E0,1.432082E-1,-6.8056786E-1,-4.566946E-1,6.070016E-1,-1.8604352E-1,5.269799E-2,-9.3397313E-1,1.0347166E0,9.804423E-2,-6.096941E-3,-4.624648E-1,-2.116696E-1,2.9875886E-1,-1.6502832E-1,3.2811336E-2,-3.2972857E-1,1.0320814E0,5.6145508E-2,-2.9383782E-2,5.636683E-1,6.796214E-2,3.4000486E-1,-3.190973E-1,2.3033534E-1,-4.3146126E-2,-7.461433E-2,-4.2570463E-1,-4.3060582E-2,7.2553754E-1,4.535655E-1,-2.6566124E-1,3.2836708E-1,-3.2285616E-1,-2.506801E-1,4.1675836E-1,-3.6057714E-1,-1.13426065E-2,1.2321352E-2,1.9481264E-1,-1.22658156E-1,-4.1051722E-1,4.550495E-1,-3.492776E-1,1.6971995E-1,1.5944414E-2],"categories":[],"categories_nodes":[],"categories_segments":[],"categories_sizes":[],"default_left":[0,0,0,0,0,0,0,0,0,0,0,0,0,0,0,0,0,0,0,0,0,0,0,0,0,0,0,0,0,0,0,0,0,0,0,0,0,0,0,0,0,0,0,0,0,0,0,0,0,0,0,0,0,0,0,0,0,0,0,0,0,0,0,0,0,0,0,0,0,0,0,0,0,0,0,0,0,0,0],"id":9,"left_children":[1,3,5,7,9,-1,11,13,15,17,19,-1,21,23,25,27,29,31,33,35,37,39,41,43,45,47,49,51,53,55,57,59,61,63,65,-1,-1,67,69,71,73,75,77,-1,-1,-1,-1,-1,-1,-1,-1,-1,-1,-1,-1,-1,-1,-1,-1,-1,-1,-1,-1,-1,-1,-1,-1,-1,-1,-1,-1,-1,-1,-1,-1,-1,-1,-1,-1],"loss_changes":[2.4685932E1,4.306472E1,2.15552E1,3.2576416E1,9.99581E1,0E0,2.9534842E1,4.6336334E1,3.9995373E1,2.4603348E2,3.6390686E2,0E0,1.8543884E1,1.2269304E2,1.02456055E2,3.1060834E2,2.2566449E2,3.4102943E1,5.6136032E1,1.1455292E1,6.664953E1,1.14294716E2,7.141716E1,8.345912E1,5.6262276E1,3.449983E1,3.554515E1,6.825908E1,1.599784E2,1.7890092E2,9.211636E1,4.044638E1,2.2896602E2,5.679306E1,6.8564445E1,0E0,0E0,6.208897E1,1.6094731E2,3.1417973E1,6.7351303E0,1.7838432E1,3.031726E1,0E0,0E0,0E0,0E0,0E0,0E0,0E0,0E0,0E0,0E0,0E0,0E0,0E0,0E0,0E0,0E0,0E0,0E0,0E0,0E0,0E0,0E0,0E0,0E0,0E0,0E0,0E0,0E0,0E0,0E0,0E0,0E0,0E0,0E0,0E0,0E0],"parents":[2147483647,0,0,1,1,2,2,3,3,4,4,6,6,7,7,8,8,9,9,10,10,12,12,13,13,14,14,15,15,16,16,17,17,18,18,19,19,20,20,21,21,22,22,23,23,24,24,25,25,26,26,27,27,28,28,29,29,30,30,31,31,32,32,33,33,34,34,37,37,38,38,39,39,40,40,41,41,42,42],"right_children":[2,4,6,8,10,-1,12,14,16,18,20,-1,22,24,26,28,30,32,34,36,38,40,42,44,46,48,50,52,54,56,58,60,62,64,66,-1,-1,68,70,72,74,76,78,-1,-1,-1,-1,-1,-1,-1,-1,-1,-1,-1,-1,-1,-1,-1,-1,-1,-1,-1,-1,-1,-1,-1,-1,-1,-1,-1,-1,-1,-1,-1,-1,-1,-1,-1,-1],"split_conditions":[4.700718E1,4.5138805E1,4.676177E1,4.3212612E1,4.8825443E2,5.52751E-1,1.2254742E2,4.9701392E2,4.9106033E2,4.838698E2,4.885297E2,-4.246734E-1,4.9554602E2,4.9617722E2,4.2758575E1,4.8825443E2,4.977632E2,4.707873E2,4.571827E1,4.559001E1,4.9018988E2,4.9458566E2,4.9617722E2,4.9554602E2,4.1138683E1,4.9828036E2,3E0,4.7450708E2,4.8910068E2,4.361349E1,4.992767E2,4.7026755E2,3E0,3E0,4.8567508E2,-6.8056786E-1,-4.566946E-1,4.8910068E2,4.9202795E2,4.9106033E2,4.7905773E1,4.9358643E1,4.809125E1,-6.096941E-3,-4.624648E-1,-2.116696E-1,2.9875886E-1,-1.6502832E-1,3.2811336E-2,-3.2972857E-1,1.0320814E0,5.6145508E-2,-2.9383782E-2,5.636683E-1,6.796214E-2,3.4000486E-1,-3.190973E-1,2.3033534E-1,-4.3146126E-2,-7.461433E-2,-4.2570463E-1,-4.3060582E-2,7.2553754E-1,4.535655E-1,-2.6566124E-1,3.2836708E-1,-3.2285616E-1,-2.506801E-1,4.1675836E-1,-3.6057714E-1,-1.13426065E-2,1.2321352E-2,1.9481264E-1,-1.22658156E-1,-4.1051722E-1,4.550495E-1,-3.492776E-1,1.6971995E-1,1.5944414E-2],"split_indices":[0,0,2,0,2,0,2,2,2,2,2,0,2,2,0,2,2,2,0,0,2,2,2,2,0,2,3,2,2,0,2,2,3,3,2,0,0,2,2,2,0,0,0,0,0,0,0,0,0,0,0,0,0,0,0,0,0,0,0,0,0,0,0,0,0,0,0,0,0,0,0,0,0,0,0,0,0,0,0],"split_type":[0,0,0,0,0,0,0,0,0,0,0,0,0,0,0,0,0,0,0,0,0,0,0,0,0,0,0,0,0,0,0,0,0,0,0,0,0,0,0,0,0,0,0,0,0,0,0,0,0,0,0,0,0,0,0,0,0,0,0,0,0,0,0,0,0,0,0,0,0,0,0,0,0,0,0,0,0,0,0],"sum_hessian":[5.9817395E4,5.4676605E4,5.1407886E3,5.042818E4,4.248425E3,1.1269661E1,5.1295186E3,4.264584E4,7.78234E3,2.5026436E3,1.745781E3,2.2589523E1,5.106929E3,4.165628E4,9.8955835E2,6.4229727E3,1.3593671E3,2.1311003E3,3.7154337E2,2.063263E2,1.5394547E3,3.4251333E3,1.6817958E3,4.1328207E4,3.2807712E2,7.4058905E2,2.4896931E2,5.991732E3,4.3124075E2,5.7191406E2,7.8745294E2,1.1791222E3,9.51978E2,2.6711557E2,1.04427795E2,1.4396422E2,6.2362076E1,1.1350623E2,1.4259485E3,3.3044058E3,1.20727516E2,8.479643E1,1.5969994E3,4.126499E4,6.321559E1,3.8494705E1,2.895824E2,1.8828716E2,5.523019E2,2.4680997E2,2.1593416E0,2.8151587E3,3.1765732E3,2.5517221E2,1.7606854E2,7.510771E1,4.9680637E2,4.0546088E2,3.8199207E2,1.1249802E3,5.414191E1,8.863035E2,6.5674515E1,2.4885724E2,1.825831E1,6.1037285E1,4.3390514E1,2.946873E1,8.4037506E1,2.5668686E2,1.1692616E3,3.1468455E3,1.5756049E2,1.6041908E1,1.0468561E2,8.08399E1,3.9565356E0,2.4074677E2,1.3562526E3],"tree_param":{"num_deleted":"0","num_feature":"4","num_nodes":"79","size_leaf_vector":"1"}},{"base_weights":[-3.5585738E-3,3.6158673E-2,-1.3143847E-2,1.587129E-2,1.3946682E-1,-1.387736E-1,-7.680359E-3,3.7661966E-2,-8.4867224E-2,2.3133771E-1,2.8741103E-2,-1.8589567E-1,1.4301997E-1,2.1587433E-1,-1.2795936E-2,4.06206E-2,-3.3687896E-1,-1.0083296E-1,2.9603064E-1,1.8142992E-1,7.1547943E-1,9.327221E-2,-2.0399956E-1,-1.4685108E-1,-5.5358607E-1,6.800512E-1,3.3141315E-2,1.9612472E-1,2.0583904E0,-1.4770311E-1,-6.71049E-3,3.4298524E-2,3.874007E-1,-6.3782793E-1,4.202208E-1,-7.099442E-2,-3.3149284E-1,7.707715E-1,-5.952941E-1,2.622402E-1,2.8195797E-2,5.624804E-1,1.055059E0,1.4496233E-2,3.294323E-1,-3.2229468E-1,3.8630906E-1,-2.18264E-1,3.0464424E-2,-4.7183663E-1,-8.88073E-1,5.564611E-1,5.433907E-1,6.9762304E-2,-4.1216332E-1,2.1844542E-2,3.657158E-1,1.2813829E0,5.192682E-2,-8.932029E-2,-4.9835354E-1,1.9342162E-1,-8.723234E-3,1.6319219E-2,-6.659476E-2,1.8632548E-1,-5.115897E-1,-4.388016E-2,-3.0881867E-1,4.6255633E-1,-9.0081856E-2,3.4424972E-3,-6.072345E-2,2.1741353E-1,4.4742998E-1,-4.240229E-1,4.9529053E-2,5.595504E-2,1.6813286E-1,2.94876E-2,-4.01959E-2,3.2937163E-1,6.014169E-2,6.190861E-1,2.547537E-1,3.9824765E-2,-8.1290595E-2,2.9610395E-1,7.604363E-2,-1.0213547E-1,-3.648437E-1,3.2852954E-1,-4.3119654E-1,2.0055814E-2,-1.3129763E-1,2.6315385E-1,-9.296062E-2,-2.2637923E-1,-1.0932E-1,-4.299844E-1,-1.5358426E-1,7.588857E-2,2.622985E-1,-2.9352307E-3,8.8960075E-1,2.0739913E-1,-4.2389747E-2,9.247836E-2,2.8858772E-1,3.4218532E-1,-5.207113E-2,-1.04576305E-1,-3.4775776E-1,-4.2741463E-1,9.2446126E-2,-1.7712468E-1,-3.0007595E-3],"categories":[],"categories_nodes":[],"categories_segments":[],"categories_sizes":[],"default_left":[0,0,0,0,0,0,0,0,0,0,0,0,0,0,0,0,0,0,0,0,0,0,0,0,0,0,0,0,0,0,0,0,0,0,0,0,0,0,0,0,0,0,0,0,0,0,0,0,0,0,0,0,0,0,0,0,0,0,0,0,0,0,0,0,0,0,0,0,0,0,0,0,0,0,0,0,0,0,0,0,0,0,0,0,0,0,0,0,0,0,0,0,0,0,0,0,0,0,0,0,0,0,0,0,0,0,0,0,0,0,0,0,0,0,0,0,0],"id":10,"left_children":[1,3,5,7,9,11,13,15,17,19,21,23,25,27,29,31,33,35,37,39,41,43,45,47,49,51,53,55,57,59,61,63,65,67,69,71,-1,73,75,77,79,81,83,85,87,89,91,93,95,97,99,-1,101,103,-1,105,107,-1,-1,109,111,113,115,-1,-1,-1,-1,-1,-1,-1,-1,-1,-1,-1,-1,-1,-1,-1,-1,-1,-1,-1,-1,-1,-1,-1,-1,-1,-1,-1,-1,-1,-1,-1,-1,-1,-1,-1,-1,-1,-1,-1,-1,-1,-1,-1,-1,-1,-1,-1,-1,-1,-1,-1,-1,-1,-1],"loss_changes":[2.2557552E1,2.4141565E1,3.2761536E1,2.114264E1,1.9227139E1,2.644143E1,5.2316597E1,8.787963E0,1.0446635E1,2.4835438E1,1.29135E1,2.4392056E1,1.6827686E1,3.6836918E1,3.6714455E1,1.7212023E1,1.4432295E1,3.566428E1,2.9725616E1,1.1607864E1,4.405529E0,1.2512917E1,1.3160801E1,1.95378E1,4.0457916E0,3.9525146E0,9.345689E0,2.9951973E1,2.3319515E1,3.9470867E1,1.7239252E1,1.007802E1,1.8964243E1,3.09663E0,8.94841E0,1.0172171E1,0E0,2.9931107E0,8.353218E0,1.1818069E1,1.9112793E0,7.240038E0,4.9359875E0,9.384325E0,9.490013E0,5.930338E0,2.1027172E1,3.247852E1,7.333556E1,2.3368645E0,2.5017586E0,0E0,1.555726E0,3.840313E1,0E0,3.1857998E1,2.4415611E1,0E0,0E0,6.403281E1,2.3971794E1,2.0516972E1,2.2458643E1,0E0,0E0,0E0,0E0,0E0,0E0,0E0,0E0,0E0,0E0,0E0,0E0,0E0,0E0,0E0,0E0,0E0,0E0,0E0,0E0,0E0,0E0,0E0,0E0,0E0,0E0,0E0,0E0,0E0,0E0,0E0,0E0,0E0,0E0,0E0,0E0,0E0,0E0,0E0,0E0,0E0,0E0,0E0,0E0,0E0,0E0,0E0,0E0,0E0,0E0,0E0,0E0,0E0,0E0],"parents":[2147483647,0,0,1,1,2,2,3,3,4,4,5,5,6,6,7,7,8,8,9,9,10,10,11,11,12,12,13,13,14,14,15,15,16,16,17,17,18,18,19,19,20,20,21,21,22,22,23,23,24,24,25,25,26,26,27,27,28,28,29,29,30,30,31,31,32,32,33,33,34,34,35,35,37,37,38,38,39,39,40,40,41,41,42,42,43,43,44,44,45,45,46,46,47,47,48,48,49,49,50,50,52,52,53,53,55,55,56,56,59,59,60,60,61,61,62,62],"right_children":[2,4,6,8,10,12,14,16,18,20,22,24,26,28,30,32,34,36,38,40,42,44,46,48,50,52,54,56,58,60,62,64,66,68,70,72,-1,74,76,78,80,82,84,86,88,90,92,94,96,98,100,-1,102,104,-1,106,108,-1,-1,110,112,114,116,-1,-1,-1,-1,-1,-1,-1,-1,-1,-1,-1,-1,-1,-1,-1,-1,-1,-1,-1,-1,-1,-1,-1,-1,-1,-1,-1,-1,-1,-1,-1,-1,-1,-1,-1,-1,-1,-1,-1,-1,-1,-1,-1,-1,-1,-1,-1,-1,-1,-1,-1,-1,-1,-1],"split_conditions":[8.609814E0,7.2680054E0,9.555418E0,6.5959053E0,8.140949E0,9.158156E1,1.0437012E1,6.9438225E1,7.324733E1,7.759383E1,8.299866E1,8.8278725E1,9.320106E1,1.2254742E2,1.174662E1,6.2232388E1,7.4750656E1,6.9438225E1,7.626572E1,6.781062E1,8.4869576E1,7.759383E1,9.6590164E1,8.173567E1,2E0,8.851286E0,1.1742087E2,9.922778E0,1.0191655E1,3E0,1.05378876E2,5.7311398E1,4E0,6.3453836E0,7.626572E1,2E0,-3.3149284E-1,7.4750656E1,7.9318214E1,6.2232388E1,7.324733E1,8.039782E1,8.637148E1,7.324733E1,7.9318214E1,9.495878E1,1.0185577E2,7.324733E1,8.299866E1,9.301975E0,9.421833E0,5.564611E-1,9.08322E0,1.118848E2,-4.1216332E-1,8.039782E1,9.320106E1,1.2813829E0,5.192682E-2,9.01318E1,9.85606E1,8.2287245E0,1.0698978E2,1.6319219E-2,-6.659476E-2,1.8632548E-1,-5.115897E-1,-4.388016E-2,-3.0881867E-1,4.6255633E-1,-9.0081856E-2,3.4424972E-3,-6.072345E-2,2.1741353E-1,4.4742998E-1,-4.240229E-1,4.9529053E-2,5.595504E-2,1.6813286E-1,2.94876E-2,-4.01959E-2,3.2937163E-1,6.014169E-2,6.190861E-1,2.547537E-1,3.9824765E-2,-8.1290595E-2,2.9610395E-1,7.604363E-2,-1.0213547E-1,-3.648437E-1,3.2852954E-1,-4.3119654E-1,2.0055814E-2,-1.3129763E-1,2.6315385E-1,-9.296062E-2,-2.2637923E-1,-1.0932E-1,-4.299844E-1,-1.5358426E-1,7.588857E-2,2.622985E-1,-2.9352307E-3,8.8960075E-1,2.0739913E-1,-4.2389747E-2,9.247836E-2,2.8858772E-1,3.4218532E-1,-5.207113E-2,-1.04576305E-1,-3.4775776E-1,-4.2741463E-1,9.2446126E-2,-1.7712468E-1,-3.0007595E-3],"split_indices":[0,0,0,0,0,2,0,2,2,2,2,2,2,2,0,2,2,2,2,2,2,2,2,2,3,0,2,0,0,3,2,2,3,0,2,3,0,2,2,2,2,2,2,2,2,2,2,2,2,0,0,0,0,2,0,2,2,0,0,2,2,2,2,0,0,0,0,0,0,0,0,0,0,0,0,0,0,0,0,0,0,0,0,0,0,0,0,0,0,0,0,0,0,0,0,0,0,0,0,0,0,0,0,0,0,0,0,0,0,0,0,0,0,0,0,0,0],"split_type":[0,0,0,0,0,0,0,0,0,0,0,0,0,0,0,0,0,0,0,0,0,0,0,0,0,0,0,0,0,0,0,0,0,0,0,0,0,0,0,0,0,0,0,0,0,0,0,0,0,0,0,0,0,0,0,0,0,0,0,0,0,0,0,0,0,0,0,0,0,0,0,0,0,0,0,0,0,0,0,0,0,0,0,0,0,0,0,0,0,0,0,0,0,0,0,0,0,0,0,0,0,0,0,0,0,0,0,0,0,0,0,0,0,0,0,0,0],"sum_hessian":[5.9250473E4,1.151879E4,4.7731684E4,9.629021E3,1.8897688E3,1.9882655E3,4.5743418E4,7.9171045E3,1.7119171E3,1.0322255E3,8.575433E2,1.7037085E3,2.8455704E2,1.02240326E3,4.4721016E4,7.8559395E3,6.1165314E1,1.6437527E3,6.816436E1,9.3700867E2,9.521686E1,6.718588E2,1.8568446E2,1.5414258E3,1.6228271E2,4.745108E1,2.3710596E2,1.0126553E3,9.748037E0,1.9292195E3,4.2791797E4,7.716363E3,1.3957643E2,4.3880318E1,1.7284996E1,1.5800786E3,6.3674133E1,4.4563843E1,2.3600515E1,6.130149E2,3.2399374E2,6.747301E1,2.7743847E1,5.046005E2,1.6725832E2,1.5506432E2,3.062015E1,1.0986992E3,4.4272653E2,1.3234734E2,2.993539E1,6.169416E0,4.1281666E1,2.3011679E2,6.989159E0,4.9997998E2,5.126753E2,5.7016826E0,4.0463552E0,1.6549305E3,2.7428894E2,4.251284E2,4.2366668E4,7.475184E3,2.4117845E2,1.3399178E2,5.5846577E0,9.260233E0,3.4620087E1,7.7050123E0,9.579983E0,7.9646606E2,7.8361255E2,2.8503696E1,1.6060146E1,1.4047526E1,9.552989E0,3.4663077E2,2.6638412E2,2.3964514E2,8.434862E1,4.070289E1,2.6770119E1,1.149745E1,1.6246397E1,3.6322778E2,1.4137273E2,4.1265114E1,1.259932E2,1.4054276E2,1.45215645E1,2.3945513E1,6.6746373E0,3.195034E2,7.791958E2,1.3027579E2,3.1245078E2,8.8530846E1,4.3816486E1,2.1012945E1,8.922445E0,1.0600943E1,3.0680723E1,2.2312764E2,6.989159E0,1.0171184E2,3.9826816E2,3.7320596E2,1.3946931E2,6.777494E1,1.5871555E3,1.6844191E2,1.0584702E2,1.1536793E1,4.1359158E2,1.17852425E2,4.2248816E4],"tree_param":{"num_deleted":"0","num_feature":"4","num_nodes":"117","size_leaf_vector":"1"}},{"base_weights":[-6.3906317E-3,-7.6239137E-4,-4.907194E-2,-1.0189909E-2,1.6546561E-1,-6.176269E-1,-1.7620735E-2,-2.600289E-3,-2.3226291E-1,1.2353812E-1,1.3910304E0,-6.8978953E-1,8.3450645E-1,-1.05481975E-1,1.1214765E-1,-1.0877966E-2,3.7513065E-1,-3.71594E-1,1.3954936E-1,5.063728E-1,1.1927554E-2,1.9716485E0,6.150035E-1,2.3797246E-2,-1.016762E0,-2.7290924E-2,-4.8072734E-1,6.2872934E-1,1.6738878E-3,-5.6897593E-3,-6.537621E-1,7.921023E-1,-5.021637E-1,-8.725498E-1,-2.3702712E-1,1.0295224E0,-1.6139546E-1,7.736626E-1,-5.6662315E-1,-1.1253171E0,7.931198E-2,3.5096252E-1,2.1440854E0,1.433565E-1,1.1034518E0,-1.2228935E0,7.531321E-1,-1.0439123E0,-1.7739807E-1,-4.6827044E-2,1.5331604E0,-7.177495E-1,2.9060426E-1,1.3732288E0,-7.3728986E-2,-4.7346082E-1,7.784721E-2,-4.019155E-3,2.570898E-1,4.4553003E-1,-3.937666E-1,2.1524942E-1,8.597333E-1,2.0991992E-2,-5.14149E-1,5.084524E-1,-3.9166194E-1,2.43153E-1,-1.6410254E-1,-4.0817928E-1,5.588973E-1,-2.5329652E-1,6.887807E-2,3.3333215E-1,-6.989531E-1,-2.8058457E-1,3.6210725E-1,-5.300371E-1,-1.8312664E-1,-6.1124366E-2,1.0236261E-1,-3.2019398E-1,5.252503E-1,9.2241824E-1,1.5129389E-1,9.685811E-2,-3.2769057E-1,8.913887E-1,2.0463014E-1,5.338402E-1,-5.4459035E-1,6.226227E-1,1.3844739E-1,-2.434235E-1,-4.222432E-1,3.8232717E-1,-2.5547448E-1,9.6233144E-2,-2.8003057E-2,8.131549E-1,1.4117888E-1,-3.0135593E-1,9.265875E-1,1.0448195E-1,5.0618035E-1,2.8723285E-1,6.513114E-1,1.8556951E-1,-2.5428984E-1,2.9702634E-1,2.0829653E-2],"categories":[],"categories_nodes":[],"categories_segments":[],"categories_sizes":[],"default_left":[0,0,0,0,0,0,0,0,0,0,0,0,0,0,0,0,0,0,0,0,0,0,0,0,0,0,0,0,0,0,0,0,0,0,0,0,0,0,0,0,0,0,0,0,0,0,0,0,0,0,0,0,0,0,0,0,0,0,0,0,0,0,0,0,0,0,0,0,0,0,0,0,0,0,0,0,0,0,0,0,0,0,0,0,0,0,0,0,0,0,0,0,0,0,0,0,0,0,0,0,0,0,0,0,0,0,0,0,0,0,0],"id":11,"left_children":[1,3,5,7,9,11,13,15,17,19,21,23,-1,25,27,29,31,33,35,37,39,41,43,45,47,49,51,53,55,57,59,61,63,65,67,69,71,73,75,77,79,81,83,85,87,89,91,93,95,97,99,101,103,105,107,-1,109,-1,-1,-1,-1,-1,-1,-1,-1,-1,-1,-1,-1,-1,-1,-1,-1,-1,-1,-1,-1,-1,-1,-1,-1,-1,-1,-1,-1,-1,-1,-1,-1,-1,-1,-1,-1,-1,-1,-1,-1,-1,-1,-1,-1,-1,-1,-1,-1,-1,-1,-1,-1,-1,-1],"loss_changes":[1.4189685E1,8.178754E1,1.230477E2,8.324151E1,1.4375983E2,7.181926E1,7.4374275E1,1.4932927E2,8.460423E1,1.1576625E2,4.049211E1,8.217195E1,0E0,1.1410858E2,1.5029404E2,1.558749E2,3.7504053E2,7.984523E1,1.1951884E2,1.7584203E2,1.6093388E2,1.3917267E1,9.302567E0,1.0240248E2,5.317627E0,9.8229935E1,1.2281903E2,2.427524E2,1.9607634E2,1.3101746E2,2.1975952E2,2.3827478E2,1.4366428E2,5.8621323E1,1.3745477E2,8.641462E1,5.2662746E1,7.517084E1,2.4956078E1,1.5058609E1,8.130225E1,7.9683695E0,1.2640671E1,2.2943976E0,1.219389E1,1.6552284E1,2.2689774E1,5.475311E-1,5.195185E0,2.1209887E1,2.2780945E1,5.725363E1,4.20788E0,3.6477173E1,7.27158E1,0E0,3.4918407E1,0E0,0E0,0E0,0E0,0E0,0E0,0E0,0E0,0E0,0E0,0E0,0E0,0E0,0E0,0E0,0E0,0E0,0E0,0E0,0E0,0E0,0E0,0E0,0E0,0E0,0E0,0E0,0E0,0E0,0E0,0E0,0E0,0E0,0E0,0E0,0E0,0E0,0E0,0E0,0E0,0E0,0E0,0E0,0E0,0E0,0E0,0E0,0E0,0E0,0E0,0E0,0E0,0E0,0E0],"parents":[2147483647,0,0,1,1,2,2,3,3,4,4,5,5,6,6,7,7,8,8,9,9,10,10,11,11,13,13,14,14,15,15,16,16,17,17,18,18,19,19,20,20,21,21,22,22,23,23,24,24,25,25,26,26,27,27,28,28,29,29,30,30,31,31,32,32,33,33,34,34,35,35,36,36,37,37,38,38,39,39,40,40,41,41,42,42,43,43,44,44,45,45,46,46,47,47,48,48,49,49,50,50,51,51,52,52,53,53,54,54,56,56],"right_children":[2,4,6,8,10,12,14,16,18,20,22,24,-1,26,28,30,32,34,36,38,40,42,44,46,48,50,52,54,56,58,60,62,64,66,68,70,72,74,76,78,80,82,84,86,88,90,92,94,96,98,100,102,104,106,108,-1,110,-1,-1,-1,-1,-1,-1,-1,-1,-1,-1,-1,-1,-1,-1,-1,-1,-1,-1,-1,-1,-1,-1,-1,-1,-1,-1,-1,-1,-1,-1,-1,-1,-1,-1,-1,-1,-1,-1,-1,-1,-1,-1,-1,-1,-1,-1,-1,-1,-1,-1,-1,-1,-1,-1],"split_conditions":[4.9018988E2,4.8601678E2,4.9106033E2,4.837274E2,3E0,5.1181385E1,4.581973E1,4.8257898E2,4.506412E1,4.8661646E2,5E0,4.571827E1,8.3450645E-1,4.502588E1,4.9547092E2,4.816868E2,4.3847633E1,4.8401965E2,4.8401965E2,2E0,4.8687253E2,4.2690247E1,4.711697E1,4.3847633E1,4.8832336E1,3E0,4.9939883E2,4.700718E1,4.9554602E2,4.8136737E2,4.1832146E1,4.8340417E2,4.8340417E2,3.9992886E1,4.8444528E2,4.838698E2,4.8444528E2,4.910376E1,4.5416615E1,2E0,4.405063E1,4.8910068E2,5.2657425E1,4.6863438E1,5.1181385E1,3.8663593E1,4.905292E2,4.6228348E1,4.9688347E1,4.915868E2,4.9939883E2,4E0,3E0,4.9458566E2,4.932167E2,-4.7346082E-1,4.9617722E2,-4.019155E-3,2.570898E-1,4.4553003E-1,-3.937666E-1,2.1524942E-1,8.597333E-1,2.0991992E-2,-5.14149E-1,5.084524E-1,-3.9166194E-1,2.43153E-1,-1.6410254E-1,-4.0817928E-1,5.588973E-1,-2.5329652E-1,6.887807E-2,3.3333215E-1,-6.989531E-1,-2.8058457E-1,3.6210725E-1,-5.300371E-1,-1.8312664E-1,-6.1124366E-2,1.0236261E-1,-3.2019398E-1,5.252503E-1,9.2241824E-1,1.5129389E-1,9.685811E-2,-3.2769057E-1,8.913887E-1,2.0463014E-1,5.338402E-1,-5.4459035E-1,6.226227E-1,1.3844739E-1,-2.434235E-1,-4.222432E-1,3.8232717E-1,-2.5547448E-1,9.6233144E-2,-2.8003057E-2,8.131549E-1,1.4117888E-1,-3.0135593E-1,9.265875E-1,1.0448195E-1,5.0618035E-1,2.8723285E-1,6.513114E-1,1.8556951E-1,-2.5428984E-1,2.9702634E-1,2.0829653E-2],"split_indices":[2,2,2,2,3,0,0,2,0,2,3,0,0,0,2,2,0,2,2,3,2,0,0,0,0,3,2,0,2,2,0,2,2,0,2,2,2,0,0,3,0,2,0,0,0,0,2,0,0,2,2,3,3,2,2,0,2,0,0,0,0,0,0,0,0,0,0,0,0,0,0,0,0,0,0,0,0,0,0,0,0,0,0,0,0,0,0,0,0,0,0,0,0,0,0,0,0,0,0,0,0,0,0,0,0,0,0,0,0,0,0],"split_type":[0,0,0,0,0,0,0,0,0,0,0,0,0,0,0,0,0,0,0,0,0,0,0,0,0,0,0,0,0,0,0,0,0,0,0,0,0,0,0,0,0,0,0,0,0,0,0,0,0,0,0,0,0,0,0,0,0,0,0,0,0,0,0,0,0,0,0,0,0,0,0,0,0,0,0,0,0,0,0,0,0,0,0,0,0,0,0,0,0,0,0,0,0,0,0,0,0,0,0,0,0,0,0,0,0,0,0,0,0,0,0],"sum_hessian":[5.9068527E4,5.2187727E4,6.8808013E3,4.938767E4,2.8000522E3,3.5970187E2,6.5210996E3,4.7756547E4,1.6311273E3,2.7084934E3,9.1558784E1,3.5107706E2,8.624806E0,3.8885186E3,2.632581E3,4.673339E4,1.0231544E3,1.1865034E3,4.4462384E2,6.105868E2,2.0979067E3,5.149207E1,4.006672E1,1.1060948E2,2.4046759E2,3.2188662E3,6.6965247E2,4.62978E2,2.169603E3,4.636026E4,3.73128E2,6.9359216E2,3.2956223E2,2.500715E2,9.3643195E2,1.1174463E2,3.328792E2,4.8904233E2,1.21544464E2,1.1647429E2,1.9814324E3,5.2436633E0,4.6248405E1,2.1041998E1,1.902472E1,4.057528E1,7.00342E1,2.3269702E2,7.770567E0,3.1800237E3,3.884242E1,5.122981E2,1.5735437E2,2.2429953E2,2.3867845E2,1.301296E2,2.0394734E3,4.6051723E4,3.085388E2,5.8426662E1,3.1470132E2,5.85436E2,1.08156204E2,1.934793E2,1.3608293E2,1.1329391E1,2.3874211E2,1.5890044E2,7.775315E2,1.6725914E1,9.5018715E1,1.374978E2,1.9538142E2,4.783893E2,1.0653001E1,1.1182384E2,9.720624E0,8.888639E1,2.7587896E1,8.5617566E2,1.1252567E3,2.4635277E0,2.7801356E0,4.2082752E1,4.1656523E0,1.9762262E1,1.2797359E0,5.6052823E0,1.3419436E1,1.6420151E0,3.8933266E1,2.2599524E1,4.743468E1,7.47524E0,2.2522177E2,1.9378692E0,5.832698E0,2.3663783E2,2.943386E3,2.6780514E1,1.2061904E1,5.070934E2,5.2046957E0,1.5397862E2,3.3757384E0,6.392099E1,1.6037854E2,1.2207021E2,1.1660824E2,7.508666E1,1.9643867E3],"tree_param":{"num_deleted":"0","num_feature":"4","num_nodes":"111","size_leaf_vector":"1"}},{"base_weights":[-3.2077865E-3,2.3744741E-2,-9.802431E-3,1.4070135E-2,8.5817486E-2,-9.890093E-2,-5.52908E-3,2.6744861E-2,-5.9589494E-2,1.6412893E-1,2.1587076E-2,-1.301623E-1,4.6371408E-2,1.7730536E-1,-8.871901E-3,3.028125E-2,-2.870779E-1,-9.848507E-2,1.9448332E-1,1.552595E-1,3.49597E-1,2.850263E-2,-4.139354E-1,-9.932992E-2,-3.924831E-1,3.0975878E-1,-9.928017E-2,1.5378249E-1,7.657472E-1,-1.0177635E-1,-4.8004626E-3,7.065639E-3,6.81004E-2,-3.762029E-1,4.7727767E-1,-2.1275286E-1,4.6722252E-2,3.2459813E-1,-2.9095882E-1,1.6349341E-1,-2.8533193E-1,1.3703153E-2,5.011671E-1,-1.2659766E-1,7.9547875E-2,-2.746444E-1,-5.2686816E-1,4.5564383E-1,1.5886956E-1,-1.8754482E-1,3.9248493E-1,-1.9648933E-1,1.772523E-1,8.577272E-1,-1.8569825E-2,-6.263421E-2,-3.6427414E-1,9.702972E-2,-7.4877962E-3,1.6555933E-2,-2.6669903E-2,1.14127E-1,2.087675E-2,-1.118773E-1,-4.459675E-1,-6.301156E-2,-1.8493873E-1,4.670873E-2,-5.0634187E-2,2.1289113E-1,5.5278774E-2,-4.72527E-1,1.1508685E-1,6.1145213E-2,3.7693626E-1,2.3523793E-2,-7.7816665E-2,2.67429E-1,8.8846825E-2,-3.5451338E-2,-1.9102977E-1,-4.846825E-3,2.6803383E-1,-7.42509E-2,-2.7031112E-1,-1.5718661E-1,-2.2980157E-1,3.8036895E-1,1.479436E-1,-3.916785E-2,1.6662912E-1,-1.768887E-2,-2.4742797E-1,3.3274147E-1,-2.6183529E-2,-8.367681E-3,-2.626478E-1,2.2174446E-1,5.6586392E-2,-2.787798E-1,3.4248564E-1,1.9277911E-1,-3.6536615E-2,-4.3174703E-2,-2.6682684E-1,-6.938691E-3,1.4568888E-1,-8.701551E-2,-2.2688764E-3],"categories":[],"categories_nodes":[],"categories_segments":[],"categories_sizes":[],"default_left":[0,0,0,0,0,0,0,0,0,0,0,0,0,0,0,0,0,0,0,0,0,0,0,0,0,0,0,0,0,0,0,0,0,0,0,0,0,0,0,0,0,0,0,0,0,0,0,0,0,0,0,0,0,0,0,0,0,0,0,0,0,0,0,0,0,0,0,0,0,0,0,0,0,0,0,0,0,0,0,0,0,0,0,0,0,0,0,0,0,0,0,0,0,0,0,0,0,0,0,0,0,0,0,0,0,0,0,0,0],"id":12,"left_children":[1,3,5,7,9,11,13,15,17,19,21,23,25,27,29,31,33,35,37,39,-1,41,-1,43,45,47,49,51,53,55,57,59,61,63,-1,65,67,69,71,73,-1,75,77,79,81,83,85,87,89,91,93,95,97,-1,99,101,103,105,107,-1,-1,-1,-1,-1,-1,-1,-1,-1,-1,-1,-1,-1,-1,-1,-1,-1,-1,-1,-1,-1,-1,-1,-1,-1,-1,-1,-1,-1,-1,-1,-1,-1,-1,-1,-1,-1,-1,-1,-1,-1,-1,-1,-1,-1,-1,-1,-1,-1,-1],"loss_changes":[1.0404451E1,6.90913E0,1.7905827E1,9.297258E0,7.800211E0,9.780664E0,2.7430222E1,9.43709E0,1.4467486E1,4.2649136E0,6.2650146E0,1.42884655E1,1.4680805E1,1.1036465E1,1.6670387E1,7.3762784E0,1.2950924E1,2.105918E1,1.2376028E1,5.062397E0,0E0,5.9315476E0,0E0,7.7482586E0,2.8003292E0,2.9262438E0,1.0779905E1,6.4150867E0,3.325927E1,1.8988703E1,1.1555351E1,1.31825075E1,1.1028049E1,6.1146774E0,0E0,9.71505E0,6.8070126E0,5.879427E0,2.1787827E1,5.534439E0,0E0,7.7531233E0,1.0541854E0,1.8308226E1,1.140086E1,3.487317E0,3.2150078E-1,2.5682497E0,4.5737333E0,1.293317E1,7.671693E0,3.961826E0,9.744814E0,0E0,1.2805996E1,2.523616E1,1.8548195E1,3.318657E1,1.5687975E1,0E0,0E0,0E0,0E0,0E0,0E0,0E0,0E0,0E0,0E0,0E0,0E0,0E0,0E0,0E0,0E0,0E0,0E0,0E0,0E0,0E0,0E0,0E0,0E0,0E0,0E0,0E0,0E0,0E0,0E0,0E0,0E0,0E0,0E0,0E0,0E0,0E0,0E0,0E0,0E0,0E0,0E0,0E0,0E0,0E0,0E0,0E0,0E0,0E0,0E0],"parents":[2147483647,0,0,1,1,2,2,3,3,4,4,5,5,6,6,7,7,8,8,9,9,10,10,11,11,12,12,13,13,14,14,15,15,16,16,17,17,18,18,19,19,21,21,23,23,24,24,25,25,26,26,27,27,28,28,29,29,30,30,31,31,32,32,33,33,35,35,36,36,37,37,38,38,39,39,41,41,42,42,43,43,44,44,45,45,46,46,47,47,48,48,49,49,50,50,51,51,52,52,54,54,55,55,56,56,57,57,58,58],"right_children":[2,4,6,8,10,12,14,16,18,20,22,24,26,28,30,32,34,36,38,40,-1,42,-1,44,46,48,50,52,54,56,58,60,62,64,-1,66,68,70,72,74,-1,76,78,80,82,84,86,88,90,92,94,96,98,-1,100,102,104,106,108,-1,-1,-1,-1,-1,-1,-1,-1,-1,-1,-1,-1,-1,-1,-1,-1,-1,-1,-1,-1,-1,-1,-1,-1,-1,-1,-1,-1,-1,-1,-1,-1,-1,-1,-1,-1,-1,-1,-1,-1,-1,-1,-1,-1,-1,-1,-1,-1,-1,-1],"split_conditions":[8.609814E0,7.525526E0,9.70929E0,6.8207493E0,8.140949E0,9.158156E1,1.0437012E1,6.9438225E1,4E0,9.495878E1,1.05378876E2,8.8278725E1,9.495878E1,1.09942314E2,1.174662E1,3.2069424E1,7.9318214E1,6.0913006E1,5.853072E1,8.637148E1,3.49597E-1,9.85606E1,-4.139354E-1,8.4869576E1,9.01318E1,9.320106E1,1.09942314E2,7.324733E1,1.1361455E2,3E0,1.1361455E2,2.5848022E0,4.3076897E0,7.759383E1,4.7727767E-1,5.9765163E1,2E0,5E0,7.2680054E0,8.4869576E1,-2.8533193E-1,8.299866E1,8.486645E0,8.299866E1,3E0,2E0,9.08322E0,8.851286E0,9.301975E0,1.0185577E2,1.1361455E2,7.12093E1,7.759383E1,8.577272E-1,1.2254742E2,9.01318E1,9.495878E1,1.09942314E2,1.1742087E2,1.6555933E-2,-2.6669903E-2,1.14127E-1,2.087675E-2,-1.118773E-1,-4.459675E-1,-6.301156E-2,-1.8493873E-1,4.670873E-2,-5.0634187E-2,2.1289113E-1,5.5278774E-2,-4.72527E-1,1.1508685E-1,6.1145213E-2,3.7693626E-1,2.3523793E-2,-7.7816665E-2,2.67429E-1,8.8846825E-2,-3.5451338E-2,-1.9102977E-1,-4.846825E-3,2.6803383E-1,-7.42509E-2,-2.7031112E-1,-1.5718661E-1,-2.2980157E-1,3.8036895E-1,1.479436E-1,-3.916785E-2,1.6662912E-1,-1.768887E-2,-2.4742797E-1,3.3274147E-1,-2.6183529E-2,-8.367681E-3,-2.626478E-1,2.2174446E-1,5.6586392E-2,-2.787798E-1,3.4248564E-1,1.9277911E-1,-3.6536615E-2,-4.3174703E-2,-2.6682684E-1,-6.938691E-3,1.4568888E-1,-8.701551E-2,-2.2688764E-3],"split_indices":[0,0,0,0,0,2,0,2,3,2,2,2,2,2,0,2,2,2,2,2,0,2,0,2,2,2,2,2,2,3,2,0,0,2,0,2,3,3,0,2,0,2,0,2,3,3,0,0,0,2,2,2,2,0,2,2,2,2,2,0,0,0,0,0,0,0,0,0,0,0,0,0,0,0,0,0,0,0,0,0,0,0,0,0,0,0,0,0,0,0,0,0,0,0,0,0,0,0,0,0,0,0,0,0,0,0,0,0,0],"split_type":[0,0,0,0,0,0,0,0,0,0,0,0,0,0,0,0,0,0,0,0,0,0,0,0,0,0,0,0,0,0,0,0,0,0,0,0,0,0,0,0,0,0,0,0,0,0,0,0,0,0,0,0,0,0,0,0,0,0,0,0,0,0,0,0,0,0,0,0,0,0,0,0,0,0,0,0,0,0,0,0,0,0,0,0,0,0,0,0,0,0,0,0,0,0,0,0,0,0,0,0,0,0,0,0,0,0,0,0,0],"sum_hessian":[5.85344E4,1.1506078E4,4.702832E4,9.955629E3,1.5504493E3,2.1513323E3,4.487699E4,8.494589E3,1.4610402E3,6.9794305E2,8.525063E2,1.7704504E3,3.808819E2,8.0483386E2,4.4072156E4,8.400826E3,9.376324E1,1.267598E3,1.9344206E2,6.905338E2,7.409204E0,8.4792865E2,4.5776763E0,1.5854769E3,1.8497348E2,1.3522415E2,2.4565775E2,7.751103E2,2.9723572E1,1.8493188E3,4.2222836E4,5.206164E3,3.1946616E3,8.914198E1,4.621251E0,7.091122E2,5.5848584E2,1.5281409E2,4.062797E1,6.8485345E2,5.68039E0,8.2318317E2,2.4745485E1,1.3760128E3,2.0946411E2,1.0017574E2,8.4797745E1,6.772524E1,6.74989E1,2.0879985E2,3.6857895E1,4.821157E1,7.268987E2,1.0149718E1,1.9573854E1,1.6104209E3,2.3889793E2,1.0847224E3,4.1138113E4,3.5528467E3,1.6533173E3,2.1684851E2,2.9778132E3,8.006102E1,9.080966E0,5.819777E2,1.2713451E2,3.9795993E2,1.6052592E2,7.141293E1,8.140115E1,1.5593771E1,2.50342E1,6.76812E2,8.041454E0,6.772145E2,1.4596869E2,1.4594306E1,1.0151179E1,1.2428153E3,1.3319753E2,1.8216705E2,2.7297054E1,8.317974E1,1.6996E1,2.4678146E1,6.0119595E1,8.509674E0,5.9215565E1,3.411998E1,3.3378925E1,1.5752342E2,5.127643E1,1.8393742E1,1.8464153E1,3.5653038E1,1.2558532E1,6.174558E1,6.6515314E2,1.1139025E1,8.43483E0,7.985085E1,1.5305701E3,1.3010802E2,1.0878992E2,7.6022833E2,3.244941E2,3.5151773E2,4.0786598E4],"tree_param":{"num_deleted":"0","num_feature":"4","num_nodes":"109","size_leaf_vector":"1"}},{"base_weights":[-3.1593288E-3,-4.1127595E-1,-2.9963623E-3,-6.0961354E-3,4.3772776E-2,-1.6860921E-3,-2.2099435E-1,2.6962757E-1,-2.3237314E-2,-2.7636136E-3,2.469178E-1,1.6151494E-1,-5.959656E-1,-5.899042E-1,4.27321E-1,-4.8426187E-1,4.0231753E-2,2.761704E-3,-4.4289917E-2,5.3059095E-1,-7.062544E-1,3.026123E-1,-4.676093E-1,-8.493029E-1,2.6843184E-1,4.810913E-1,-1.0925393E0,1.641045E0,3.6423942E-1,-9.785366E-1,2.3880063E-1,-5.746762E-1,7.491134E-2,-2.3133988E-3,8.643638E-2,5.624503E-3,-1.1024671E-1,-2.6991257E-1,3.1518853E-1,-4.286239E-1,2.1941297E-2,-4.3964844E-2,2.4657844E-1,9.9899925E-2,-5.409024E-1,-4.0230724E-1,-1.5042095E-1,3.4040412E-1,-5.1780142E-2,3.9960873E-1,-4.4332466E-1,-4.4088975E-1,-6.438795E-2,7.372786E-1,4.848219E-1,-8.4723726E-2,1.6139425E-1,-3.9849833E-1,2.2607689E-1,5.6866443E-1,-2.5743827E-1,-1.4019169E-1,-2.5700912E-1,7.7080846E-2,-1.295483E-2],"categories":[],"categories_nodes":[],"categories_segments":[],"categories_sizes":[],"default_left":[0,0,0,0,0,0,0,0,0,0,0,0,0,0,0,0,0,0,0,0,0,0,0,0,0,0,0,0,0,0,0,0,0,0,0,0,0,0,0,0,0,0,0,0,0,0,0,0,0,0,0,0,0,0,0,0,0,0,0,0,0,0,0,0,0],"id":13,"left_children":[1,-1,3,5,7,9,11,13,15,17,19,21,23,25,27,29,31,33,35,37,39,41,43,45,47,49,51,53,55,57,59,61,63,-1,-1,-1,-1,-1,-1,-1,-1,-1,-1,-1,-1,-1,-1,-1,-1,-1,-1,-1,-1,-1,-1,-1,-1,-1,-1,-1,-1,-1,-1,-1,-1],"loss_changes":[9.739559E0,0E0,8.454403E0,5.1830925E1,5.4867313E1,1.4356773E1,1.5783604E2,1.1268268E2,8.1844444E1,1.224382E1,6.2913956E1,4.8537598E1,1.2188887E2,6.997405E1,5.3109802E1,1.2119993E2,5.2479176E1,8.5855576E1,8.45891E1,5.6007626E1,1.4927231E1,5.779975E1,6.3968872E1,3.1453796E1,2.947451E1,3.560046E1,6.1750793E-1,7.466965E-1,1.5189789E1,6.064514E0,1.4519542E2,1.7733879E0,2.9436129E1,0E0,0E0,0E0,0E0,0E0,0E0,0E0,0E0,0E0,0E0,0E0,0E0,0E0,0E0,0E0,0E0,0E0,0E0,0E0,0E0,0E0,0E0,0E0,0E0,0E0,0E0,0E0,0E0,0E0,0E0,0E0,0E0],"parents":[2147483647,0,0,2,2,3,3,4,4,5,5,6,6,7,7,8,8,9,9,10,10,11,11,12,12,13,13,14,14,15,15,16,16,17,17,18,18,19,19,20,20,21,21,22,22,23,23,24,24,25,25,26,26,27,27,28,28,29,29,30,30,31,31,32,32],"right_children":[2,-1,4,6,8,10,12,14,16,18,20,22,24,26,28,30,32,34,36,38,40,42,44,46,48,50,52,54,56,58,60,62,64,-1,-1,-1,-1,-1,-1,-1,-1,-1,-1,-1,-1,-1,-1,-1,-1,-1,-1,-1,-1,-1,-1,-1,-1,-1,-1,-1,-1,-1,-1,-1,-1],"split_conditions":[1E0,-4.1127595E-1,4.977632E2,4.9547092E2,4.992767E2,4.952203E2,4.3552452E1,4.1711452E1,4.996969E2,4.5138805E1,4.711697E1,4.9701392E2,4.723897E1,3.917108E1,4.2462852E1,4.711697E1,4.0146465E1,4.8800998E2,4.8825443E2,4.595774E1,4.9358643E1,4.2690247E1,4.257176E1,4.9662122E2,4.9617722E2,4.986759E2,4.986759E2,4.9808554E2,4.331028E1,3E0,4.7905773E1,3.9737526E1,4.6863438E1,-2.3133988E-3,8.643638E-2,5.624503E-3,-1.1024671E-1,-2.6991257E-1,3.1518853E-1,-4.286239E-1,2.1941297E-2,-4.3964844E-2,2.4657844E-1,9.9899925E-2,-5.409024E-1,-4.0230724E-1,-1.5042095E-1,3.4040412E-1,-5.1780142E-2,3.9960873E-1,-4.4332466E-1,-4.4088975E-1,-6.438795E-2,7.372786E-1,4.848219E-1,-8.4723726E-2,1.6139425E-1,-3.9849833E-1,2.2607689E-1,5.6866443E-1,-2.5743827E-1,-1.4019169E-1,-2.5700912E-1,7.7080846E-2,-1.295483E-2],"split_indices":[3,0,2,2,2,2,0,0,2,0,0,2,0,0,0,0,0,2,2,0,0,0,0,2,2,2,2,2,0,3,0,0,0,0,0,0,0,0,0,0,0,0,0,0,0,0,0,0,0,0,0,0,0,0,0,0,0,0,0,0,0,0,0,0,0],"split_type":[0,0,0,0,0,0,0,0,0,0,0,0,0,0,0,0,0,0,0,0,0,0,0,0,0,0,0,0,0,0,0,0,0,0,0,0,0,0,0,0,0,0,0,0,0,0,0,0,0,0,0,0,0,0,0,0,0,0,0,0,0,0,0,0,0],"sum_hessian":[5.8322223E4,8.268235E0,5.8313953E4,5.4690066E4,3.6238882E3,5.3591297E4,1.0987683E3,8.28486E2,2.795402E3,5.3361004E4,2.302932E2,5.4419885E2,5.545695E2,1.2800958E2,7.004764E2,3.3746982E2,2.4579324E3,4.7095594E4,6.265411E3,1.7781662E2,5.2476585E1,4.4493063E2,9.926821E1,4.2888852E2,1.2568101E2,4.090138E1,8.710821E1,3.33717E1,6.6710474E2,2.0023727E2,1.3723254E2,1.3039056E2,2.3275417E3,4.5282703E4,1.812889E3,5.0040903E3,1.2613204E3,3.1002573E1,1.4681404E2,3.518237E1,1.7294218E1,1.9251958E2,2.5241106E2,5.52134E1,4.4054806E1,3.2147714E2,1.07411385E2,5.0540638E1,7.5140366E1,3.1128986E1,9.772393E0,8.603061E1,1.077601E0,2.0442207E1,1.2929492E1,4.2270405E1,6.248343E2,1.9831691E2,1.9203784E0,5.837251E1,7.886003E1,3.1724304E1,9.866626E1,1.1091432E3,1.2183986E3],"tree_param":{"num_deleted":"0","num_feature":"4","num_nodes":"65","size_leaf_vector":"1"}},{"base_weights":[-3.1648898E-3,-1.0638011E-2,1.5059561E-2,3.726177E-3,-5.2918382E-2,2.6155917E-2,-9.120944E-2,-2.0479364E-2,2.9659381E-2,-1.966967E-2,-1.3653803E-1,1.5223468E-2,4.8348898E-1,1.831691E-1,-1.6143759E-1,-8.435327E-3,-3.846554E-1,1.5405874E-1,-6.713488E-3,-3.6572043E-2,1.034763E0,-3.7878656E-1,-3.460984E-2,1.8889422E-2,-1.0154442E0,2.8074343E0,2.90085E-1,6.3416433E-1,-3.167089E-2,-3.7482184E-1,5.0094724E-2,-1.9494474E-2,1.0373873E0,-7.50775E-1,2.1978436E-2,1.33422E-1,1.1626583E0,-8.767115E-1,6.4639864E-3,-1.9732041E-2,-5.653014E-1,1.5736381E0,