{"learner":{"attributes":{},"feature_names":["time","stake","distance","rank"],"feature_types":["float","int","float","int"],"gradient_booster":{"model":{"gbtree_model_param":{"num_parallel_tree":"1","num_trees":"100"},"iteration_indptr":[0,1,2,3,4,5,6,7,8,9,10,11,12,13,14,15,16,17,18,19,20,21,22,23,24,25,26,27,28,29,30,31,32,33,34,35,36,37,38,39,40,41,42,43,44,45,46,47,48,49,50,51,52,53,54,55,56,57,58,59,60,61,62,63,64,65,66,67,68,69,70,71,72,73,74,75,76,77,78,79,80,81,82,83,84,85,86,87,88,89,90,91,92,93,94,95,96,97,98,99,100],"tree_info":[0,0,0,0,0,0,0,0,0,0,0,0,0,0,0,0,0,0,0,0,0,0,0,0,0,0,0,0,0,0,0,0,0,0,0,0,0,0,0,0,0,0,0,0,0,0,0,0,0,0,0,0,0,0,0,0,0,0,0,0,0,0,0,0,0,0,0,0,0,0,0,0,0,0,0,0,0,0,0,0,0,0,0,0,0,0,0,0,0,0,0,0,0,0,0,0,0,0,0,0],"trees":[{"base_weights":[-1.1175526E-1,4.2568046E-1,-4.378508E-1,1.4211266E0,3.5100567E-1,6.6964805E-1,-5.3031904E-1,9.2323476E-1,1.6501982E0,-8.025512E-2,5.1265824E-1,7.245942E-1,8.957655E-2,-5.53011E-1,7.3193145E-1,5.958613E-1,1.1581345E0,1.80892E0,1.2351612E0,1.5143834E-1,-1.9090258E-1,4.9696594E-1,1.6031953E0,2.7355805E-1,7.664179E-1,5.3291605E-3,3.142039E-1,-5.9081316E-1,-2.299954E-1,-4.2575616E-1,9.275984E-1,1.9455713E0,3.4218347E-1,1.5177094E0,5.4607934E-1,1.7548227E0,1.4732767E0,1.0612681E0,1.8584269E0,-8.122344E-2,3.7598032E-1,-2.5691116E-1,1.674578E-1,5.2690566E-1,-1.1359835E-1,2.3013742E0,4.016202E-1,9.4006234E-1,3.7038453E-2,1.0322697E0,6.6357887E-1,-3.2014698E-2,2.156389E-1,5.389276E-1,-2.8495818E-1,-3.391871E-1,-6.1043686E-1,-3.0516875E-1,2.6283994E-2,-5.5646397E-2,-6.850096E-1,3.000389E0,8.2446784E-1,8.4044504E-1,5.396127E-1,1.2467021E-1,2.0122531E-1,6.1719036E-1,4.1789332E-1,3.2593742E-1,1.6157569E-1,7.260165E-1,5.4065955E-1,5.306759E-1,3.5980296E-1,9.62634E-1,5.6255406E-1,-6.1476376E-2,6.1308976E-2,5.7154965E-1,1.0386711E-1,-4.0123705E-2,-1.4712147E-1,5.155288E-2,1.9096844E-1,2.4542725E-1,1.4770456E-1,-1.8901332E-1,2.9478332E-1,1.327297E0,8.8135445E-1,4.6503806E-1,-1.3638385E-1,-5.3984564E-2,4.073652E-2,7.6535124E-1,3.944494E-1,3.0549788E-1,1.1905427E-1,-5.0513197E-2,3.662862E-2,1.7068379E-1,-1.3498968E-1,3.5317847E-1,2.3216948E-2,-1.4735222E-1,6.605609E-2,-1.4069383E-1,5.778538E-1,-2.5644052E-1,-1.8301803E-1,-2.714506E-1,-7.742129E-2,-4.4985916E-2,1.5677594E-1,-2.575752E-1,2.2982672E-1,-3.195368E-1,-1.352182E-3,1.440751E0,5.795198E-1,2.6569822E-1,9.2208254E-1],"categories":[],"categories_nodes":[],"categories_segments":[],"categories_sizes":[],"default_left":[0,0,0,0,0,0,0,0,0,0,0,0,0,0,0,0,0,0,0,0,0,0,0,0,0,0,0,0,0,0,0,0,0,0,0,0,0,0,0,0,0,0,0,0,0,0,0,0,0,0,0,0,0,0,0,0,0,0,0,0,0,0,0,0,0,0,0,0,0,0,0,0,0,0,0,0,0,0,0,0,0,0,0,0,0,0,0,0,0,0,0,0,0,0,0,0,0,0,0,0,0,0,0,0,0,0,0,0,0,0,0,0,0,0,0,0,0,0,0,0,0,0,0],"id":0,"left_children":[1,3,5,7,9,11,13,15,17,19,21,23,25,27,29,31,33,35,37,39,41,43,45,47,49,51,53,55,57,59,61,63,65,67,69,71,-1,73,75,77,79,81,83,85,87,89,91,-1,93,95,97,99,101,103,105,107,109,111,113,115,117,119,121,-1,-1,-1,-1,-1,-1,-1,-1,-1,-1,-1,-1,-1,-1,-1,-1,-1,-1,-1,-1,-1,-1,-1,-1,-1,-1,-1,-1,-1,-1,-1,-1,-1,-1,-1,-1,-1,-1,-1,-1,-1,-1,-1,-1,-1,-1,-1,-1,-1,-1,-1,-1,-1,-1,-1,-1,-1,-1,-1,-1],"loss_changes":[1.467435E4,2.3499326E3,5.3370254E3,2.5009229E2,2.0506506E3,1.2793933E2,1.3780293E3,5.2942993E1,9.721777E1,2.056434E2,3.6533594E2,6.899243E1,6.596133E0,5.7679004E2,1.928949E2,9.980142E1,8.830609E1,1.04045654E2,4.363336E1,1.3548619E2,1.2845605E2,3.8564062E2,2.5330615E2,1.5357544E2,9.108447E1,2.0062053E0,1.2955314E1,2.0865039E2,9.5404144E1,1.1816811E1,1.5299127E2,1.4532928E0,1.0614834E0,1.4301758E0,5.456436E0,2.33125E1,0E0,1.3032135E1,1.9030487E1,2.1676706E1,1.6123564E2,7.957941E1,1.0042158E1,2.7447412E2,3.0160956E2,1.1766235E1,6.4016045E1,0E0,3.1556516E0,3.6108215E1,8.859326E1,2.5402563E0,4.6405187E0,1.1444664E1,1.0591464E0,6.904892E1,1.8365723E2,1.5946402E2,5.7067455E1,1.9642437E1,5.6279488E0,2.6596985E1,1.6315854E2,0E0,0E0,0E0,0E0,0E0,0E0,0E0,0E0,0E0,0E0,0E0,0E0,0E0,0E0,0E0,0E0,0E0,0E0,0E0,0E0,0E0,0E0,0E0,0E0,0E0,0E0,0E0,0E0,0E0,0E0,0E0,0E0,0E0,0E0,0E0,0E0,0E0,0E0,0E0,0E0,0E0,0E0,0E0,0E0,0E0,0E0,0E0,0E0,0E0,0E0,0E0,0E0,0E0,0E0,0E0,0E0,0E0,0E0,0E0,0E0],"parents":[2147483647,0,0,1,1,2,2,3,3,4,4,5,5,6,6,7,7,8,8,9,9,10,10,11,11,12,12,13,13,14,14,15,15,16,16,17,17,18,18,19,19,20,20,21,21,22,22,23,23,24,24,25,25,26,26,27,27,28,28,29,29,30,30,31,31,32,32,33,33,34,34,35,35,37,37,38,38,39,39,40,40,41,41,42,42,43,43,44,44,45,45,46,46,48,48,49,49,50,50,51,51,52,52,53,53,54,54,55,55,56,56,57,57,58,58,59,59,60,60,61,61,62,62],"right_children":[2,4,6,8,10,12,14,16,18,20,22,24,26,28,30,32,34,36,38,40,42,44,46,48,50,52,54,56,58,60,62,64,66,68,70,72,-1,74,76,78,80,82,84,86,88,90,92,-1,94,96,98,100,102,104,106,108,110,112,114,116,118,120,122,-1,-1,-1,-1,-1,-1,-1,-1,-1,-1,-1,-1,-1,-1,-1,-1,-1,-1,-1,-1,-1,-1,-1,-1,-1,-1,-1,-1,-1,-1,-1,-1,-1,-1,-1,-1,-1,-1,-1,-1,-1,-1,-1,-1,-1,-1,-1,-1,-1,-1,-1,-1,-1,-1,-1,-1,-1,-1,-1,-1],"split_conditions":[2E0,6.3680277E0,6.3680277E0,2.068443E1,2.8667276E1,4.404696E1,4.983909E2,1.0889247E1,5.145104E0,9.580533E0,5.2245758E1,2.5071216E-1,5.0963406E1,4.662147E1,4.556218E1,9.324231E-1,2.312405E0,5.0963406E1,5.637353E1,7.090717E1,2.305125E2,4.819473E1,5.1093628E2,4E0,1.200592E0,4E0,3E0,1.0498003E1,5E0,4.399012E1,4.9885785E2,5.829482E-1,2.001887E0,1.4730226E1,2.627086E0,4.7649107E0,1.4732767E0,5.516982E0,6.0014458E1,7.55902E0,7.347946E0,1.2754892E1,3.0433652E2,4.862558E2,4.9774704E2,2.9356976E2,2.637833E2,9.4006234E-1,5E0,3E0,5E0,4.762169E1,4.762169E1,5.375706E1,4E0,1.0207544E2,5E0,4.3681506E2,4.901315E1,4.337248E1,4.5496994E1,4.6240818E1,5.4306747E1,8.4044504E-1,5.396127E-1,1.2467021E-1,2.0122531E-1,6.1719036E-1,4.1789332E-1,3.2593742E-1,1.6157569E-1,7.260165E-1,5.4065955E-1,5.306759E-1,3.5980296E-1,9.62634E-1,5.6255406E-1,-6.1476376E-2,6.1308976E-2,5.7154965E-1,1.0386711E-1,-4.0123705E-2,-1.4712147E-1,5.155288E-2,1.9096844E-1,2.4542725E-1,1.4770456E-1,-1.8901332E-1,2.9478332E-1,1.327297E0,8.8135445E-1,4.6503806E-1,-1.3638385E-1,-5.3984564E-2,4.073652E-2,7.6535124E-1,3.944494E-1,3.0549788E-1,1.1905427E-1,-5.0513197E-2,3.662862E-2,1.7068379E-1,-1.3498968E-1,3.5317847E-1,2.3216948E-2,-1.4735222E-1,6.605609E-2,-1.4069383E-1,5.778538E-1,-2.5644052E-1,-1.8301803E-1,-2.714506E-1,-7.742129E-2,-4.4985916E-2,1.5677594E-1,-2.575752E-1,2.2982672E-1,-3.195368E-1,-1.352182E-3,1.440751E0,5.795198E-1,2.6569822E-1,9.2208254E-1],"split_indices":[3,0,0,2,0,2,2,2,0,0,0,0,2,0,0,0,0,2,2,2,2,0,0,3,0,3,3,0,3,0,2,0,0,2,0,0,0,0,2,0,0,0,2,2,2,2,2,0,3,3,3,2,2,2,3,2,3,2,0,0,0,0,0,0,0,0,0,0,0,0,0,0,0,0,0,0,0,0,0,0,0,0,0,0,0,0,0,0,0,0,0,0,0,0,0,0,0,0,0,0,0,0,0,0,0,0,0,0,0,0,0,0,0,0,0,0,0,0,0,0,0,0,0],"split_type":[0,0,0,0,0,0,0,0,0,0,0,0,0,0,0,0,0,0,0,0,0,0,0,0,0,0,0,0,0,0,0,0,0,0,0,0,0,0,0,0,0,0,0,0,0,0,0,0,0,0,0,0,0,0,0,0,0,0,0,0,0,0,0,0,0,0,0,0,0,0,0,0,0,0,0,0,0,0,0,0,0,0,0,0,0,0,0,0,0,0,0,0,0,0,0,0,0,0,0,0,0,0,0,0,0,0,0,0,0,0,0,0,0,0,0,0,0,0,0,0,0,0,0],"sum_hessian":[8.372917E4,3.1618555E4,5.211062E4,2.2051357E3,2.9413418E4,4.0151096E3,4.809551E4,6.964397E2,1.5086962E3,8.0194453E3,2.1393973E4,3.6674668E3,3.476427E2,4.72467E4,8.4880994E2,2.924277E2,4.04012E2,1.0889084E3,4.197877E2,2.591833E3,5.4276123E3,2.1091926E4,3.0204706E2,3.1185876E2,3.3556082E3,2.5356561E2,9.407707E1,4.2296016E4,4.950686E3,1.225503E2,7.2625964E2,4.5210865E1,2.4721686E2,2.5356561E2,1.5044637E2,1.0602429E3,2.8665611E1,3.3032788E2,8.945979E1,1.2732148E3,1.3186182E3,4.5836123E3,8.4400024E2,2.0106137E4,9.8578925E2,1.9046278E2,1.1158426E2,3.0974253E1,2.8088452E2,9.334601E2,2.422148E3,2.1605022E2,3.75154E1,6.848965E1,2.5587425E1,3.0612566E3,3.9234758E4,3.8277249E3,1.1229609E3,5.0982464E1,7.156783E1,3.3090504E1,6.931691E2,3.386005E1,1.1350813E1,2.1027861E2,3.693824E1,2.3855945E2,1.5006159E1,5.0405304E1,1.0004106E2,9.1941583E2,1.4082703E2,1.2235791E2,2.0796997E2,3.8477333E1,5.0982464E1,9.7289935E2,3.0031558E2,1.3005338E2,1.1885648E3,1.9009725E3,2.6826396E3,7.5184705E2,9.2153206E1,1.2972055E4,7.134082E3,6.935539E2,2.9223532E2,1.3851839E1,1.7661095E2,5.4830196E1,5.6754063E1,7.656989E1,2.0431464E2,4.444132E1,8.8901874E2,1.9007802E3,5.2136786E2,1.225503E2,9.3499916E1,2.7318905E1,1.0196493E1,3.9439266E1,2.9050385E1,2.1739693E1,3.847733E0,3.0406711E3,2.0585373E1,3.2677643E4,6.5571143E3,8.795918E2,2.948133E3,8.145651E2,3.083958E2,2.6356972E1,2.4625492E1,6.1178955E1,1.038888E1,2.2894012E1,1.0196493E1,6.267957E2,6.63734E1],"tree_param":{"num_deleted":"0","num_feature":"4","num_nodes":"123","size_leaf_vector":"1"}},{"base_weights":[-8.3448276E-2,2.247095E-1,-3.034493E-1,6.4253706E-1,1.8894657E-1,3.3211833E-1,-3.7269643E-1,4.6581593E-1,7.522069E-1,-4.802756E-2,2.7733406E-1,3.7794298E-1,1.0437308E-1,-3.9976558E-1,1.293565E-1,3.1122112E-1,5.354635E-1,1.2882986E0,7.03447E-1,1.3920824E-1,-1.0113953E-1,3.35137E-1,1.4832309E-1,3.2575268E-1,6.1063963E-1,1.3778473E-1,-4.2379814E-1,-4.3874353E-1,-2.1307288E-1,-4.8758507E-2,3.658474E-1,3.414316E-1,1.9007164E-1,6.8198586E-1,4.276631E-1,5.7677305E-1,9.053329E-1,5.853104E-1,7.7504075E-1,-5.8954105E-2,6.3116026E-1,-1.4793463E-1,6.1610527E-2,1.9577591E-1,4.4803575E-1,-3.9863158E-2,3.4003565E-1,4.1527018E-1,2.5313285E-1,4.9803436E-1,9.791602E-1,8.084826E-2,2.5884822E-1,-2.5061198E-2,-3.6437336E-1,-3.7608817E-1,-5.134191E-1,-3.640347E-1,-6.457079E-2,7.009154E-2,-5.543858E-1,-3.0214337E-1,4.5642182E-1,1.5444924E-1,7.127211E-2,2.6103655E-1,3.1227264E-1,1.265732E-1,2.0618044E-1,7.82016E-1,2.885868E-1,2.5059092E-1,5.8068153E-2,8.9645815E-1,2.8395313E-1,-4.033052E-2,8.537298E-2,2.8966472E-1,1.2307897E-3,-2.320182E-2,-9.7407945E-2,2.862148E-2,-1.9472595E-1,9.9853724E-2,-3.153015E-1,3.9788792E-1,1.1724806E-1,4.7992077E-2,-1.12360574E-1,3.4528065E-1,1.0719802E-1,5.787943E-2,1.9788006E-1,4.5798227E-2,1.458567E-1,2.1051936E-1,-8.447023E-2,4.8757067E-1,2.5561902E-1,7.970344E-2,-3.5038646E-2,2.3498073E-1,-6.9127935E-3,1.8369277E-1,-1.05951846E-1,-1.7061411E-1,-9.345915E-2,-2.7364346E-1,-1.9203787E-1,-1.9517289E-1,-7.327235E-2,-4.33729E-2,1.6169833E-1,-1.705571E-2,1.9853446E-1,-2.5784883E-1,9.157826E-2,-1.9480404E-2,-2.0149449E-1,3.023511E-1,1.0737734E-1],"categories":[],"categories_nodes":[],"categories_segments":[],"categories_sizes":[],"default_left":[0,0,0,0,0,0,0,0,0,0,0,0,0,0,0,0,0,0,0,0,0,0,0,0,0,0,0,0,0,0,0,0,0,0,0,0,0,0,0,0,0,0,0,0,0,0,0,0,0,0,0,0,0,0,0,0,0,0,0,0,0,0,0,0,0,0,0,0,0,0,0,0,0,0,0,0,0,0,0,0,0,0,0,0,0,0,0,0,0,0,0,0,0,0,0,0,0,0,0,0,0,0,0,0,0,0,0,0,0,0,0,0,0,0,0,0,0,0,0,0,0],"id":1,"left_children":[1,3,5,7,9,11,13,15,17,19,21,23,25,27,29,31,33,35,37,39,41,43,45,47,49,51,53,55,57,59,61,-1,63,65,67,-1,69,71,73,75,77,79,81,83,85,87,89,91,93,95,97,99,101,103,-1,105,107,109,111,113,115,117,119,-1,-1,-1,-1,-1,-1,-1,-1,-1,-1,-1,-1,-1,-1,-1,-1,-1,-1,-1,-1,-1,-1,-1,-1,-1,-1,-1,-1,-1,-1,-1,-1,-1,-1,-1,-1,-1,-1,-1,-1,-1,-1,-1,-1,-1,-1,-1,-1,-1,-1,-1,-1,-1,-1,-1,-1,-1,-1],"loss_changes":[5.5218857E3,5.068479E2,2.0916357E3,5.148535E1,6.5464404E2,4.86933E1,5.8243896E2,1.0889267E1,4.219159E1,8.44552E1,1.6970361E2,4.700641E1,1.3885855E1,2.9579736E2,9.2396454E1,2.0949736E1,1.0867798E1,6.7113647E0,1.2347229E1,1.8300146E2,5.039177E1,2.4723755E2,2.5418797E2,2.0547974E1,2.9014313E1,5.0639315E0,9.079856E0,1.5719092E2,1.5746481E2,7.526548E1,5.7148018E1,0E0,5.4649734E-1,3.544464E-1,3.837677E0,0E0,6.6375504E0,1.0331131E1,8.813867E1,1.5291279E1,3.1482407E1,4.4155502E1,8.094779E0,3.73146E2,7.351085E2,1.3704802E2,1.3130426E2,3.047647E1,2.7114517E1,1.1067413E1,1.2705444E1,1.0053737E1,2.13797E1,3.2340426E0,0E0,1.3135986E2,8.6950195E1,7.7965546E1,7.288996E1,4.8766975E1,1.6995857E1,5.754554E0,4.6527847E1,0E0,0E0,0E0,0E0,0E0,0E0,0E0,0E0,0E0,0E0,0E0,0E0,0E0,0E0,0E0,0E0,0E0,0E0,0E0,0E0,0E0,0E0,0E0,0E0,0E0,0E0,0E0,0E0,0E0,0E0,0E0,0E0,0E0,0E0,0E0,0E0,0E0,0E0,0E0,0E0,0E0,0E0,0E0,0E0,0E0,0E0,0E0,0E0,0E0,0E0,0E0,0E0,0E0,0E0,0E0,0E0,0E0,0E0],"parents":[2147483647,0,0,1,1,2,2,3,3,4,4,5,5,6,6,7,7,8,8,9,9,10,10,11,11,12,12,13,13,14,14,15,15,16,16,17,17,18,18,19,19,20,20,21,21,22,22,23,23,24,24,25,25,26,26,27,27,28,28,29,29,30,30,32,32,33,33,34,34,36,36,37,37,38,38,39,39,40,40,41,41,42,42,43,43,44,44,45,45,46,46,47,47,48,48,49,49,50,50,51,51,52,52,53,53,55,55,56,56,57,57,58,58,59,59,60,60,61,61,62,62],"right_children":[2,4,6,8,10,12,14,16,18,20,22,24,26,28,30,32,34,36,38,40,42,44,46,48,50,52,54,56,58,60,62,-1,64,66,68,-1,70,72,74,76,78,80,82,84,86,88,90,92,94,96,98,100,102,104,-1,106,108,110,112,114,116,118,120,-1,-1,-1,-1,-1,-1,-1,-1,-1,-1,-1,-1,-1,-1,-1,-1,-1,-1,-1,-1,-1,-1,-1,-1,-1,-1,-1,-1,-1,-1,-1,-1,-1,-1,-1,-1,-1,-1,-1,-1,-1,-1,-1,-1,-1,-1,-1,-1,-1,-1,-1,-1,-1,-1,-1,-1,-1,-1],"split_conditions":[2E0,6.3680277E0,5.375706E1,2.371924E1,3.47278E1,5.145104E0,4.8780502E2,1.0889247E1,3.338409E0,8.559237E0,4.421286E1,2.7359968E1,7.55902E0,4.5902565E1,4.983909E2,9.324231E-1,1.4730226E1,2.7359968E1,3.6865494E1,7.304633E1,2.305125E2,4.7873343E2,4.6047916E1,1.200592E0,4E0,4E0,5E0,4.2054178E2,4E0,4.954407E2,4.556218E1,3.414316E-1,1.200592E0,2.001887E0,2.068443E1,5.7677305E-1,2.968787E0,4.3794527E0,4.043263E0,7.928406E0,8.7877106E1,1.2754892E1,4.6660492E2,4.7797302E2,4.8248697E2,4.868651E2,4.703729E2,2.5071216E-1,1.0889247E1,4.404696E1,5E0,3E0,5E0,4E0,-3.6437336E-1,4.14899E1,4.1057026E1,4.7578045E1,5.082292E1,4.9278717E2,3E0,4.399012E1,4.771883E1,1.5444924E-1,7.127211E-2,2.6103655E-1,3.1227264E-1,1.265732E-1,2.0618044E-1,7.82016E-1,2.885868E-1,2.5059092E-1,5.8068153E-2,8.9645815E-1,2.8395313E-1,-4.033052E-2,8.537298E-2,2.8966472E-1,1.2307897E-3,-2.320182E-2,-9.7407945E-2,2.862148E-2,-1.9472595E-1,9.9853724E-2,-3.153015E-1,3.9788792E-1,1.1724806E-1,4.7992077E-2,-1.12360574E-1,3.4528065E-1,1.0719802E-1,5.787943E-2,1.9788006E-1,4.5798227E-2,1.458567E-1,2.1051936E-1,-8.447023E-2,4.8757067E-1,2.5561902E-1,7.970344E-2,-3.5038646E-2,2.3498073E-1,-6.9127935E-3,1.8369277E-1,-1.05951846E-1,-1.7061411E-1,-9.345915E-2,-2.7364346E-1,-1.9203787E-1,-1.9517289E-1,-7.327235E-2,-4.33729E-2,1.6169833E-1,-1.705571E-2,1.9853446E-1,-2.5784883E-1,9.157826E-2,-1.9480404E-2,-2.0149449E-1,3.023511E-1,1.0737734E-1],"split_indices":[3,0,2,2,0,0,2,2,0,0,0,2,0,0,2,0,2,2,2,2,2,2,0,0,3,3,3,2,3,2,0,0,0,0,2,0,0,0,0,0,2,0,2,2,2,2,2,0,2,2,3,3,3,3,0,0,0,0,0,2,3,0,0,0,0,0,0,0,0,0,0,0,0,0,0,0,0,0,0,0,0,0,0,0,0,0,0,0,0,0,0,0,0,0,0,0,0,0,0,0,0,0,0,0,0,0,0,0,0,0,0,0,0,0,0,0,0,0,0,0,0],"split_type":[0,0,0,0,0,0,0,0,0,0,0,0,0,0,0,0,0,0,0,0,0,0,0,0,0,0,0,0,0,0,0,0,0,0,0,0,0,0,0,0,0,0,0,0,0,0,0,0,0,0,0,0,0,0,0,0,0,0,0,0,0,0,0,0,0,0,0,0,0,0,0,0,0,0,0,0,0,0,0,0,0,0,0,0,0,0,0,0,0,0,0,0,0,0,0,0,0,0,0,0,0,0,0,0,0,0,0,0,0,0,0,0,0,0,0,0,0,0,0,0,0],"sum_hessian":[8.144771E4,3.3926492E4,4.752122E4,2.673565E3,3.1252928E4,4.6685254E3,4.2852695E4,1.0258176E3,1.6477472E3,8.490271E3,2.2762656E4,3.8859697E3,7.825557E2,4.0660605E4,2.1920903E3,3.2030786E2,7.0550977E2,1.3525568E2,1.5124916E3,1.875819E3,6.614452E3,1.5718456E4,7.044201E3,3.1760337E3,7.09936E2,7.366923E2,4.5863373E1,3.3636566E4,7.024038E3,1.2508195E3,9.4127094E2,5.738099E1,2.6292688E2,2.967885E2,4.0872122E2,9.455712E1,4.0698555E1,5.741933E2,9.382983E2,1.3378158E3,5.380031E2,5.1374E3,1.4770521E3,7.0360083E3,8.682447E3,3.555193E3,3.4890078E3,1.4204031E3,1.7556305E3,5.4557983E2,1.6435611E2,5.0218246E2,2.3450986E2,2.5798147E1,2.0065226E1,1.8293623E4,1.5342942E4,3.4824521E3,3.541586E3,1.0134619E3,2.3735757E2,1.12111015E2,8.291599E2,1.3235976E1,2.4969089E2,2.3454596E2,6.2242558E1,1.823203E2,2.2640094E2,4.6303744E0,3.606818E1,5.246945E2,4.949874E1,3.850522E1,8.99793E2,1.1601096E3,1.7770618E2,4.6848123E2,6.9521904E1,2.6478308E3,2.489569E3,1.4516035E3,2.544862E1,6.6716016E3,3.644071E2,1.9159175E3,6.7665303E3,2.1379346E3,1.4172585E3,4.2096152E2,3.0680461E3,3.2298917E2,1.097414E3,7.8351953E2,9.72111E2,5.249183E2,2.0661602E1,9.488319E1,6.947292E1,2.9478024E2,2.0740222E2,1.0656579E2,1.2794407E2,8.241075E0,1.7557072E1,1.3507701E4,4.785923E3,2.502985E3,1.2839957E4,2.0656438E3,1.4168083E3,3.2392935E3,3.022925E2,8.022004E2,2.1126155E2,2.1299821E2,2.4359371E1,5.021825E1,6.1892765E1,3.1859943E2,5.105605E2],"tree_param":{"num_deleted":"0","num_feature":"4","num_nodes":"121","size_leaf_vector":"1"}},{"base_weights":[-5.8063872E-2,1.2775315E-1,-2.0470318E-1,3.649653E-1,1.0574493E-1,1.8228485E-1,-2.5431654E-1,3.5967296E-1,5.5433017E-1,-5.840421E-3,1.8548696E-1,1.9472572E-1,-4.6669856E-1,-2.7476633E-1,6.747354E-2,2.6830542E-1,4.1112494E-1,-4.8975393E-2,8.302472E-1,3.4732488E-1,1.2693441E-1,2.1247771E-1,1.0935216E-1,-5.190725E-1,6.900556E-1,-3.0349672E-1,-1.4490466E-1,3.555404E-2,8.3271086E-1,5.5885595E-1,2.5525326E-1,5.05681E-1,2.5439093E-1,-1.7955318E-2,-7.216553E-1,2.0885508E0,5.481915E-1,4.0715867E-1,-9.391427E-3,7.011945E-2,2.9758608E-1,1.8491746E-1,3.314146E-1,4.094904E-2,2.8198424E-1,-2.8006667E-1,-8.457116E-1,-9.684107E-2,-3.2031187E-1,-6.7604326E-2,-3.784921E-1,-4.4112152E-1,6.6155046E-2,1.0271116E0,6.0786974E-1,1.5654649E-1,2.675113E-1,4.869918E-2,1.228889E-1,1.9121991E-1,5.670542E-1,-3.591825E-2,1.20802835E-1,-2.9961029E-2,1.382486E-1,-4.4510895E-1,-6.699795E-2,8.9564675E-1,-1.834191E-1,5.055338E-1,5.899448E-2,1.5164725E-1,6.0954356E-1,2.0274583E-1,-1.2246718E-1,5.755446E-2,-1.16347544E-1,1.8604752E-1,6.054416E-2,7.3323645E-2,6.096455E-1,1.9888918E-1,1.0601373E-1,9.332533E-2,6.274953E-3,4.7356866E-2,4.2344514E-1,-6.7840205E-3,-2.0264426E-1,-1.9336599E-1,-3.6550033E-1,-1.5844792E-2,-2.0384467E-1,-1.3873588E-1,-7.8649655E-2,-7.743007E-2,2.0536615E-2,-2.9350266E-1,-1.0438595E-1,3.387886E-1,-2.4522446E-1,1.1403592E-1,6.532111E-3,3.7907067E-1,6.9971335E-1,1.9847254E-1,4.462447E-1],"categories":[],"categories_nodes":[],"categories_segments":[],"categories_sizes":[],"default_left":[0,0,0,0,0,0,0,0,0,0,0,0,0,0,0,0,0,0,0,0,0,0,0,0,0,0,0,0,0,0,0,0,0,0,0,0,0,0,0,0,0,0,0,0,0,0,0,0,0,0,0,0,0,0,0,0,0,0,0,0,0,0,0,0,0,0,0,0,0,0,0,0,0,0,0,0,0,0,0,0,0,0,0,0,0,0,0,0,0,0,0,0,0,0,0,0,0,0,0,0,0,0,0,0,0,0,0],"id":2,"left_children":[1,3,5,7,9,11,13,15,-1,17,19,21,23,25,27,29,31,33,35,37,39,41,43,45,-1,47,49,51,53,55,57,59,61,63,65,67,69,71,73,75,77,79,81,83,85,87,89,91,93,95,97,99,101,103,105,-1,-1,-1,-1,-1,-1,-1,-1,-1,-1,-1,-1,-1,-1,-1,-1,-1,-1,-1,-1,-1,-1,-1,-1,-1,-1,-1,-1,-1,-1,-1,-1,-1,-1,-1,-1,-1,-1,-1,-1,-1,-1,-1,-1,-1,-1,-1,-1,-1,-1,-1,-1],"loss_changes":[2.1486719E3,1.8154407E2,8.462593E2,1.5453857E1,2.8322757E2,4.0532852E1,2.5709497E2,1.37048645E1,0E0,4.7851935E2,1.7586823E2,7.4263763E0,1.174465E1,1.3700244E2,5.700789E1,3.8832245E0,2.7705933E1,2.6326715E2,2.2988571E2,1.05258606E2,1.3216379E2,1.327417E1,1.0004537E1,7.0291615E0,0E0,1.0448389E2,1.2016234E2,3.274228E1,3.4606018E0,5.630293E-1,7.02417E0,2.8815277E1,1.1642384E1,2.4976897E2,1.2035724E2,4.660266E1,1.5268985E2,1.3165936E2,1.0883409E2,2.7244348E2,8.334314E1,6.8395844E0,8.278099E0,2.9541035E0,3.0435486E1,3.2840533E0,5.1548576E-1,5.3474632E1,9.119165E1,7.4965004E1,6.890259E1,3.0510565E1,2.2992825E1,1.1343269E0,2.0429115E0,0E0,0E0,0E0,0E0,0E0,0E0,0E0,0E0,0E0,0E0,0E0,0E0,0E0,0E0,0E0,0E0,0E0,0E0,0E0,0E0,0E0,0E0,0E0,0E0,0E0,0E0,0E0,0E0,0E0,0E0,0E0,0E0,0E0,0E0,0E0,0E0,0E0,0E0,0E0,0E0,0E0,0E0,0E0,0E0,0E0,0E0,0E0,0E0,0E0,0E0,0E0,0E0],"parents":[2147483647,0,0,1,1,2,2,3,3,4,4,5,5,6,6,7,7,9,9,10,10,11,11,12,12,13,13,14,14,15,15,16,16,17,17,18,18,19,19,20,20,21,21,22,22,23,23,25,25,26,26,27,27,28,28,29,29,30,30,31,31,32,32,33,33,34,34,35,35,36,36,37,37,38,38,39,39,40,40,41,41,42,42,43,43,44,44,45,45,46,46,47,47,48,48,49,49,50,50,51,51,52,52,53,53,54,54],"right_children":[2,4,6,8,10,12,14,16,-1,18,20,22,24,26,28,30,32,34,36,38,40,42,44,46,-1,48,50,52,54,56,58,60,62,64,66,68,70,72,74,76,78,80,82,84,86,88,90,92,94,96,98,100,102,104,106,-1,-1,-1,-1,-1,-1,-1,-1,-1,-1,-1,-1,-1,-1,-1,-1,-1,-1,-1,-1,-1,-1,-1,-1,-1,-1,-1,-1,-1,-1,-1,-1,-1,-1,-1,-1,-1,-1,-1,-1,-1,-1,-1,-1,-1,-1,-1,-1,-1,-1,-1,-1],"split_conditions":[2E0,6.5856385E0,5.637353E1,7.748304E1,4.0399498E1,7.55902E0,4.868651E2,2.371924E1,5.5433017E-1,4.9075848E2,4.216396E1,5.145104E0,8.559237E0,4.5902565E1,5.4306747E1,5.829482E-1,5.145104E0,4.862558E2,4.9238858E2,4.9485983E2,4.9278717E2,2.7359968E1,5.0963406E1,5E0,6.900556E-1,8.952415E1,4.6934198E2,4.169175E1,3E0,2.5071216E-1,1.0889247E1,5.0963406E1,4.404696E1,4.7474866E2,4.8817868E2,4.008338E1,3.8091442E1,4.9332205E2,4.139982E1,4.8780502E2,4.479331E1,4.3794527E0,3.0636896E1,3.6865494E1,4E0,5.375706E1,7.7553678E0,5E0,5E0,4.3805862E2,4.732559E2,3.9929962E1,4.9002066E2,5.1093628E2,4E0,1.5654649E-1,2.675113E-1,4.869918E-2,1.228889E-1,1.9121991E-1,5.670542E-1,-3.591825E-2,1.20802835E-1,-2.9961029E-2,1.382486E-1,-4.4510895E-1,-6.699795E-2,8.9564675E-1,-1.834191E-1,5.055338E-1,5.899448E-2,1.5164725E-1,6.0954356E-1,2.0274583E-1,-1.2246718E-1,5.755446E-2,-1.16347544E-1,1.8604752E-1,6.054416E-2,7.3323645E-2,6.096455E-1,1.9888918E-1,1.0601373E-1,9.332533E-2,6.274953E-3,4.7356866E-2,4.2344514E-1,-6.7840205E-3,-2.0264426E-1,-1.9336599E-1,-3.6550033E-1,-1.5844792E-2,-2.0384467E-1,-1.3873588E-1,-7.8649655E-2,-7.743007E-2,2.0536615E-2,-2.9350266E-1,-1.0438595E-1,3.387886E-1,-2.4522446E-1,1.1403592E-1,6.532111E-3,3.7907067E-1,6.9971335E-1,1.9847254E-1,4.462447E-1],"split_indices":[3,0,2,2,0,0,2,2,0,2,0,0,0,0,0,0,0,2,2,2,2,2,2,3,0,2,2,0,3,0,2,2,2,2,2,0,0,2,0,2,0,0,2,2,3,2,0,3,3,2,2,0,2,0,3,0,0,0,0,0,0,0,0,0,0,0,0,0,0,0,0,0,0,0,0,0,0,0,0,0,0,0,0,0,0,0,0,0,0,0,0,0,0,0,0,0,0,0,0,0,0,0,0,0,0,0,0],"split_type":[0,0,0,0,0,0,0,0,0,0,0,0,0,0,0,0,0,0,0,0,0,0,0,0,0,0,0,0,0,0,0,0,0,0,0,0,0,0,0,0,0,0,0,0,0,0,0,0,0,0,0,0,0,0,0,0,0,0,0,0,0,0,0,0,0,0,0,0,0,0,0,0,0,0,0,0,0,0,0,0,0,0,0,0,0,0,0,0,0,0,0,0,0,0,0,0,0,0,0,0,0,0,0,0,0,0,0],"sum_hessian":[7.885393E4,3.4780824E4,4.407311E4,2.9516248E3,3.18292E4,5.00796E3,3.906515E4,2.937747E3,1.3877531E1,1.3266261E4,1.8562938E4,4.9144507E3,9.350906E1,3.6731035E4,2.334115E3,1.0605881E3,1.877159E3,1.2616309E4,6.499522E2,4.9304253E3,1.3632514E4,4.0672463E3,8.4720447E2,9.207218E1,1.4368833E0,3.007578E4,6.6552554E3,2.2416577E3,9.245731E1,4.379787E1,1.0167902E3,1.1694286E3,7.0773047E2,1.20611455E4,5.55163E2,1.1784019E2,5.32112E2,4.2220913E3,7.0833374E2,1.0228542E4,3.403971E3,3.3041562E3,7.630899E2,6.076633E2,2.3954115E2,5.424089E1,3.7831295E1,2.263572E3,2.7812207E4,5.001436E3,1.6538193E3,1.3441675E2,2.107241E3,4.767161E1,4.47857E1,1.9161568E1,2.4636303E1,2.8583624E2,7.30954E2,1.1365176E3,3.2911015E1,8.590346E1,6.21827E2,1.0428515E4,1.6326306E3,3.2486838E2,2.3029463E2,1.1137729E2,6.4628987E0,1.9022466E2,3.4188736E2,4.1199775E3,1.021138E2,2.5830054E2,4.500332E2,8.493522E3,1.7350201E3,1.5853892E3,1.8185819E3,3.3013284E3,2.8279579E0,2.1630385E2,5.467861E2,6.9580536E1,5.3808276E2,1.9881453E2,4.0726624E1,2.5592638E1,2.8648252E1,7.262855E0,3.0568438E1,1.9889128E3,2.7465927E2,2.2899135E4,4.9130723E3,2.4286846E3,2.5727512E3,4.098054E2,1.244014E3,1.5367146E1,1.1904961E2,3.8978168E2,1.7174592E3,4.503074E1,2.6408758E0,3.833119E1,6.4545116E0],"tree_param":{"num_deleted":"0","num_feature":"4","num_nodes":"107","size_leaf_vector":"1"}},{"base_weights":[-3.9093632E-2,7.369579E-2,-1.340484E-1,2.3477174E-1,6.0933277E-2,1.0597139E-1,-1.6752143E-1,2.2921017E-1,7.374888E-1,-3.796946E-3,1.08960696E-1,1.1282426E-1,-4.150422E-1,-1.7700055E-1,1.9519973E-1,1.8658997E-1,3.2679763E-1,-2.9781627E-2,4.474795E-1,6.362377E-1,9.246705E-2,1.3627312E-1,7.080163E-2,-4.7457665E-1,4.0243265E-1,-1.912619E-1,1.8850655E-3,-4.0883392E-1,3.8473007E-1,1.93675E-1,-5.4241892E-2,9.43732E-1,2.3262039E-1,3.9208212E-4,-4.1338587E-1,9.573381E-1,3.246337E-1,1.3112686E0,2.3982227E-1,-1.3162491E0,9.8484755E-2,3.0278975E-1,1.24718145E-1,1.3868842E-1,-4.602827E-2,-2.8870422E-1,-7.5779945E-1,-1.5961911E-1,-2.6721892E-1,3.3814582E-1,-5.9686497E-2,-1.9920385E-1,-1.0665318E0,1.0649301E0,3.783323E-2,6.3547604E-2,9.983682E-2,-3.670481E-2,3.3810627E-2,4.7816968E-1,1.8466848E-1,3.697894E-2,1.2940742E-1,-1.3362953E-2,2.0747553E-1,-4.1462085E-1,-1.2010682E-1,-6.358678E-1,4.0867886E-1,-1.2857145E-1,2.2324331E-1,2.3136234E-1,7.241086E-1,1.5333058E-1,-5.5617106E-1,-2.000294E-1,-5.339536E-1,2.4422184E-1,3.439915E-2,3.302907E-1,-2.3078E-2,3.5649966E-2,1.0269091E-1,-2.8228302E-2,7.551722E-2,-1.0058186E-1,2.1180904E-2,-2.5345895E-1,-4.334962E-2,-3.491529E-1,-2.2089867E-1,-9.00722E-2,-3.3391442E-2,-1.6959172E-1,-8.5955225E-2,-5.2761417E-3,6.759946E-1,-2.425754E-1,-2.082207E-3,-1.155386E-1,3.914936E-1,-4.744869E-1,-3.381564E-1,1.9793692E-1,7.799364E-1,-2.0247698E-1,2.177317E-1],"categories":[],"categories_nodes":[],"categories_segments":[],"categories_sizes":[],"default_left":[0,0,0,0,0,0,0,0,0,0,0,0,0,0,0,0,0,0,0,0,0,0,0,0,0,0,0,0,0,0,0,0,0,0,0,0,0,0,0,0,0,0,0,0,0,0,0,0,0,0,0,0,0,0,0,0,0,0,0,0,0,0,0,0,0,0,0,0,0,0,0,0,0,0,0,0,0,0,0,0,0,0,0,0,0,0,0,0,0,0,0,0,0,0,0,0,0,0,0,0,0,0,0,0,0,0,0],"id":3,"left_children":[1,3,5,7,9,11,13,15,-1,17,19,21,23,25,27,29,31,33,35,37,39,41,43,45,-1,47,49,51,53,55,57,59,61,63,65,67,69,71,73,75,77,79,81,83,85,87,89,91,93,95,97,99,101,103,105,-1,-1,-1,-1,-1,-1,-1,-1,-1,-1,-1,-1,-1,-1,-1,-1,-1,-1,-1,-1,-1,-1,-1,-1,-1,-1,-1,-1,-1,-1,-1,-1,-1,-1,-1,-1,-1,-1,-1,-1,-1,-1,-1,-1,-1,-1,-1,-1,-1,-1,-1,-1],"loss_changes":[8.2284326E2,7.2177765E1,3.3514667E2,2.2644547E1,1.01163414E2,1.827708E1,1.2590283E2,1.062854E1,0E0,1.6255286E2,1.6239981E2,4.957054E0,6.1037016E0,9.101575E1,1.06946724E2,3.0667763E0,4.509488E1,1.5171523E2,4.6961487E1,1.5126212E2,1.5369496E2,6.184902E0,1.4340567E1,3.17698E0,0E0,7.937329E1,5.4579666E1,3.0570427E1,1.6761589E2,3.3471985E0,2.78342E-1,1.1940727E1,8.608292E0,2.12908E2,6.7066635E1,2.556134E1,9.21477E1,7.551248E1,8.430841E1,5.054321E-1,1.1529088E2,3.947598E1,1.4194775E1,1.2001102E1,1.3534332E1,2.4543896E0,1.0801315E-1,1.1642926E2,7.960864E1,1.9379921E2,6.6369774E1,1.8290154E1,4.1936874E-1,1.20079956E2,1.3022041E2,0E0,0E0,0E0,0E0,0E0,0E0,0E0,0E0,0E0,0E0,0E0,0E0,0E0,0E0,0E0,0E0,0E0,0E0,0E0,0E0,0E0,0E0,0E0,0E0,0E0,0E0,0E0,0E0,0E0,0E0,0E0,0E0,0E0,0E0,0E0,0E0,0E0,0E0,0E0,0E0,0E0,0E0,0E0,0E0,0E0,0E0,0E0,0E0,0E0,0E0,0E0,0E0],"parents":[2147483647,0,0,1,1,2,2,3,3,4,4,5,5,6,6,7,7,9,9,10,10,11,11,12,12,13,13,14,14,15,15,16,16,17,17,18,18,19,19,20,20,21,21,22,22,23,23,25,25,26,26,27,27,28,28,29,29,30,30,31,31,32,32,33,33,34,34,35,35,36,36,37,37,38,38,39,39,40,40,41,41,42,42,43,43,44,44,45,45,46,46,47,47,48,48,49,49,50,50,51,51,52,52,53,53,54,54],"right_children":[2,4,6,8,10,12,14,16,-1,18,20,22,24,26,28,30,32,34,36,38,40,42,44,46,-1,48,50,52,54,56,58,60,62,64,66,68,70,72,74,76,78,80,82,84,86,88,90,92,94,96,98,100,102,104,106,-1,-1,-1,-1,-1,-1,-1,-1,-1,-1,-1,-1,-1,-1,-1,-1,-1,-1,-1,-1,-1,-1,-1,-1,-1,-1,-1,-1,-1,-1,-1,-1,-1,-1,-1,-1,-1,-1,-1,-1,-1,-1,-1,-1,-1,-1,-1,-1,-1,-1,-1,-1],"split_conditions":[2E0,5.9827156E0,5.637353E1,6.354821E1,4.0577477E1,7.7553678E0,5.082292E1,3.6865494E1,7.374888E-1,4.9075848E2,4.591535E2,5E0,8.559237E0,4.835919E2,3.8029785E2,4.3794527E0,4.3794527E0,4.835919E2,4.9238858E2,4.399012E1,4.5975784E2,5.829482E-1,1.200592E0,5E0,4.0243265E-1,4.489189E2,4.859644E2,5E0,4.5805566E2,2.371924E1,5.145104E0,4.0266193E1,4.404696E1,4.7873343E2,4.840612E2,3.8483128E1,4.9485983E2,4.56245E2,4.5728195E2,4.1191643E1,4.6304303E2,4E0,4E0,2.5071216E-1,9.4684E0,3E0,8.118324E0,4.1451473E1,4.56245E2,4.857815E2,4.868651E2,3.2732248E2,2.0842517E2,4.3909967E2,4.995105E2,6.3547604E-2,9.983682E-2,-3.670481E-2,3.3810627E-2,4.7816968E-1,1.8466848E-1,3.697894E-2,1.2940742E-1,-1.3362953E-2,2.0747553E-1,-4.1462085E-1,-1.2010682E-1,-6.358678E-1,4.0867886E-1,-1.2857145E-1,2.2324331E-1,2.3136234E-1,7.241086E-1,1.5333058E-1,-5.5617106E-1,-2.000294E-1,-5.339536E-1,2.4422184E-1,3.439915E-2,3.302907E-1,-2.3078E-2,3.5649966E-2,1.0269091E-1,-2.8228302E-2,7.551722E-2,-1.0058186E-1,2.1180904E-2,-2.5345895E-1,-4.334962E-2,-3.491529E-1,-2.2089867E-1,-9.00722E-2,-3.3391442E-2,-1.6959172E-1,-8.5955225E-2,-5.2761417E-3,6.759946E-1,-2.425754E-1,-2.082207E-3,-1.155386E-1,3.914936E-1,-4.744869E-1,-3.381564E-1,1.9793692E-1,7.799364E-1,-2.0247698E-1,2.177317E-1],"split_indices":[3,0,2,2,0,0,0,2,0,2,2,3,0,2,2,0,0,2,2,0,2,0,0,3,0,2,2,3,2,2,0,2,2,2,2,0,2,2,2,0,2,3,3,0,2,3,0,0,2,2,2,2,2,2,2,0,0,0,0,0,0,0,0,0,0,0,0,0,0,0,0,0,0,0,0,0,0,0,0,0,0,0,0,0,0,0,0,0,0,0,0,0,0,0,0,0,0,0,0,0,0,0,0,0,0,0,0],"split_type":[0,0,0,0,0,0,0,0,0,0,0,0,0,0,0,0,0,0,0,0,0,0,0,0,0,0,0,0,0,0,0,0,0,0,0,0,0,0,0,0,0,0,0,0,0,0,0,0,0,0,0,0,0,0,0,0,0,0,0,0,0,0,0,0,0,0,0,0,0,0,0,0,0,0,0,0,0,0,0,0,0,0,0,0,0,0,0,0,0,0,0,0,0,0,0,0,0,0,0,0,0,0,0,0,0,0,0],"sum_hessian":[7.6828266E4,3.5116418E4,4.1711848E4,2.5768271E3,3.2539592E4,5.1048853E3,3.6606965E4,2.5690894E3,7.737981E0,1.3860141E4,1.8679451E4,5.0393857E3,6.54994E1,3.5675164E4,9.317998E2,1.7901667E3,7.7892255E2,1.3106402E4,7.53738E2,5.654452E2,1.8114006E4,3.2330715E3,1.8063143E3,6.3505066E1,1.9943324E0,3.304096E4,2.634202E3,2.2226944E2,7.0953033E2,1.739197E3,5.0969635E1,1.019632E2,6.7695935E2,1.2151577E4,9.54825E2,1.4502675E2,6.0871124E2,2.0835046E2,3.5709473E2,7.612356E1,1.803788E4,2.0815689E2,3.0249146E3,1.1423423E3,6.6397217E2,3.9561283E1,2.3943785E1,2.3326514E4,9.714449E3,4.0699393E2,2.2272078E3,1.6953569E2,5.273375E1,2.3894125E2,4.705891E2,1.0743197E3,6.648774E2,4.038823E1,1.0581405E1,6.601555E1,3.594766E1,2.6709387E2,4.098655E2,1.1408533E4,7.430443E2,1.4543997E2,8.093851E2,2.9901912E0,1.4203654E2,1.6148344E2,4.4722778E2,8.5273E1,1.2307747E2,3.2890726E2,2.818748E1,2.3205836E0,7.380298E1,4.2824496E2,1.7609637E4,8.441284E1,1.2374404E2,2.3838418E3,6.410729E2,2.2060199E2,9.2174023E2,2.1539539E2,4.4857675E2,1.2718663E1,2.6842619E1,1.3268591E1,1.0675193E1,1.2532956E4,1.0793558E4,2.4295315E3,7.284918E3,3.2382404E2,8.316991E1,2.0090132E2,2.0263065E3,1.5824762E2,1.1288067E1,3.1384054E1,2.1349697E1,1.462692E2,9.2672066E1,2.26889E2,2.437001E2],"tree_param":{"num_deleted":"0","num_feature":"4","num_nodes":"107","size_leaf_vector":"1"}},{"base_weights":[-2.5768671E-2,4.3335453E-2,-8.641855E-2,1.6188703E-2,8.289898E-2,5.3448353E-2,-1.17227316E-1,5.8818974E-2,-4.6739277E-1,1.6316426E0,5.174621E-2,4.982583E-2,1.1748096E0,-1.984615E-1,-7.7006705E-2,3.6905676E-2,1.6665714E0,-2.5070867E-1,-9.273708E-1,1.1477187E0,2.0325027E0,-5.9825814E-1,7.749866E-2,5.927727E-2,-3.377404E-1,2.1697373E0,-8.867402E-1,-9.876613E-2,-3.7866423E-1,-1.14241384E-1,8.291149E-2,4.8954617E-2,-3.8127723E-1,-8.518838E-1,2.2616887E0,-6.4971256E-1,-4.8316E-2,-8.001423E-1,-1.1973921E0,7.8173876E-1,6.621619E-1,8.9517635E-1,1.5967603E-1,1.277958E0,-8.920283E-1,4.1358382E-1,2.70747E-2,3.3858895E-2,2.1872939E-1,-4.0372166E-1,-4.757336E-2,1.0299438E0,1.5168661E-1,-4.1708255E-1,-9.2069596E-2,7.889253E-2,-2.620734E-1,-4.9553296E-1,-2.6560655E-1,-1.3361937E-1,9.683248E-2,-1.7372659E-1,1.5797353E-1,1.4542582E-2,2.850309E-1,-3.4778002E-1,3.4093805E-2,2.8976664E-1,-4.4451723E-1,1.004209E0,5.667326E-1,-1.20288424E-1,-5.497307E-1,4.62243E-1,-1.5404168E-1,-4.1691038E-1,-6.000131E-2,-5.202914E-1,-2.4151318E-1,1.9536828E-1,5.8328724E-1,-9.6864365E-2,5.1375306E-1,1.954755E-1,6.7896587E-1,-1.3932599E-1,-5.540914E-1,1.2489156E-1,6.215659E-1,6.313145E-3,3.834531E-1,1.7444296E-2,-2.37852E-1,1.10757664E-1,-1.0690933E-1,-2.0799819E-1,1.772792E-2,2.7391946E-1,-2.9436547E-1,-2.6035542E-2,1.14335254E-1,-7.610005E-2,-1.425122E-1,-1.6895616E-1,-3.0026072E-1,-2.0622623E-1,-2.2456413E-3,-5.1403504E-2,-4.300576E-1,1.1695482E-1,-5.7086207E-2,-3.554873E-1,-3.7039198E-2,1.977853E-1,2.2582991E-2],"categories":[],"categories_nodes":[],"categories_segments":[],"categories_sizes":[],"default_left":[0,0,0,0,0,0,0,0,0,0,0,0,0,0,0,0,0,0,0,0,0,0,0,0,0,0,0,0,0,0,0,0,0,0,0,0,0,0,0,0,0,0,0,0,0,0,0,0,0,0,0,0,0,0,0,0,0,0,0,0,0,0,0,0,0,0,0,0,0,0,0,0,0,0,0,0,0,0,0,0,0,0,0,0,0,0,0,0,0,0,0,0,0,0,0,0,0,0,0,0,0,0,0,0,0,0,0,0,0,0,0,0,0,0,0],"id":4,"left_children":[1,3,5,7,9,11,13,15,17,19,21,23,25,27,29,31,33,35,37,39,41,43,45,47,49,51,53,55,57,59,61,63,65,67,69,71,73,75,77,-1,79,-1,81,83,85,87,89,91,93,95,97,-1,-1,-1,-1,99,101,103,105,107,109,111,113,-1,-1,-1,-1,-1,-1,-1,-1,-1,-1,-1,-1,-1,-1,-1,-1,-1,-1,-1,-1,-1,-1,-1,-1,-1,-1,-1,-1,-1,-1,-1,-1,-1,-1,-1,-1,-1,-1,-1,-1,-1,-1,-1,-1,-1,-1,-1,-1,-1,-1,-1,-1],"loss_changes":[3.1583176E2,3.782959E1,1.7294525E2,4.3070285E2,6.9147284E2,2.9372429E1,1.0744266E2,6.763616E2,1.6846652E2,5.2487366E1,2.3526382E2,2.6477812E1,4.9684917E1,1.956199E2,1.3100395E2,9.546311E1,3.888272E2,9.2994255E1,1.7649445E1,4.9751923E1,5.8612183E1,2.9636032E2,2.2906252E2,2.8573511E1,3.2757034E0,1.0626686E1,6.088762E-1,2.0348904E2,5.111841E1,7.300162E1,8.007609E1,1.5391302E2,1.2091423E2,2.1277863E1,4.0396973E1,9.760252E1,3.1076953E2,5.8274643E1,9.73204E0,0E0,1.0749317E1,0E0,7.644985E0,2.3312523E1,1.2386206E2,2.0332443E2,1.2363446E2,3.731054E1,2.7476803E1,7.320614E0,1.7148514E1,0E0,0E0,0E0,0E0,1.00124916E2,2.4658386E1,3.525067E1,1.2826227E2,7.850882E1,7.036016E1,5.449124E1,1.09813286E2,0E0,0E0,0E0,0E0,0E0,0E0,0E0,0E0,0E0,0E0,0E0,0E0,0E0,0E0,0E0,0E0,0E0,0E0,0E0,0E0,0E0,0E0,0E0,0E0,0E0,0E0,0E0,0E0,0E0,0E0,0E0,0E0,0E0,0E0,0E0,0E0,0E0,0E0,0E0,0E0,0E0,0E0,0E0,0E0,0E0,0E0,0E0,0E0,0E0,0E0,0E0,0E0],"parents":[2147483647,0,0,1,1,2,2,3,3,4,4,5,5,6,6,7,7,8,8,9,9,10,10,11,11,12,12,13,13,14,14,15,15,16,16,17,17,18,18,19,19,20,20,21,21,22,22,23,23,24,24,25,25,26,26,27,27,28,28,29,29,30,30,31,31,32,32,33,33,34,34,35,35,36,36,37,37,38,38,40,40,42,42,43,43,44,44,45,45,46,46,47,47,48,48,49,49,50,50,55,55,56,56,57,57,58,58,59,59,60,60,61,61,62,62],"right_children":[2,4,6,8,10,12,14,16,18,20,22,24,26,28,30,32,34,36,38,40,42,44,46,48,50,52,54,56,58,60,62,64,66,68,70,72,74,76,78,-1,80,-1,82,84,86,88,90,92,94,96,98,-1,-1,-1,-1,100,102,104,106,108,110,112,114,-1,-1,-1,-1,-1,-1,-1,-1,-1,-1,-1,-1,-1,-1,-1,-1,-1,-1,-1,-1,-1,-1,-1,-1,-1,-1,-1,-1,-1,-1,-1,-1,-1,-1,-1,-1,-1,-1,-1,-1,-1,-1,-1,-1,-1,-1,-1,-1,-1,-1,-1,-1],"split_conditions":[2E0,4.7926028E2,1.0498003E1,4.7643143E2,4.7954468E2,1.0207544E2,4.1451473E1,4.760488E2,4.3649036E1,4.179988E1,4.8035883E2,8.952415E1,1.0871442E2,4E0,5E0,4.7073975E1,3.944634E1,4.7710165E2,4.62034E1,4.017201E1,4.3525177E1,3.96173E1,4.8248697E2,8.316033E0,9.6355354E1,1.029624E1,1.029624E1,3.5289337E1,3.3417358E2,4.9195337E2,3.759118E2,4.6005627E1,4.901315E1,3.762369E1,4.5171757E1,4.198451E1,4.7756573E2,4.5496994E1,4.8548077E1,7.8173876E-1,4.1580273E1,8.9517635E-1,4.6525867E1,3.762369E1,4.800692E2,4.556218E1,5.2245758E1,7.304633E1,5E0,3E0,9.905836E1,1.0299438E0,1.5168661E-1,-4.1708255E-1,-9.2069596E-2,2.0835901E1,3E0,3.3416294E1,5E0,4.9075848E2,4.771883E1,4.1834206E1,3.9941055E2,1.4542582E-2,2.850309E-1,-3.4778002E-1,3.4093805E-2,2.8976664E-1,-4.4451723E-1,1.004209E0,5.667326E-1,-1.20288424E-1,-5.497307E-1,4.62243E-1,-1.5404168E-1,-4.1691038E-1,-6.000131E-2,-5.202914E-1,-2.4151318E-1,1.9536828E-1,5.8328724E-1,-9.6864365E-2,5.1375306E-1,1.954755E-1,6.7896587E-1,-1.3932599E-1,-5.540914E-1,1.2489156E-1,6.215659E-1,6.313145E-3,3.834531E-1,1.7444296E-2,-2.37852E-1,1.10757664E-1,-1.0690933E-1,-2.0799819E-1,1.772792E-2,2.7391946E-1,-2.9436547E-1,-2.6035542E-2,1.14335254E-1,-7.610005E-2,-1.425122E-1,-1.6895616E-1,-3.0026072E-1,-2.0622623E-1,-2.2456413E-3,-5.1403504E-2,-4.300576E-1,1.1695482E-1,-5.7086207E-2,-3.554873E-1,-3.7039198E-2,1.977853E-1,2.2582991E-2],"split_indices":[3,2,0,2,2,2,0,2,0,0,2,2,2,3,3,0,0,2,0,0,0,0,2,0,2,0,0,0,2,2,2,0,0,0,0,0,2,0,0,0,0,0,0,0,2,0,0,2,3,3,2,0,0,0,0,0,3,0,3,2,0,0,2,0,0,0,0,0,0,0,0,0,0,0,0,0,0,0,0,0,0,0,0,0,0,0,0,0,0,0,0,0,0,0,0,0,0,0,0,0,0,0,0,0,0,0,0,0,0,0,0,0,0,0,0],"split_type":[0,0,0,0,0,0,0,0,0,0,0,0,0,0,0,0,0,0,0,0,0,0,0,0,0,0,0,0,0,0,0,0,0,0,0,0,0,0,0,0,0,0,0,0,0,0,0,0,0,0,0,0,0,0,0,0,0,0,0,0,0,0,0,0,0,0,0,0,0,0,0,0,0,0,0,0,0,0,0,0,0,0,0,0,0,0,0,0,0,0,0,0,0,0,0,0,0,0,0,0,0,0,0,0,0,0,0,0,0,0,0,0,0,0,0],"sum_hessian":[7.535481E4,3.5222633E4,4.0132184E4,2.0890146E4,1.4332487E4,7.244153E3,3.288803E4,1.9198568E4,1.6915771E3,2.815984E2,1.4050889E4,7.221867E3,2.2285597E1,1.0889801E4,2.199823E4,1.8941424E4,2.5714432E2,1.1509423E3,5.4063495E2,1.2933118E2,1.5226721E2,5.3461884E2,1.35162705E4,7.0507695E3,1.7109761E2,1.4995916E1,7.2896814E0,7.012019E3,3.8777817E3,1.7843832E4,4.154397E3,1.8411814E4,5.296095E2,4.9067196E1,2.0807713E2,3.865917E2,7.6435046E2,3.7017795E2,1.7045702E2,4.7461338E1,8.1869835E1,1.370398E2,1.5227415E1,7.19225E1,4.6269635E2,1.7623923E3,1.1753878E4,6.082385E3,9.683849E2,1.3908063E2,3.2016983E1,1.1871767E1,3.1241493E0,5.415192E0,1.8744895E0,3.3586877E3,3.6533313E3,1.9050902E3,1.9726915E3,1.6343736E4,1.5000966E3,9.398214E2,3.2145757E3,1.8069834E4,3.419815E2,2.5837445E2,2.7123502E2,6.68051E0,4.2386684E1,1.5921297E2,4.886417E1,2.6187936E2,1.2471235E2,1.6654991E2,5.978006E2,2.692843E2,1.0089366E2,1.441687E2,2.6288322E1,6.852716E1,1.3342671E1,1.1797187E1,3.4302282E0,2.5710144E1,4.6212357E1,2.2088963E2,2.418067E2,1.6197035E3,1.4268874E2,1.1614115E4,1.3976302E2,5.9903667E3,9.2017914E1,8.652608E2,1.0312409E2,1.1029639E2,2.8784235E1,1.5514837E1,1.6502146E1,1.9810603E3,1.3776274E3,2.074646E3,1.5786854E3,1.4826658E3,4.224244E2,1.0052512E3,9.674403E2,1.6256631E4,8.710468E1,8.257646E2,6.7433203E2,9.475805E1,8.4506335E2,7.441411E2,2.4704346E3],"tree_param":{"num_deleted":"0","num_feature":"4","num_nodes":"115","size_leaf_vector":"1"}},{"base_weights":[-1.7978132E-2,1.0984E-2,-7.625073E-2,2.9642513E-2,-5.155914E-2,-9.147056E-2,2.203609E-1,1.9504787E-2,1.5409078E-1,-1.5761979E-1,7.42513E-2,4.6975303E-2,-1.1655021E-1,-1.4956991E-1,4.4733906E-1,2.5002806E-2,-5.8133525E-1,3.5352618E-1,-9.39853E-3,-4.5475283E-1,-6.720454E-2,2.3529066E-1,-1.1437941E-1,5.131944E-2,-2.6951444E-1,-2.0102106E-1,-7.15455E-2,-3.993454E-1,1.7420243E-2,1.0377833E0,3.4644642E-1,2.055853E-2,4.852337E-1,-6.754701E-1,5.4940426E-1,1.700817E-1,8.5329723E-1,5.539398E-1,-1.14425056E-1,9.5160484E-1,-4.7246417E-1,3.5000646E-1,-1.6993447E-1,2.0359023E0,2.1207082E-1,4.09116E-1,-2.204068E-1,4.3501038E-2,5.1321995E-1,-4.611735E-1,5.661704E-1,-1.3277024E-1,-2.887041E-1,-1.3877954E-2,-1.8160592E-1,-2.2129028E-1,-6.6891485E-1,7.71004E-1,-2.5589094E-1,7.592868E-1,2.1675732E0,-3.9501294E-1,3.8509282E-1,1.32278595E-2,-5.2438922E-2,-3.9838355E-2,5.7536876E-1,-7.444738E-2,-4.181336E-1,1.3821043E-1,-1.14588656E-1,1.6466497E-1,8.4714025E-1,1.0473676E-1,4.4619355E-1,-3.1303605E-1,-1.920512E-2,-1.360187E-1,-2.983478E-1,3.1570858E-1,1.2171342E-3,-9.1352746E-2,1.179073E-1,2.1322663E-1,1.8053744E0,-2.3963161E-1,1.23746686E-1,2.6053367E-2,1.8084706E0,-2.0980814E-1,2.024591E-2,-2.6055066E-2,2.1836746E-2,1.2508727E-2,3.7032706E-1,-2.2734788E-1,1.632042E-1,9.5677274E-1,-1.9038828E-1,-6.503357E-2,7.2403306E-1,-3.3901998E-1,-1.0547507E-1,-1.7273134E-2,5.76293E-2,-1.4471401E-1,-4.7146857E-2,-2.3842402E-1,2.725949E-2,8.402584E-2,-3.29496E-1,6.7789817E-1,2.420132E-1,-4.8618134E-2,-2.770171E-1,5.0317717E-1,-6.339725E-2,4.6549663E-1,9.6173286E-1,-3.5114464E-1,1.672616E-1,8.6810774E-1,1.2985831E-1],"categories":[],"categories_nodes":[],"categories_segments":[],"categories_sizes":[],"default_left":[0,0,0,0,0,0,0,0,0,0,0,0,0,0,0,0,0,0,0,0,0,0,0,0,0,0,0,0,0,0,0,0,0,0,0,0,0,0,0,0,0,0,0,0,0,0,0,0,0,0,0,0,0,0,0,0,0,0,0,0,0,0,0,0,0,0,0,0,0,0,0,0,0,0,0,0,0,0,0,0,0,0,0,0,0,0,0,0,0,0,0,0,0,0,0,0,0,0,0,0,0,0,0,0,0,0,0,0,0,0,0,0,0,0,0,0,0,0,0,0,0,0,0],"id":5,"left_children":[1,3,5,7,9,11,13,15,17,19,21,23,25,27,29,31,33,35,37,39,41,43,45,47,49,51,53,55,57,59,61,63,65,67,-1,69,71,73,75,-1,77,79,81,83,85,87,89,91,93,95,97,99,101,103,105,107,109,111,113,115,117,119,121,-1,-1,-1,-1,-1,-1,-1,-1,-1,-1,-1,-1,-1,-1,-1,-1,-1,-1,-1,-1,-1,-1,-1,-1,-1,-1,-1,-1,-1,-1,-1,-1,-1,-1,-1,-1,-1,-1,-1,-1,-1,-1,-1,-1,-1,-1,-1,-1,-1,-1,-1,-1,-1,-1,-1,-1,-1,-1,-1,-1],"loss_changes":[1.2544005E2,5.794142E1,1.1141881E2,4.8244232E1,1.5224796E2,8.150676E1,1.0122067E2,1.168329E2,9.392233E1,1.6628476E2,1.5857307E2,4.9643216E0,7.553464E1,1.9145285E1,4.4131653E1,7.166685E1,5.9941963E1,1.1881981E2,9.377276E1,7.3604065E1,2.0354095E2,1.17300415E2,1.3354596E2,1.2807879E1,8.0954485E0,4.129712E1,8.2297035E1,8.678432E0,5.7032936E1,3.2490868E1,1.8472809E1,6.586053E1,1.8695499E2,5.5303986E1,0E0,7.6229485E1,1.935658E2,4.0559715E1,5.923748E1,0E0,5.1734222E1,1.4301108E2,1.0355553E2,1.3064268E2,2.1967847E2,5.730087E2,1.6487643E2,4.2143283E0,1.1711733E1,3.9904718E0,1.9355215E1,2.253743E2,4.2029922E1,3.939556E1,5.1156296E1,1.2215385E1,1.0060307E1,1.0273022E1,1.1839312E1,4.073746E1,2.1730118E0,1.2997221E1,6.492469E1,0E0,0E0,0E0,0E0,0E0,0E0,0E0,0E0,0E0,0E0,0E0,0E0,0E0,0E0,0E0,0E0,0E0,0E0,0E0,0E0,0E0,0E0,0E0,0E0,0E0,0E0,0E0,0E0,0E0,0E0,0E0,0E0,0E0,0E0,0E0,0E0,0E0,0E0,0E0,0E0,0E0,0E0,0E0,0E0,0E0,0E0,0E0,0E0,0E0,0E0,0E0,0E0,0E0,0E0,0E0,0E0,0E0,0E0,0E0,0E0],"parents":[2147483647,0,0,1,1,2,2,3,3,4,4,5,5,6,6,7,7,8,8,9,9,10,10,11,11,12,12,13,13,14,14,15,15,16,16,17,17,18,18,19,19,20,20,21,21,22,22,23,23,24,24,25,25,26,26,27,27,28,28,29,29,30,30,31,31,32,32,33,33,35,35,36,36,37,37,38,38,40,40,41,41,42,42,43,43,44,44,45,45,46,46,47,47,48,48,49,49,50,50,51,51,52,52,53,53,54,54,55,55,56,56,57,57,58,58,59,59,60,60,61,61,62,62],"right_children":[2,4,6,8,10,12,14,16,18,20,22,24,26,28,30,32,34,36,38,40,42,44,46,48,50,52,54,56,58,60,62,64,66,68,-1,70,72,74,76,-1,78,80,82,84,86,88,90,92,94,96,98,100,102,104,106,108,110,112,114,116,118,120,122,-1,-1,-1,-1,-1,-1,-1,-1,-1,-1,-1,-1,-1,-1,-1,-1,-1,-1,-1,-1,-1,-1,-1,-1,-1,-1,-1,-1,-1,-1,-1,-1,-1,-1,-1,-1,-1,-1,-1,-1,-1,-1,-1,-1,-1,-1,-1,-1,-1,-1,-1,-1,-1,-1,-1,-1,-1,-1,-1,-1],"split_conditions":[3E0,4.421286E1,4.901315E1,4.9332205E2,4.62034E1,7.347946E0,4.344738E2,4.9238858E2,4.9703323E2,4.6895273E2,4.8096123E1,5.8489956E1,4.135792E1,3.8313422E2,4.497322E2,4.9135355E2,2E0,4.960031E2,3.9772137E1,2.9356976E2,4.7643143E2,4.344738E2,4.6406705E2,5.375706E1,4E0,3.706581E1,4.4523685E2,5E0,4.0100415E2,4.4816388E2,4.5239786E2,4.853951E2,4.337248E1,4.2014725E1,5.4940426E-1,4.954407E2,4.3315678E1,3.921931E1,4.9774704E2,9.5160484E-1,4.6363E2,4.479331E1,4.995105E2,4.2772177E2,4.6458142E2,4.6253445E2,4.8902133E2,2.5071216E-1,6.778057E0,6.354821E1,6.0014458E1,3.9171835E2,3.2165726E2,4.3681506E2,4.5391794E2,5.1093628E2,5.0315437E1,3.8941882E2,4.3244165E2,4.4523685E2,5.4306747E1,5E0,4.5313437E2,1.32278595E-2,-5.2438922E-2,-3.9838355E-2,5.7536876E-1,-7.444738E-2,-4.181336E-1,1.3821043E-1,-1.14588656E-1,1.6466497E-1,8.4714025E-1,1.0473676E-1,4.4619355E-1,-3.1303605E-1,-1.920512E-2,-1.360187E-1,-2.983478E-1,3.1570858E-1,1.2171342E-3,-9.1352746E-2,1.179073E-1,2.1322663E-1,1.8053744E0,-2.3963161E-1,1.23746686E-1,2.6053367E-2,1.8084706E0,-2.0980814E-1,2.024591E-2,-2.6055066E-2,2.1836746E-2,1.2508727E-2,3.7032706E-1,-2.2734788E-1,1.632042E-1,9.5677274E-1,-1.9038828E-1,-6.503357E-2,7.2403306E-1,-3.3901998E-1,-1.0547507E-1,-1.7273134E-2,5.76293E-2,-1.4471401E-1,-4.7146857E-2,-2.3842402E-1,2.725949E-2,8.402584E-2,-3.29496E-1,6.7789817E-1,2.420132E-1,-4.8618134E-2,-2.770171E-1,5.0317717E-1,-6.339725E-2,4.6549663E-1,9.6173286E-1,-3.5114464E-1,1.672616E-1,8.6810774E-1,1.2985831E-1],"split_indices":[3,0,0,2,0,0,2,2,2,2,0,2,0,2,2,2,3,2,0,2,2,2,2,2,3,0,2,3,2,2,2,2,0,0,0,2,0,0,2,0,2,0,2,2,2,2,2,0,0,2,2,2,2,2,2,0,0,2,2,2,0,3,2,0,0,0,0,0,0,0,0,0,0,0,0,0,0,0,0,0,0,0,0,0,0,0,0,0,0,0,0,0,0,0,0,0,0,0,0,0,0,0,0,0,0,0,0,0,0,0,0,0,0,0,0,0,0,0,0,0,0,0,0],"split_type":[0,0,0,0,0,0,0,0,0,0,0,0,0,0,0,0,0,0,0,0,0,0,0,0,0,0,0,0,0,0,0,0,0,0,0,0,0,0,0,0,0,0,0,0,0,0,0,0,0,0,0,0,0,0,0,0,0,0,0,0,0,0,0,0,0,0,0,0,0,0,0,0,0,0,0,0,0,0,0,0,0,0,0,0,0,0,0,0,0,0,0,0,0,0,0,0,0,0,0,0,0,0,0,0,0,0,0,0,0,0,0,0,0,0,0,0,0,0,0,0,0,0,0],"sum_hessian":[7.43246E4,4.9649207E4,2.4675398E4,3.824122E4,1.1407988E4,2.3471701E4,1.203696E3,3.5361758E4,2.8794602E3,6.1896987E3,5.218289E3,3.5996833E3,1.987202E4,4.5784216E2,7.458538E2,3.5042062E4,3.1969583E2,1.2966075E3,1.5828525E3,1.4431202E3,4.7465786E3,2.8148906E3,2.4033987E3,3.5517698E3,4.7913742E1,6.9061562E3,1.2965862E4,1.8289124E2,2.7495093E2,1.0749355E2,6.383603E2,3.4707945E4,3.341168E2,3.0563266E2,1.4063169E1,9.494468E2,3.4716077E2,2.4805702E2,1.3347955E3,8.135537E0,1.4349846E3,9.3735333E2,3.809225E3,3.4733818E1,2.7801567E3,4.0431097E2,1.9990876E3,3.493727E3,5.8042725E1,3.9339603E1,8.574141E0,3.8848088E3,3.0213474E3,8.508731E3,4.457131E3,1.11237755E2,7.165348E1,7.269436E1,2.0225658E2,8.757751E1,1.9916048E1,3.1167507E1,6.071928E2,3.2063584E4,2.64436E3,2.0762424E2,1.2649256E2,1.3221184E2,1.7342082E2,6.8605334E2,2.6339346E2,2.5828308E2,8.8877686E1,1.641418E2,8.391521E1,1.19702324E2,1.2150933E3,9.682697E2,4.6671497E2,4.130926E2,5.2426074E2,3.3841025E3,4.2512262E2,2.2376015E1,1.2357802E1,2.9720654E2,2.4829502E3,3.7403778E2,3.0273214E1,9.415916E2,1.0574961E3,3.2318076E2,3.1705461E3,2.726765E1,3.0775074E1,3.532862E1,4.0109797E0,2.6450253E0,5.929116E0,3.8269988E3,5.7810165E1,1.2804527E2,2.8933022E3,7.17776E3,1.3309718E3,1.1634818E3,3.293649E3,4.8011898E1,6.3225853E1,1.0677568E1,6.0975918E1,9.668957E0,6.3025402E1,1.5564676E2,4.6609814E1,5.6505707E1,3.10718E1,4.92975E0,1.4986298E1,1.9505701E1,1.1661807E1,1.8743362E1,5.884494E2],"tree_param":{"num_deleted":"0","num_feature":"4","num_nodes":"123","size_leaf_vector":"1"}},{"base_weights":[-1.3128571E-2,1.7499499E-2,-4.104376E-2,9.7648725E-2,5.236365E-3,2.4356801E-2,-5.6305822E-2,6.941514E-2,4.647439E-1,-5.445147E-2,4.2842302E-2,6.316304E-3,1.1465668E-1,-7.4788794E-2,3.81188E-4,1.2438061E-1,1.3362943E-3,1.0926325E0,3.2674953E-1,-7.471608E-2,1.6491383E-1,1.3904753E-1,9.123948E-3,4.1023396E-2,-9.089002E-2,1.6992839E-1,-4.2269662E-1,-4.4812437E-2,-1.3004775E-1,-7.2618596E-2,8.5580826E-2,8.436777E-2,2.4324444E-1,-8.91007E-1,1.3907149E-2,1.1665273E0,-2.3067974E-1,2.666015E-1,1.3751115E0,-5.967723E-2,-1.0886819E0,9.674658E-1,8.2504965E-2,1.9054605E-1,-1.5359049E-1,2.3471506E-1,-5.4745716E-3,2.0784955E-2,8.285359E-2,-8.491196E-2,-3.251684E-1,4.084644E-1,1.0696634E-1,4.385696E-1,-4.6807596E-1,-9.827216E-3,-1.6174321E-1,-2.6119336E-1,-4.7869696E-3,-1.9867802E-1,1.4555229E-4,4.030881E-1,2.228555E-3,4.132546E-2,6.154399E-3,4.4642612E-1,7.742105E-2,-2.4904333E-1,-4.4979277E-1,-6.1316127E-3,1.21450916E-1,3.7972787E-1,7.135367E-1,1.7150493E-1,-1.3472915E-1,8.5370827E-1,-2.0367907E-1,-1.1318808E-2,-1.1099692E-1,-4.4749537E-1,5.340315E-1,-3.449361E-1,4.972085E-1,1.9938572E-1,-2.4520537E-2,6.786321E-2,5.5401677E-1,1.6673146E-2,-2.2110708E-1,1.431537E-1,-1.644981E-1,-3.4322155E-1,6.8435757E-3,2.4195788E-2,-1.3938653E-2,1.617199E-1,1.6925061E-2,-4.7634877E-2,5.7659326E-3,-3.173661E-1,1.8843763E-1,-3.6883567E-2,1.1223868E-1,-2.9868516E-1,-1.453041E-1,-1.7583536E-2,3.098167E-1,-1.3356261E-1,-3.0138118E-3,-8.117337E-2,-2.0831752E-1,-1.5592112E-1,3.953811E-2,-1.5847942E-2,-1.6478848E-1,-1.289141E-1,1.3825673E-2,9.143864E-1,1.3918573E-1,-6.47087E-2,6.357544E-2],"categories":[],"categories_nodes":[],"categories_segments":[],"categories_sizes":[],"default_left":[0,0,0,0,0,0,0,0,0,0,0,0,0,0,0,0,0,0,0,0,0,0,0,0,0,0,0,0,0,0,0,0,0,0,0,0,0,0,0,0,0,0,0,0,0,0,0,0,0,0,0,0,0,0,0,0,0,0,0,0,0,0,0,0,0,0,0,0,0,0,0,0,0,0,0,0,0,0,0,0,0,0,0,0,0,0,0,0,0,0,0,0,0,0,0,0,0,0,0,0,0,0,0,0,0,0,0,0,0,0,0,0,0,0,0,0,0,0,0,0,0],"id":6,"left_children":[1,3,5,7,9,11,13,15,17,19,21,23,25,27,29,31,33,35,37,39,41,43,45,47,49,51,53,55,57,59,61,63,65,67,69,71,-1,73,75,77,79,81,83,85,87,89,91,93,95,97,-1,99,101,-1,103,105,107,109,111,113,115,117,119,-1,-1,-1,-1,-1,-1,-1,-1,-1,-1,-1,-1,-1,-1,-1,-1,-1,-1,-1,-1,-1,-1,-1,-1,-1,-1,-1,-1,-1,-1,-1,-1,-1,-1,-1,-1,-1,-1,-1,-1,-1,-1,-1,-1,-1,-1,-1,-1,-1,-1,-1,-1,-1,-1,-1,-1,-1,-1],"loss_changes":[6.297504E1,3.4519943E1,3.8464462E1,4.827212E1,6.8378105E1,1.1877941E1,3.2735466E1,1.6198608E1,2.8467651E1,5.235476E1,6.0621937E1,2.0511438E1,3.6132362E1,3.902281E1,4.7792767E1,1.1370899E1,2.1716015E1,8.014046E0,1.6921165E1,1.6431177E2,6.57963E1,7.312152E1,4.5578617E1,3.7909365E0,6.835512E0,1.6501179E1,8.339228E0,6.249294E1,1.361127E2,3.796026E1,9.383963E1,2.342307E0,2.592337E1,9.851265E-1,1.6173662E1,5.992584E0,0E0,2.5637333E1,2.2022797E1,7.2601944E1,1.2966354E1,4.7792473E1,5.4128918E1,1.0267909E2,5.6640415E1,6.707276E1,2.5030536E2,6.6739826E0,1.9014877E1,5.39087E0,0E0,1.7663803E1,3.021396E1,0E0,2.9685974E0,3.1486E2,9.339839E1,6.111438E1,1.6917471E2,5.136661E1,2.9141037E1,7.572936E1,7.2232445E1,0E0,0E0,0E0,0E0,0E0,0E0,0E0,0E0,0E0,0E0,0E0,0E0,0E0,0E0,0E0,0E0,0E0,0E0,0E0,0E0,0E0,0E0,0E0,0E0,0E0,0E0,0E0,0E0,0E0,0E0,0E0,0E0,0E0,0E0,0E0,0E0,0E0,0E0,0E0,0E0,0E0,0E0,0E0,0E0,0E0,0E0,0E0,0E0,0E0,0E0,0E0,0E0,0E0,0E0,0E0,0E0,0E0,0E0],"parents":[2147483647,0,0,1,1,2,2,3,3,4,4,5,5,6,6,7,7,8,8,9,9,10,10,11,11,12,12,13,13,14,14,15,15,16,16,17,17,18,18,19,19,20,20,21,21,22,22,23,23,24,24,25,25,26,26,27,27,28,28,29,29,30,30,31,31,32,32,33,33,34,34,35,35,37,37,38,38,39,39,40,40,41,41,42,42,43,43,44,44,45,45,46,46,47,47,48,48,49,49,51,51,52,52,54,54,55,55,56,56,57,57,58,58,59,59,60,60,61,61,62,62],"right_children":[2,4,6,8,10,12,14,16,18,20,22,24,26,28,30,32,34,36,38,40,42,44,46,48,50,52,54,56,58,60,62,64,66,68,70,72,-1,74,76,78,80,82,84,86,88,90,92,94,96,98,-1,100,102,-1,104,106,108,110,112,114,116,118,120,-1,-1,-1,-1,-1,-1,-1,-1,-1,-1,-1,-1,-1,-1,-1,-1,-1,-1,-1,-1,-1,-1,-1,-1,-1,-1,-1,-1,-1,-1,-1,-1,-1,-1,-1,-1,-1,-1,-1,-1,-1,-1,-1,-1,-1,-1,-1,-1,-1,-1,-1,-1,-1,-1,-1,-1,-1,-1],"split_conditions":[2E0,8.559237E0,8.952415E1,7.748304E1,4.0577477E1,6.938741E1,4.5783703E1,5.516982E0,7.347946E0,4.8817868E2,4.216396E1,4.404696E1,5E0,4E0,4E0,3.6865494E1,4.404696E1,8.3789444E1,9.156701E1,4.868651E2,4.8850058E2,4.9410956E2,4.6304303E2,2.068443E1,1.029624E1,7.304633E1,8.316033E0,4.6660492E2,5E0,4.6525867E1,4.6240818E1,3.7099802E0,4.043263E0,5.9827156E0,8.118324E0,8.1337715E1,-2.3067974E-1,8.7877106E1,9.905836E1,3.9929962E1,4.017201E1,3.9696396E1,3.8091442E1,4.9332205E2,4.172761E1,5.1093628E2,4.6458142E2,1.44115E0,2.371924E1,4E0,-3.251684E-1,7.152328E0,9.580533E0,4.385696E-1,7.304633E1,4.6304303E2,4.7643143E2,4.4248325E2,3.3417358E2,3E0,4.344738E2,3.3417358E2,4.3909967E2,4.132546E-2,6.154399E-3,4.4642612E-1,7.742105E-2,-2.4904333E-1,-4.4979277E-1,-6.1316127E-3,1.21450916E-1,3.7972787E-1,7.135367E-1,1.7150493E-1,-1.3472915E-1,8.5370827E-1,-2.0367907E-1,-1.1318808E-2,-1.1099692E-1,-4.4749537E-1,5.340315E-1,-3.449361E-1,4.972085E-1,1.9938572E-1,-2.4520537E-2,6.786321E-2,5.5401677E-1,1.6673146E-2,-2.2110708E-1,1.431537E-1,-1.644981E-1,-3.4322155E-1,6.8435757E-3,2.4195788E-2,-1.3938653E-2,1.617199E-1,1.6925061E-2,-4.7634877E-2,5.7659326E-3,-3.173661E-1,1.8843763E-1,-3.6883567E-2,1.1223868E-1,-2.9868516E-1,-1.453041E-1,-1.7583536E-2,3.098167E-1,-1.3356261E-1,-3.0138118E-3,-8.117337E-2,-2.0831752E-1,-1.5592112E-1,3.953811E-2,-1.5847942E-2,-1.6478848E-1,-1.289141E-1,1.3825673E-2,9.143864E-1,1.3918573E-1,-6.47087E-2,6.357544E-2],"split_indices":[3,0,2,2,0,2,0,0,0,2,0,2,3,3,3,2,2,2,2,2,2,2,2,2,0,2,0,2,3,0,0,0,0,0,0,2,0,2,2,0,0,0,0,2,0,0,2,0,2,3,0,0,0,0,2,2,2,2,2,3,2,2,2,0,0,0,0,0,0,0,0,0,0,0,0,0,0,0,0,0,0,0,0,0,0,0,0,0,0,0,0,0,0,0,0,0,0,0,0,0,0,0,0,0,0,0,0,0,0,0,0,0,0,0,0,0,0,0,0,0,0],"split_type":[0,0,0,0,0,0,0,0,0,0,0,0,0,0,0,0,0,0,0,0,0,0,0,0,0,0,0,0,0,0,0,0,0,0,0,0,0,0,0,0,0,0,0,0,0,0,0,0,0,0,0,0,0,0,0,0,0,0,0,0,0,0,0,0,0,0,0,0,0,0,0,0,0,0,0,0,0,0,0,0,0,0,0,0,0,0,0,0,0,0,0,0,0,0,0,0,0,0,0,0,0,0,0,0,0,0,0,0,0,0,0,0,0,0,0,0,0,0,0,0,0],"sum_hessian":[7.3654195E4,3.512071E4,3.853348E4,4.6595996E3,3.0461113E4,7.2907534E3,3.1242727E4,4.327925E3,3.3167514E2,1.1773641E4,1.8687473E4,6.077612E3,1.2131416E3,2.3560451E4,7.6822754E3,2.3941277E3,1.933797E3,5.851372E1,2.731614E2,1.0778591E4,9.950495E2,4.8490464E3,1.3838426E4,4.4789873E3,1.5986248E3,1.1006168E3,1.1252476E2,1.5275664E4,8.284786E3,4.137434E3,3.5448416E3,1.7924495E3,6.016781E2,2.5893114E1,1.9079039E3,5.6321777E1,2.1919446E0,2.5952585E2,1.3635563E1,1.0622105E4,1.5648521E2,9.166038E1,9.033891E2,4.1237046E3,7.253417E2,8.401712E2,1.2998255E4,3.019553E3,1.4594343E3,1.586606E3,1.2018727E1,2.2869662E2,8.7192017E2,2.5920439E0,1.0993272E2,1.1758617E4,3.5170474E3,4.0467898E3,4.2379966E3,1.5135577E3,2.6238762E3,7.362949E2,2.8085466E3,1.4058375E3,3.8661194E2,3.125389E1,5.7042426E2,1.3751423E1,1.2141692E1,1.7338818E3,1.7402205E2,4.3539745E1,1.2782032E1,2.0478308E2,5.4742775E1,9.625103E0,4.01046E0,9.285492E3,1.3366136E3,1.5510028E2,1.3849349E0,1.1718049E1,7.994233E1,2.3145116E2,6.71938E2,4.0539556E3,6.974907E1,4.8767276E2,2.3766887E2,7.0599994E2,1.3417131E2,3.3446432E2,1.266379E4,1.7619523E3,1.2576007E3,1.6244527E2,1.296989E3,1.1803021E3,4.063039E2,1.0749156E1,2.1794748E2,4.063062E2,4.6561395E2,2.837581E1,8.155691E1,1.1269185E4,4.8943192E2,1.6612318E3,1.8558156E3,3.3065173E3,7.402724E2,8.9820654E2,3.3397898E3,8.6768713E2,6.4587054E2,2.5226987E2,2.3716064E3,1.9791784E1,7.165032E2,1.372336E3,1.4362106E3],"tree_param":{"num_deleted":"0","num_feature":"4","num_nodes":"121","size_leaf_vector":"1"}},{"base_weights":[-9.475264E-3,-2.0865317E-2,2.488882E-2,-1.20389415E-2,-2.844748E-1,4.7043252E-1,8.768384E-3,-2.1107443E-2,3.6005005E-1,-3.42784E-1,2.712994E-1,7.795982E-1,-3.9335385E-1,6.291747E-1,1.2524583E-3,-3.351947E-3,-1.8393648E-1,4.475779E-1,-4.995879E-1,-2.6682946E-1,-9.0102875E-1,-4.2028767E-1,3.754353E-1,6.6578496E-1,3.9136767E0,-7.028934E-1,6.0852945E-1,1.7355256E0,-3.260573E-1,-3.0261822E-2,1.2998205E-1,-1.5054062E-2,2.3174034E-1,-5.513516E-1,-1.1867407E-1,9.116859E-1,3.2778254E-1,-7.9886204E-1,1.9148742E0,-5.152716E-1,-1.1504905E-1,-1.0106614E0,3.0197556E0,9.5581794E-1,6.533396E-2,9.582647E-2,1.0680542E0,1.8824373E0,-2.0198002E-1,-3.2729638E-1,-8.6986053E-1,2.7605424E0,-6.475293E-1,-4.7337374E-1,1.8283873E0,-6.012939E-1,6.0852355E-1,-3.0975354E-1,-1.1618306E-2,3.0946362E-1,-6.2361423E-2,-4.1471706E-3,-1.5433852E-1,2.1216269E-1,-4.258683E-2,8.4381884E-1,-2.5914565E-1,-2.390122E-1,-2.6254987E-2,7.82163E-1,8.52172E-2,-1.4290808E-1,2.611753E-1,-4.1710946E-1,-1.1268493E-1,1.0671041E0,-1.799848E-1,1.1591479E0,-2.2271557E-1,3.3425387E-2,-2.7217147E-1,-3.0557102E-1,-4.4228068E-1,-2.49583E-1,1.6274601E0,2.2307074E-1,7.6778704E-1,-4.6157104E-1,1.5433839E-1,4.4042155E-1,-1.4565134E-1,2.9626676E-1,5.398628E-1,-2.5092345E-1,2.0208953E-1,-3.5667205E-1,-2.9921597E-2,1.265262E0,-1.5338574E-1,-4.3550286E-1,1.1875328E0,7.961172E-1,5.5063765E-2,-5.337035E-1,-1.3120191E-1,3.9183676E-1,-1.6739576E-1,7.201514E-2,-1.5592366E-2,1.725551E-1,3.013973E-2,-6.7845985E-2,1.0440248E-1],"categories":[],"categories_nodes":[],"categories_segments":[],"categories_sizes":[],"default_left":[0,0,0,0,0,0,0,0,0,0,0,0,0,0,0,0,0,0,0,0,0,0,0,0,0,0,0,0,0,0,0,0,0,0,0,0,0,0,0,0,0,0,0,0,0,0,0,0,0,0,0,0,0,0,0,0,0,0,0,0,0,0,0,0,0,0,0,0,0,0,0,0,0,0,0,0,0,0,0,0,0,0,0,0,0,0,0,0,0,0,0,0,0,0,0,0,0,0,0,0,0,0,0,0,0,0,0,0,0,0,0,0,0],"id":7,"left_children":[1,3,5,7,9,11,13,15,17,19,21,23,25,27,29,31,33,35,37,39,41,-1,43,45,47,49,51,53,55,57,59,61,63,65,67,69,71,73,75,77,79,81,83,85,87,89,91,-1,-1,93,95,97,99,-1,101,103,-1,105,107,109,111,-1,-1,-1,-1,-1,-1,-1,-1,-1,-1,-1,-1,-1,-1,-1,-1,-1,-1,-1,-1,-1,-1,-1,-1,-1,-1,-1,-1,-1,-1,-1,-1,-1,-1,-1,-1,-1,-1,-1,-1,-1,-1,-1,-1,-1,-1,-1,-1,-1,-1,-1,-1],"loss_changes":[2.8600605E1,1.2768718E2,1.3064609E2,1.7919319E2,5.7710983E1,1.6992711E2,8.186288E1,1.4987662E2,9.5291245E1,6.80078E1,2.3713167E1,1.6435748E2,5.255268E1,2.2264452E2,7.0378174E1,1.2860156E2,1.22154465E2,6.348625E1,8.623976E1,5.3420357E1,8.573274E1,0E0,2.8329042E1,1.0373259E2,5.9090057E1,7.7970695E0,1.1047232E2,2.8598969E1,5.8682613E1,7.261483E1,1.17800285E2,7.736902E1,2.2395038E2,1.9873505E2,1.0991786E2,1.7080643E2,2.0370148E2,1.2951935E1,2.4743027E1,7.778862E1,9.9060776E1,3.5607758E0,2.3493702E1,1.9978168E1,4.1043747E1,8.754752E1,2.3468231E1,0E0,0E0,1.0622654E1,1.4704742E0,2.0211433E1,4.503691E1,0E0,2.570694E1,1.9512844E1,0E0,1.2258631E2,6.852753E1,5.0349533E1,5.719038E1,0E0,0E0,0E0,0E0,0E0,0E0,0E0,0E0,0E0,0E0,0E0,0E0,0E0,0E0,0E0,0E0,0E0,0E0,0E0,0E0,0E0,0E0,0E0,0E0,0E0,0E0,0E0,0E0,0E0,0E0,0E0,0E0,0E0,0E0,0E0,0E0,0E0,0E0,0E0,0E0,0E0,0E0,0E0,0E0,0E0,0E0,0E0,0E0,0E0,0E0,0E0,0E0],"parents":[2147483647,0,0,1,1,2,2,3,3,4,4,5,5,6,6,7,7,8,8,9,9,10,10,11,11,12,12,13,13,14,14,15,15,16,16,17,17,18,18,19,19,20,20,22,22,23,23,24,24,25,25,26,26,27,27,28,28,29,29,30,30,31,31,32,32,33,33,34,34,35,35,36,36,37,37,38,38,39,39,40,40,41,41,42,42,43,43,44,44,45,45,46,46,49,49,50,50,51,51,52,52,54,54,55,55,57,57,58,58,59,59,60,60],"right_children":[2,4,6,8,10,12,14,16,18,20,22,24,26,28,30,32,34,36,38,40,42,-1,44,46,48,50,52,54,56,58,60,62,64,66,68,70,72,74,76,78,80,82,84,86,88,90,92,-1,-1,94,96,98,100,-1,102,104,-1,106,108,110,112,-1,-1,-1,-1,-1,-1,-1,-1,-1,-1,-1,-1,-1,-1,-1,-1,-1,-1,-1,-1,-1,-1,-1,-1,-1,-1,-1,-1,-1,-1,-1,-1,-1,-1,-1,-1,-1,-1,-1,-1,-1,-1,-1,-1,-1,-1,-1,-1,-1,-1,-1,-1],"split_conditions":[4.7873343E2,4.7643143E2,4.7954468E2,4.7520935E2,3E0,4.391932E1,3.6546967E1,4.6866095E2,4.7847374E1,4.62034E1,4.1909286E1,3E0,4.672934E1,4.8321155E2,4.662147E1,4.647824E2,3.944634E1,4.7550668E2,4.9355705E1,4.7710165E2,4.9355705E1,-4.2028767E-1,4.556218E1,4.7926028E2,4.361055E1,4.463854E1,4.9355705E1,3.47278E1,4.960031E2,4.806998E2,4.8295597E1,4.6406705E2,4.3005836E1,4.6895273E2,4.6934198E2,4.0334663E1,4.1867054E1,4.7550668E2,5.2245758E1,3.5289337E1,4.78383E2,4.7756573E2,4.7756573E2,4.508321E1,4.7691165E2,4.153298E1,4.179988E1,1.8824373E0,-2.0198002E-1,4.7926028E2,4.662147E1,3E0,4E0,-4.7337374E-1,3.6026997E1,4.840612E2,6.0852355E-1,3.953651E1,4.8248697E2,4.965527E2,5.2245758E1,-4.1471706E-3,-1.5433852E-1,2.1216269E-1,-4.258683E-2,8.4381884E-1,-2.5914565E-1,-2.390122E-1,-2.6254987E-2,7.82163E-1,8.52172E-2,-1.4290808E-1,2.611753E-1,-4.1710946E-1,-1.1268493E-1,1.0671041E0,-1.799848E-1,1.1591479E0,-2.2271557E-1,3.3425387E-2,-2.7217147E-1,-3.0557102E-1,-4.4228068E-1,-2.49583E-1,1.6274601E0,2.2307074E-1,7.6778704E-1,-4.6157104E-1,1.5433839E-1,4.4042155E-1,-1.4565134E-1,2.9626676E-1,5.398628E-1,-2.5092345E-1,2.0208953E-1,-3.5667205E-1,-2.9921597E-2,1.265262E0,-1.5338574E-1,-4.3550286E-1,1.1875328E0,7.961172E-1,5.5063765E-2,-5.337035E-1,-1.3120191E-1,3.9183676E-1,-1.6739576E-1,7.201514E-2,-1.5592366E-2,1.725551E-1,3.013973E-2,-6.7845985E-2,1.0440248E-1],"split_indices":[2,2,2,2,3,0,0,2,0,0,0,3,0,2,0,2,0,2,0,2,0,0,0,2,0,0,0,0,2,2,0,2,0,2,2,0,0,2,0,0,2,2,2,0,2,0,0,0,0,2,0,3,3,0,0,2,0,0,2,2,0,0,0,0,0,0,0,0,0,0,0,0,0,0,0,0,0,0,0,0,0,0,0,0,0,0,0,0,0,0,0,0,0,0,0,0,0,0,0,0,0,0,0,0,0,0,0,0,0,0,0,0,0],"split_type":[0,0,0,0,0,0,0,0,0,0,0,0,0,0,0,0,0,0,0,0,0,0,0,0,0,0,0,0,0,0,0,0,0,0,0,0,0,0,0,0,0,0,0,0,0,0,0,0,0,0,0,0,0,0,0,0,0,0,0,0,0,0,0,0,0,0,0,0,0,0,0,0,0,0,0,0,0,0,0,0,0,0,0,0,0,0,0,0,0,0,0,0,0,0,0,0,0,0,0,0,0,0,0,0,0,0,0,0,0,0,0,0,0],"sum_hessian":[7.306861E4,5.487917E4,1.8189436E4,5.3102207E4,1.7769635E3,6.3415643E2,1.755528E4,5.183972E4,1.2624873E3,1.608582E3,1.6838155E2,4.6707782E2,1.670786E2,2.091382E2,1.734614E4,4.6743637E4,5.096083E3,1.1462555E3,1.1623175E2,1.417232E3,1.913499E2,1.1631267E1,1.5675029E2,4.5188034E2,1.5197479E1,1.2787047E2,3.9208134E1,9.6525444E1,1.12612755E2,1.3935386E4,3.4107554E3,4.4528113E4,2.215526E3,7.675383E2,4.3285444E3,2.33813E2,9.124425E2,1.0400891E2,1.2222839E1,5.365629E2,8.806691E2,1.8686697E2,4.482927E0,5.3861446E1,1.0288884E2,1.8748247E2,2.6439786E2,1.2831312E1,2.3661668E0,4.0261475E1,8.760899E1,1.400887E1,2.5199265E1,2.614013E0,9.391143E1,9.8597374E1,1.4015378E1,8.7045557E2,1.306493E4,1.764054E3,1.6467014E3,4.3973395E4,5.547153E2,1.1762379E3,1.039288E3,2.6134666E1,7.414037E2,4.305881E2,3.8979565E3,9.303164E1,1.4078137E2,2.93656E2,6.187865E2,6.998459E1,3.4024326E1,9.174034E0,3.0488052E0,5.621486E0,5.3094147E2,6.5235516E2,2.2831398E2,5.4477085E1,1.3238988E2,1.0925812E0,3.3903458E0,3.923135E1,1.4630095E1,2.0875597E1,8.2013245E1,5.8417553E1,1.2906491E2,1.2393873E2,1.4045914E2,2.977725E1,1.0484223E1,8.515058E1,2.4584134E0,1.2413183E1,1.5956869E0,2.3081993E1,2.1172705E0,8.554261E1,8.368823E0,2.5723751E1,7.287363E1,6.7076836E1,8.033788E2,1.6315402E3,1.143339E4,1.1594056E3,6.0464825E2,1.2369194E3,4.0978195E2],"tree_param":{"num_deleted":"0","num_feature":"4","num_nodes":"113","size_leaf_vector":"1"}},{"base_weights":[-7.084815E-3,3.3047628E-2,-1.5586381E-2,3.012275E-2,1.5955396E0,-8.7759286E-2,-7.7320035E-3,3.192744E-2,-2.557064E-1,7.755329E-1,9.229344E-1,-1.1672414E-2,-1.8930009E-1,8.349834E-2,-1.8953566E-2,2.6835399E-2,1.1571713E-1,-4.007599E-1,8.480188E-1,1.9198751E-1,5.270878E-1,-7.5971656E-2,9.3093276E-2,-1.569117E-1,-3.434051E-1,5.9783548E-2,2.7187198E-1,-1.0198997E-1,-1.5394621E-3,3.3281446E-2,-1.4492682E-1,5.5649036E-1,-2.3486363E-2,-7.7994215E-1,-4.4443913E-2,4.9193093E-1,-1.9147782E-1,-1.7437351E-1,8.9011565E-3,1.2940441E-1,-2.5231147E-1,1.04641765E-1,-1.9370118E-1,-5.4579496E-1,-2.684374E-1,7.114996E-2,-9.9229336E-1,1.3355097E0,3.8388353E-2,-1.6038206E-1,1.0933955E-3,4.852885E-2,-1.49835795E-2,9.148946E-3,4.5401525E-2,4.5840508E-1,-7.245544E-2,8.495316E-1,1.2065601E-1,8.98219E-2,-4.6644967E-2,-2.240006E-1,-3.5629025E-1,4.1127227E-2,-4.85866E-2,3.5943004E-1,-7.357927E-2,5.2149594E-2,-3.799526E-2,9.404283E-2,4.179742E-3,-3.2154816E-1,-4.116506E-2,-4.523243E-1,5.9075803E-2,-9.843688E-2,-4.93287E-2,-1.6655871E-1,-2.632028E-1,-2.706602E-2,-1.6074222E-1,8.905929E-1,2.7682541E-2,-4.8178744E-1,-2.2664146E-1,1.4044723E-1,8.952512E-1,-1.8872166E-1,7.460916E-2,-5.3787995E-2,-3.029883E-1,4.287057E-1,-2.3826389E-2,-7.665818E-2,3.3667065E-2,-1.1418383E-2,2.2873929E-2],"categories":[],"categories_nodes":[],"categories_segments":[],"categories_sizes":[],"default_left":[0,0,0,0,0,0,0,0,0,0,0,0,0,0,0,0,0,0,0,0,0,0,0,0,0,0,0,0,0,0,0,0,0,0,0,0,0,0,0,0,0,0,0,0,0,0,0,0,0,0,0,0,0,0,0,0,0,0,0,0,0,0,0,0,0,0,0,0,0,0,0,0,0,0,0,0,0,0,0,0,0,0,0,0,0,0,0,0,0,0,0,0,0,0,0,0,0],"id":8,"left_children":[1,3,5,7,9,11,13,15,17,-1,19,21,23,25,27,29,31,33,35,-1,-1,37,39,41,43,45,47,49,51,53,55,57,59,61,63,-1,-1,65,67,69,71,73,75,77,79,81,83,85,87,89,91,93,95,-1,-1,-1,-1,-1,-1,-1,-1,-1,-1,-1,-1,-1,-1,-1,-1,-1,-1,-1,-1,-1,-1,-1,-1,-1,-1,-1,-1,-1,-1,-1,-1,-1,-1,-1,-1,-1,-1,-1,-1,-1,-1,-1,-1],"loss_changes":[2.477922E1,5.7972157E1,3.3972065E1,6.5452785E0,3.683319E0,4.54402E1,5.5334316E1,5.370387E0,1.3087639E1,0E0,1.1019173E0,2.2664135E1,1.2521027E1,2.6430714E1,6.9596085E1,1.3151642E1,4.4265488E1,9.565415E0,5.436289E0,0E0,0E0,1.7412834E1,1.6081787E1,2.0070541E1,6.479496E0,6.296563E1,1.6427382E2,5.0223663E1,2.6782473E1,9.554768E0,2.029435E1,6.852028E1,1.270944E1,3.38459E-1,4.4001266E-1,0E0,0E0,1.0083857E1,1.4150085E1,1.4565155E1,9.975698E0,1.3866877E1,6.7066574E0,1.4258728E0,8.56156E0,2.1647118E1,4.400997E0,1.050161E2,4.117275E1,8.230969E1,1.9608759E2,7.210679E1,3.0701841E1,0E0,0E0,0E0,0E0,0E0,0E0,0E0,0E0,0E0,0E0,0E0,0E0,0E0,0E0,0E0,0E0,0E0,0E0,0E0,0E0,0E0,0E0,0E0,0E0,0E0,0E0,0E0,0E0,0E0,0E0,0E0,0E0,0E0,0E0,0E0,0E0,0E0,0E0,0E0,0E0,0E0,0E0,0E0,0E0],"parents":[2147483647,0,0,1,1,2,2,3,3,4,4,5,5,6,6,7,7,8,8,10,10,11,11,12,12,13,13,14,14,15,15,16,16,17,17,18,18,21,21,22,22,23,23,24,24,25,25,26,26,27,27,28,28,29,29,30,30,31,31,32,32,33,33,34,34,37,37,38,38,39,39,40,40,41,41,42,42,43,43,44,44,45,45,46,46,47,47,48,48,49,49,50,50,51,51,52,52],"right_children":[2,4,6,8,10,12,14,16,18,-1,20,22,24,26,28,30,32,34,36,-1,-1,38,40,42,44,46,48,50,52,54,56,58,60,62,64,-1,-1,66,68,70,72,74,76,78,80,82,84,86,88,90,92,94,96,-1,-1,-1,-1,-1,-1,-1,-1,-1,-1,-1,-1,-1,-1,-1,-1,-1,-1,-1,-1,-1,-1,-1,-1,-1,-1,-1,-1,-1,-1,-1,-1,-1,-1,-1,-1,-1,-1,-1,-1,-1,-1,-1,-1],"split_conditions":[9.964341E0,1.14562416E2,1.8122823E2,1.0207544E2,1.18369385E2,1.4113744E1,3.7303097E1,8.582038E1,2E0,7.755329E-1,9.797829E0,1.1189135E2,4E0,4.584866E2,4.0972713E1,8.1337715E1,8.7877106E1,1.05099365E2,1.0871442E2,1.9198751E-1,5.270878E-1,2E0,3E0,1.289326E2,1.6238342E1,4.5505655E2,4.6895273E2,4.7474866E2,4.219086E1,7.090717E1,7.152328E0,8.316033E0,9.057277E0,9.309907E0,1.0871442E2,4.9193093E-1,-1.9147782E-1,7.523226E1,3E0,1.2754892E1,1.2441522E1,7.748304E1,1.592505E2,1.2186477E2,1.4534514E2,1.4632217E1,4.5566534E2,4.6253445E2,4.732559E2,4.7387598E2,4.7550668E2,4.0727954E2,4.9278717E2,9.148946E-3,4.5401525E-2,4.5840508E-1,-7.245544E-2,8.495316E-1,1.2065601E-1,8.98219E-2,-4.6644967E-2,-2.240006E-1,-3.5629025E-1,4.1127227E-2,-4.85866E-2,3.5943004E-1,-7.357927E-2,5.2149594E-2,-3.799526E-2,9.404283E-2,4.179742E-3,-3.2154816E-1,-4.116506E-2,-4.523243E-1,5.9075803E-2,-9.843688E-2,-4.93287E-2,-1.6655871E-1,-2.632028E-1,-2.706602E-2,-1.6074222E-1,8.905929E-1,2.7682541E-2,-4.8178744E-1,-2.2664146E-1,1.4044723E-1,8.952512E-1,-1.8872166E-1,7.460916E-2,-5.3787995E-2,-3.029883E-1,4.287057E-1,-2.3826389E-2,-7.665818E-2,3.3667065E-2,-1.1418383E-2,2.2873929E-2],"split_indices":[0,2,2,2,2,0,0,2,3,0,0,2,3,2,0,2,2,2,2,0,0,3,3,2,0,2,2,2,0,2,0,0,0,0,2,0,0,2,3,0,0,2,2,2,2,0,2,2,2,2,2,2,2,0,0,0,0,0,0,0,0,0,0,0,0,0,0,0,0,0,0,0,0,0,0,0,0,0,0,0,0,0,0,0,0,0,0,0,0,0,0,0,0,0,0,0,0],"split_type":[0,0,0,0,0,0,0,0,0,0,0,0,0,0,0,0,0,0,0,0,0,0,0,0,0,0,0,0,0,0,0,0,0,0,0,0,0,0,0,0,0,0,0,0,0,0,0,0,0,0,0,0,0,0,0,0,0,0,0,0,0,0,0,0,0,0,0,0,0,0,0,0,0,0,0,0,0,0,0,0,0,0,0,0,0,0,0,0,0,0,0,0,0,0,0,0,0],"sum_hessian":[7.2623664E4,1.2694621E4,5.9929043E4,1.2671919E4,2.2701681E1,5.8808115E3,5.404823E4,1.2593295E4,7.862429E1,1.3783904E1,8.917776E0,3.3624014E3,2.5184102E3,5.9192E3,4.812903E4,1.1873068E4,7.2022644E2,7.0054504E1,8.569784E0,5.2466187E0,3.6711574E0,2.083774E3,1.2786274E3,2.0827046E3,4.3570572E2,5.258511E3,6.6068866E2,8.342809E3,3.9786223E4,1.144438E4,4.286888E2,1.7214613E2,5.480803E2,3.3362305E1,3.6692204E1,6.7113767E0,1.8584073E0,9.644882E2,1.1192858E3,1.1575625E3,1.21064964E2,2.565965E2,1.826108E3,1.1607049E2,3.1963522E2,5.203229E3,5.5282196E1,1.1807528E2,5.426134E2,5.3255615E3,3.0172473E3,8.421273E3,3.136495E4,1.0131123E4,1.3132572E3,1.0860698E1,4.1782812E2,2.3050585E1,1.4909555E2,1.4922049E2,3.9885983E2,1.3203683E1,2.015862E1,1.2485624E1,2.420658E1,7.7094307E0,9.567788E2,5.158601E2,6.0342566E2,6.124061E2,5.451564E2,2.486953E1,9.6195435E1,7.7889214E0,2.4880757E2,1.0454042E3,7.807038E2,5.609496E1,5.997553E1,1.28209E2,1.9142624E2,3.6567085E0,5.1995723E3,3.5672573E1,1.9609623E1,5.7143654E1,6.0931625E1,1.216054E2,4.21008E2,5.105233E3,2.2032849E2,1.6088425E2,2.856363E3,1.0875775E3,7.3336963E3,2.6403607E4,4.961341E3],"tree_param":{"num_deleted":"0","num_feature":"4","num_nodes":"97","size_leaf_vector":"1"}},{"base_weights":[-4.781559E-3,-6.9892975E-3,1.1327944E-1,-4.6726917E-3,-1.15763314E-1,1.5175061E-1,-1.4818856E-1,-9.158882E-3,6.329193E-2,-1.7816722E-1,3.043465E-1,8.648091E-2,4.7964057E-1,-6.017604E-1,-3.962269E-2,-1.996744E-3,-5.738608E-2,-1.450283E-1,1.4203764E-1,-3.6697853E-2,-3.013495E-1,-3.9143446E-1,4.2003316E-1,-1.12106964E-1,1.4505368E-1,-2.0323317E-1,5.591199E-1,-4.246214E-1,-4.2532015E-1,4.8459917E-1,-2.7167618E-1,-6.0506207E-3,4.5240086E-1,7.3341536E-3,-2.6099142E-1,-3.4105188E-1,8.78788E-2,9.728575E-1,1.1287577E-1,7.6314235E-1,-1.459228E-1,-5.930402E-1,2.1097032E-2,3.276666E-1,-4.665385E-1,-2.3475735E-1,5.686944E-1,3.1465942E-1,-2.2752978E-1,4.9436292E-1,2.9147046E-2,4.007148E-1,-6.8980974E-1,7.483718E-1,4.6081674E-1,-7.462445E-1,4.93345E-1,7.879129E-1,3.250268E-1,-4.266461E-1,4.8283708E-1,-1.505575E-3,-1.8260708E-1,9.124171E-2,8.324377E-1,-1.1097964E-1,2.4308223E-2,-1.80031E-1,3.1317443E-2,6.942214E-1,-1.4534307E-1,1.492931E-1,-1.4602108E-1,6.6864944E-1,2.1272884E-1,1.3731851E-2,9.4874114E-2,1.0199778E-3,8.897516E-1,-1.1928113E-1,3.2564998E-2,5.3273357E-2,-2.8870884E-1,8.898118E-1,-3.5086542E-2,2.8508845E-1,-4.1913518E-1,1.2035968E-1,-3.11406E-1,2.4814582E-1,-3.437551E-1,-1.4803518E-1,3.956691E-1,2.6319472E-2,-1.3824503E-1,1.5379456E-1,1.3492979E0,1.2722352E-1,-6.416974E-2,-2.3564107E-3,4.667109E-1,-3.862586E-1,-1.797634E-1,2.8383052E-1,1.0055061E-1,-2.1284454E-2,-3.4347996E-1,7.3912793E-1,-1.0324317E-1,-1.2004914E-1,1.927068E-1,-3.507663E-1,-1.20455675E-1,4.761152E-1,-2.19762E-2],"categories":[],"categories_nodes":[],"categories_segments":[],"categories_sizes":[],"default_left":[0,0,0,0,0,0,0,0,0,0,0,0,0,0,0,0,0,0,0,0,0,0,0,0,0,0,0,0,0,0,0,0,0,0,0,0,0,0,0,0,0,0,0,0,0,0,0,0,0,0,0,0,0,0,0,0,0,0,0,0,0,0,0,0,0,0,0,0,0,0,0,0,0,0,0,0,0,0,0,0,0,0,0,0,0,0,0,0,0,0,0,0,0,0,0,0,0,0,0,0,0,0,0,0,0,0,0,0,0,0,0,0,0,0,0],"id":9,"left_children":[1,3,5,7,9,11,13,15,17,19,21,23,25,27,29,31,33,35,37,39,41,43,45,47,49,51,53,-1,55,57,59,61,63,65,67,69,71,73,75,77,79,81,83,85,-1,87,89,91,93,95,97,99,101,-1,103,105,107,-1,109,111,113,-1,-1,-1,-1,-1,-1,-1,-1,-1,-1,-1,-1,-1,-1,-1,-1,-1,-1,-1,-1,-1,-1,-1,-1,-1,-1,-1,-1,-1,-1,-1,-1,-1,-1,-1,-1,-1,-1,-1,-1,-1,-1,-1,-1,-1,-1,-1,-1,-1,-1,-1,-1,-1,-1],"loss_changes":[1.8845184E1,1.7883465E1,1.3372938E1,2.1189188E1,3.8853577E1,2.473003E1,8.383762E0,2.2517483E1,7.0611275E1,2.2454964E1,1.5600771E1,1.1258917E1,1.0530869E1,2.2179031E0,1.7020548E1,1.0456323E2,1.1108072E2,5.394469E1,7.556151E1,5.2632915E1,6.481569E1,1.5905637E1,1.6186745E1,1.094348E1,3.0222723E1,6.3723397E0,2.1342983E1,0E0,7.870745E0,9.540772E0,1.1533385E1,5.7951866E1,1.8288829E2,9.736928E1,1.30475E2,3.0341934E1,6.999056E1,3.1709831E1,2.946447E1,8.045357E1,1.8365116E1,3.3918625E1,7.8887924E1,8.813245E0,0E0,9.3281765E0,1.0472092E1,2.2261154E1,6.0601645E0,5.75411E1,3.0821764E1,3.086888E0,3.5219812E-1,0E0,8.236637E0,1.4551487E0,7.7954483E0,0E0,4.0629225E0,4.307725E0,6.5239754E0,0E0,0E0,0E0,0E0,0E0,0E0,0E0,0E0,0E0,0E0,0E0,0E0,0E0,0E0,0E0,0E0,0E0,0E0,0E0,0E0,0E0,0E0,0E0,0E0,0E0,0E0,0E0,0E0,0E0,0E0,0E0,0E0,0E0,0E0,0E0,0E0,0E0,0E0,0E0,0E0,0E0,0E0,0E0,0E0,0E0,0E0,0E0,0E0,0E0,0E0,0E0,0E0,0E0,0E0],"parents":[2147483647,0,0,1,1,2,2,3,3,4,4,5,5,6,6,7,7,8,8,9,9,10,10,11,11,12,12,13,13,14,14,15,15,16,16,17,17,18,18,19,19,20,20,21,21,22,22,23,23,24,24,25,25,26,26,28,28,29,29,30,30,31,31,32,32,33,33,34,34,35,35,36,36,37,37,38,38,39,39,40,40,41,41,42,42,43,43,45,45,46,46,47,47,48,48,49,49,50,50,51,51,52,52,54,54,55,55,56,56,58,58,59,59,60,60],"right_children":[2,4,6,8,10,12,14,16,18,20,22,24,26,28,30,32,34,36,38,40,42,44,46,48,50,52,54,-1,56,58,60,62,64,66,68,70,72,74,76,78,80,82,84,86,-1,88,90,92,94,96,98,100,102,-1,104,106,108,-1,110,112,114,-1,-1,-1,-1,-1,-1,-1,-1,-1,-1,-1,-1,-1,-1,-1,-1,-1,-1,-1,-1,-1,-1,-1,-1,-1,-1,-1,-1,-1,-1,-1,-1,-1,-1,-1,-1,-1,-1,-1,-1,-1,-1,-1,-1,-1,-1,-1,-1,-1,-1,-1,-1,-1,-1],"split_conditions":[5.082292E1,4.872821E1,5E0,4.672934E1,5E0,4E0,3.7307056E2,4.862558E2,4.5505655E2,4.8107614E2,3.8313422E2,3.2165726E2,1.8729436E2,5.1093628E2,4.0100415E2,4.857815E2,4.4993153E1,5E0,4.5805566E2,2E0,4.9774704E2,5.0315437E1,4.901315E1,1.5370879E2,4.6734998E2,1.289326E2,2.732734E2,-4.246214E-1,2.0842517E2,3.8313422E2,4.726051E2,4.853951E2,4.5958824E1,4.8817868E2,4.9703323E2,3.8523145E2,4.3308032E2,4.7578045E1,4.9075848E2,4.9355705E1,4.985545E1,4.901315E1,4.983909E2,3.759118E2,-4.665385E-1,4.489189E2,4.9774704E2,1.14562416E2,5.1093628E2,4.6406705E2,2E0,1.14562416E2,1.3666827E2,7.483718E-1,4.4248325E2,8.7877106E1,2.5498215E2,7.879129E-1,5.4306747E1,4.2054178E2,4.8388583E2,-1.505575E-3,-1.8260708E-1,9.124171E-2,8.324377E-1,-1.1097964E-1,2.4308223E-2,-1.80031E-1,3.1317443E-2,6.942214E-1,-1.4534307E-1,1.492931E-1,-1.4602108E-1,6.6864944E-1,2.1272884E-1,1.3731851E-2,9.4874114E-2,1.0199778E-3,8.897516E-1,-1.1928113E-1,3.2564998E-2,5.3273357E-2,-2.8870884E-1,8.898118E-1,-3.5086542E-2,2.8508845E-1,-4.1913518E-1,1.2035968E-1,-3.11406E-1,2.4814582E-1,-3.437551E-1,-1.4803518E-1,3.956691E-1,2.6319472E-2,-1.3824503E-1,1.5379456E-1,1.3492979E0,1.2722352E-1,-6.416974E-2,-2.3564107E-3,4.667109E-1,-3.862586E-1,-1.797634E-1,2.8383052E-1,1.0055061E-1,-2.1284454E-2,-3.4347996E-1,7.3912793E-1,-1.0324317E-1,-1.2004914E-1,1.927068E-1,-3.507663E-1,-1.20455675E-1,4.761152E-1,-2.19762E-2],"split_indices":[0,0,3,0,3,3,2,2,2,2,2,2,2,0,2,2,0,3,2,3,2,0,0,2,2,2,2,0,2,2,2,2,0,2,2,2,2,0,2,0,0,0,2,2,0,2,2,2,0,2,3,2,2,0,2,2,2,0,0,2,2,0,0,0,0,0,0,0,0,0,0,0,0,0,0,0,0,0,0,0,0,0,0,0,0,0,0,0,0,0,0,0,0,0,0,0,0,0,0,0,0,0,0,0,0,0,0,0,0,0,0,0,0,0,0],"split_type":[0,0,0,0,0,0,0,0,0,0,0,0,0,0,0,0,0,0,0,0,0,0,0,0,0,0,0,0,0,0,0,0,0,0,0,0,0,0,0,0,0,0,0,0,0,0,0,0,0,0,0,0,0,0,0,0,0,0,0,0,0,0,0,0,0,0,0,0,0,0,0,0,0,0,0,0,0,0,0,0,0,0,0,0,0,0,0,0,0,0,0,0,0,0,0,0,0,0,0,0,0,0,0,0,0,0,0,0,0,0,0,0,0,0,0],"sum_hessian":[7.22973E4,7.097108E4,1.326217E3,6.949212E4,1.4789596E3,1.1564779E3,1.697391E2,6.518994E4,4.3021753E3,1.288186E3,1.9077367E2,9.6554126E2,1.9093669E2,3.190442E1,1.3783469E2,5.6761438E4,8.428503E3,1.1799086E3,3.1222666E3,6.0019104E2,6.8799493E2,2.685778E1,1.639159E2,2.197105E2,7.4583075E2,1.974382E1,1.7119287E2,7.456558E0,2.4447863E1,4.1958885E1,9.587579E1,5.62605E4,5.0093747E2,6.396276E3,2.0322268E3,6.4043195E2,5.3947656E2,1.0477833E2,3.0174883E3,7.139413E1,5.2879694E2,3.6078412E2,3.272108E2,1.42299E1,1.2627879E1,3.0221907E1,1.3369398E2,4.6405148E1,1.7330536E2,1.8500717E2,5.6082355E2,8.888147E0,1.0855674E1,1.0677282E1,1.6051558E2,1.8257513E1,6.19035E0,2.9702098E0,3.8988678E1,7.989969E1,1.5976107E1,5.5977355E4,2.8314664E2,4.413032E2,5.96343E1,1.0099057E3,5.38637E3,1.3047521E3,7.274747E2,5.989811E0,6.3444214E2,3.31072E2,2.0840456E2,3.9463326E1,6.5315E1,1.8498925E3,1.1675958E3,4.76128E1,2.3781326E1,3.1648706E2,2.1230986E2,5.4318554E1,3.0646558E2,1.4483409E1,3.127274E2,1.149412E1,2.7357812E0,1.5449353E1,1.4772553E1,1.2957149E2,4.122492E0,2.3251842E1,2.3153303E1,4.9868996E1,1.23436356E2,1.7929759E2,5.709588E0,2.2192552E2,3.3889804E2,6.4545507E0,2.4335961E0,3.6503942E0,7.2052794E0,7.227913E1,8.823645E1,2.7546296E0,1.5502884E1,1.6882772E0,4.502073E0,7.6324162E0,3.135626E1,1.6111383E1,6.3788307E1,6.3756022E0,9.600504E0],"tree_param":{"num_deleted":"0","num_feature":"4","num_nodes":"115","size_leaf_vector":"1"}},{"base_weights":[-3.6169174E-3,4.094802E-2,-7.982995E-3,3.708163E-2,4.485529E-1,-1.582539E-2,1.3349514E-2,1.0412874E-2,7.809325E-2,-8.852077E-3,-1.786425E-1,6.1569387E-1,2.943884E-3,2.7936509E-2,-5.9744153E-2,2.1897508E-1,5.772081E-2,-1.2891467E-2,5.5144876E-1,-2.2960536E-1,1.999699E-1,7.8599423E-1,5.84513E-2,4.472322E-2,-3.8557753E-2,1.940465E-2,6.733418E-1,-6.818987E-2,6.164261E-1,1.3786077E-1,4.9585816E-1,-5.0915606E-2,8.722398E-2,-4.587334E-3,-8.715097E-2,-5.523598E-1,6.9519085E-1,-1.6716065E-1,-7.7309877E-1,6.088747E-2,5.2738655E-1,4.935958E-1,1.0833907E0,-3.0187726E-1,1.5566523E0,1.9082546E-2,6.1579216E-1,-2.4345468E-1,-3.9017843E-3,-4.8765534E-5,6.524147E-2,4.761301E-1,-9.977908E-2,-8.588322E-3,-7.296976E-2,3.1743065E-1,2.8401306E-2,6.6868834E-2,-1.8016295E-1,2.3192933E-1,-2.912623E-1,5.5295914E-2,-5.4179877E-2,2.771273E-2,9.300315E-2,-3.548771E-3,1.3655935E-1,-1.272386E-1,2.0063393E-2,9.911011E-2,-4.6236548E-1,3.999216E-1,-5.0249573E-2,5.9860017E-2,-9.023017E-2,-3.4289166E-1,-1.584607E-1,1.3141452E-1,-2.827772E-1,-3.963627E-1,2.8186226E-1,5.0707763E-1,4.3837886E-2,4.8461047E-1,-2.386258E-1,4.260909E-2,-3.3458495E-1,7.3691416E-1,-2.621966E-1,2.5754783E-1,3.7457016E-3,6.733513E-1,2.0836981E-2,-1.6147259E-1,9.822707E-2,7.99336E-2,-9.402933E-3],"categories":[],"categories_nodes":[],"categories_segments":[],"categories_sizes":[],"default_left":[0,0,0,0,0,0,0,0,0,0,0,0,0,0,0,0,0,0,0,0,0,0,0,0,0,0,0,0,0,0,0,0,0,0,0,0,0,0,0,0,0,0,0,0,0,0,0,0,0,0,0,0,0,0,0,0,0,0,0,0,0,0,0,0,0,0,0,0,0,0,0,0,0,0,0,0,0,0,0,0,0,0,0,0,0,0,0,0,0,0,0,0,0,0,0,0,0],"id":10,"left_children":[1,3,5,7,-1,9,11,13,15,17,19,21,23,25,27,29,31,33,35,37,39,41,43,45,47,49,51,53,55,57,59,61,63,65,67,69,71,73,75,77,79,81,83,85,87,89,91,93,95,-1,-1,-1,-1,-1,-1,-1,-1,-1,-1,-1,-1,-1,-1,-1,-1,-1,-1,-1,-1,-1,-1,-1,-1,-1,-1,-1,-1,-1,-1,-1,-1,-1,-1,-1,-1,-1,-1,-1,-1,-1,-1,-1,-1,-1,-1,-1,-1],"loss_changes":[1.4028262E1,2.6832367E1,1.0985572E1,7.011407E0,0E0,5.4511345E1,1.1063241E2,4.7793207E0,7.237687E0,1.0421343E2,3.8093174E1,2.8399597E1,3.0089472E1,1.711301E1,4.479246E0,7.0913897E0,7.082503E0,2.8189451E1,5.267652E1,5.886869E1,1.0644994E1,1.9422394E1,3.893052E1,1.2661443E2,6.181762E1,8.615974E0,1.964113E1,4.0964947E0,8.7943053E-1,4.3505697E0,7.806093E0,7.5705585E0,4.5119476E0,6.0955124E1,1.4581572E2,1.8894154E1,7.3147E1,2.89133E1,5.332947E0,3.428362E1,1.947753E1,3.4806534E1,2.5034882E1,1.2810605E1,1.003791E1,5.02522E1,2.2351929E2,9.8781654E1,2.9751822E1,0E0,0E0,0E0,0E0,0E0,0E0,0E0,0E0,0E0,0E0,0E0,0E0,0E0,0E0,0E0,0E0,0E0,0E0,0E0,0E0,0E0,0E0,0E0,0E0,0E0,0E0,0E0,0E0,0E0,0E0,0E0,0E0,0E0,0E0,0E0,0E0,0E0,0E0,0E0,0E0,0E0,0E0,0E0,0E0,0E0,0E0,0E0,0E0],"parents":[2147483647,0,0,1,1,2,2,3,3,5,5,6,6,7,7,8,8,9,9,10,10,11,11,12,12,13,13,14,14,15,15,16,16,17,17,18,18,19,19,20,20,21,21,22,22,23,23,24,24,25,25,26,26,27,27,28,28,29,29,30,30,31,31,32,32,33,33,34,34,35,35,36,36,37,37,38,38,39,39,40,40,41,41,42,42,43,43,44,44,45,45,46,46,47,47,48,48],"right_children":[2,4,6,8,-1,10,12,14,16,18,20,22,24,26,28,30,32,34,36,38,40,42,44,46,48,50,52,54,56,58,60,62,64,66,68,70,72,74,76,78,80,82,84,86,88,90,92,94,96,-1,-1,-1,-1,-1,-1,-1,-1,-1,-1,-1,-1,-1,-1,-1,-1,-1,-1,-1,-1,-1,-1,-1,-1,-1,-1,-1,-1,-1,-1,-1,-1,-1,-1,-1,-1,-1,-1,-1,-1,-1,-1,-1,-1,-1,-1,-1,-1],"split_conditions":[5.145104E0,5.0963406E1,4.7926028E2,2.068443E1,4.485529E-1,4.7643143E2,4.7954468E2,1.4730226E1,2.968787E0,4.760488E2,3E0,2E0,4.8950818E2,2.312405E0,3.338409E0,2.371924E1,2.7359968E1,4.703729E2,3.9342823E1,4.62034E1,4.742055E1,4.179988E1,4.672934E1,4.8902133E2,4.9135355E2,1.0889247E1,5E0,4E0,5E0,3E0,2E0,3.338409E0,4E0,4.6968475E2,4.7289224E2,3.795511E1,2E0,3.944634E1,4.8548077E1,4E0,4.7691165E2,4.017201E1,4.644919E1,4.463854E1,4.7847374E1,3.6546967E1,4.221913E1,2E0,4.0044724E1,-4.8765534E-5,6.524147E-2,4.761301E-1,-9.977908E-2,-8.588322E-3,-7.296976E-2,3.1743065E-1,2.8401306E-2,6.6868834E-2,-1.8016295E-1,2.3192933E-1,-2.912623E-1,5.5295914E-2,-5.4179877E-2,2.771273E-2,9.300315E-2,-3.548771E-3,1.3655935E-1,-1.272386E-1,2.0063393E-2,9.911011E-2,-4.6236548E-1,3.999216E-1,-5.0249573E-2,5.9860017E-2,-9.023017E-2,-3.4289166E-1,-1.584607E-1,1.3141452E-1,-2.827772E-1,-3.963627E-1,2.8186226E-1,5.0707763E-1,4.3837886E-2,4.8461047E-1,-2.386258E-1,4.260909E-2,-3.3458495E-1,7.3691416E-1,-2.621966E-1,2.5754783E-1,3.7457016E-3,6.733513E-1,2.0836981E-2,-1.6147259E-1,9.822707E-2,7.99336E-2,-9.402933E-3],"split_indices":[0,2,2,2,0,2,2,2,0,2,3,3,2,0,0,2,2,2,0,0,0,0,0,2,2,2,3,3,3,3,3,0,3,2,2,0,3,0,0,3,2,0,0,0,0,0,0,3,0,0,0,0,0,0,0,0,0,0,0,0,0,0,0,0,0,0,0,0,0,0,0,0,0,0,0,0,0,0,0,0,0,0,0,0,0,0,0,0,0,0,0,0,0,0,0,0,0],"split_type":[0,0,0,0,0,0,0,0,0,0,0,0,0,0,0,0,0,0,0,0,0,0,0,0,0,0,0,0,0,0,0,0,0,0,0,0,0,0,0,0,0,0,0,0,0,0,0,0,0,0,0,0,0,0,0,0,0,0,0,0,0,0,0,0,0,0,0,0,0,0,0,0,0,0,0,0,0,0,0,0,0,0,0,0,0,0,0,0,0,0,0,0,0,0,0,0,0],"sum_hessian":[7.209464E4,6.4322026E3,6.566244E4,6.4102974E3,2.1905275E1,4.8012152E4,1.7650281E4,3.885146E3,2.5251516E3,4.60413E4,1.9708541E3,2.9874664E2,1.7351535E4,3.109152E3,7.7599396E2,3.177895E2,2.207362E3,4.571272E4,3.285808E2,1.7373878E3,2.3346634E2,2.2850282E2,7.0243835E1,8.6468E3,8.704735E3,3.0696038E3,3.9548206E1,7.67309E2,8.684931E0,2.4694391E2,7.084557E1,4.7128244E2,1.7360796E3,4.1115953E4,4.596765E3,3.753137E1,2.9104944E2,1.5595148E3,1.77873E2,1.6469287E2,6.8773476E1,1.16560745E2,1.1194208E2,5.7268772E1,1.2975062E1,8.276234E3,3.7056488E2,1.258437E3,7.446298E3,2.7032688E3,3.6633496E2,2.51617E1,1.4386507E1,5.454299E2,2.2187918E2,6.21225E0,2.4726808E0,2.3590541E2,1.1038504E1,6.6790184E1,4.0553913E0,1.4536812E2,3.259143E2,1.5465605E3,1.8951906E2,4.0613977E4,5.0197803E2,1.7134825E3,2.8832825E3,1.639108E1,2.1140285E1,2.1211372E2,7.893572E1,2.4254074E2,1.3169741E3,1.443758E2,3.349722E1,1.2254759E2,4.214528E1,6.7103243E0,6.206315E1,3.788601E1,7.8674736E1,1.0426806E2,7.674018E0,3.292003E1,2.4348745E1,1.1639375E1,1.335687E0,1.257621E2,8.1504727E3,1.27364334E2,2.4320053E2,9.480015E2,3.1043546E2,6.5285065E2,6.7934473E3],"tree_param":{"num_deleted":"0","num_feature":"4","num_nodes":"97","size_leaf_vector":"1"}},{"base_weights":[-2.421617E-3,-3.560062E-3,1.2652193E-1,8.9842435E-3,-1.5055901E-2,-4.5243774E-2,3.503091E-1,-1.3414476E-2,3.162877E-2,1.1514983E-2,-4.685638E-2,-2.8558418E-3,-7.3927414E-1,4.9891233E-1,1.584994E-1,1.784522E-2,-9.695603E-2,4.4702157E-1,2.3289064E-2,5.2546576E-4,1.1710583E-1,-5.49214E-1,-4.0954668E-2,2.329102E-1,-1.0079476E-1,-2.2740948E-1,-3.7851247E-1,6.912748E-1,9.00574E-2,-3.092889E-1,1.76273E-1,-7.2811036E-3,5.4544467E-1,-1.2718823E0,-7.11371E-2,1.4276049E-1,9.138113E-1,-1.1274323E0,2.7756983E-2,1.0551832E-2,-4.5974347E-1,3.7256244E-1,1.7808035E-2,-8.692808E-1,2.2280812E-1,1.2639672E0,-4.9353123E-2,4.658782E-1,-2.5485554E-1,7.055185E-2,-4.8910835E-1,1.1119407E0,1.1344412E-1,-7.358638E-2,5.769064E-1,-7.965832E-4,2.6572034E-1,1.0214177E-3,-2.5722942E-1,6.0279626E-1,1.1878081E-1,2.4868194E-2,-5.2479553E-1,-5.5162728E-2,1.7283564E-2,2.041894E-1,-1.9631316E-1,7.561764E-1,1.892318E-1,-3.5299143E-1,-4.8672268E-1,-6.375183E-2,1.48688555E-2,-3.190611E-3,6.9525525E-2,1.92315E-2,-2.7764255E-1,2.6171845E-1,3.922488E-3,1.4421025E-1,-8.60848E-3,-3.7414354E-1,-2.6850197E-1,4.326101E-1,-1.8055367E-1,1.1793491E0,-1.0742815E-1,-7.099237E-2,-1.3418918E-2,1.2674598E-1,4.3988273E-1,-1.4962457E-1,3.6507672E-1,-6.947266E-2,2.2532044E-1,-3.0278438E-1,2.6944518E-2,7.2404045E-1,3.2610524E-1,1.4424144E-1,-2.739012E-1,1.253129E-1,-1.9313729E-1,1.8479224E-1,1.6076794E-2],"categories":[],"categories_nodes":[],"categories_segments":[],"categories_sizes":[],"default_left":[0,0,0,0,0,0,0,0,0,0,0,0,0,0,0,0,0,0,0,0,0,0,0,0,0,0,0,0,0,0,0,0,0,0,0,0,0,0,0,0,0,0,0,0,0,0,0,0,0,0,0,0,0,0,0,0,0,0,0,0,0,0,0,0,0,0,0,0,0,0,0,0,0,0,0,0,0,0,0,0,0,0,0,0,0,0,0,0,0,0,0,0,0,0,0,0,0,0,0,0,0,0,0,0,0],"id":11,"left_children":[1,3,5,7,9,11,13,15,17,19,21,23,25,27,29,31,33,35,37,39,41,43,45,47,49,-1,-1,51,53,-1,55,57,59,61,63,65,67,69,71,73,75,77,79,81,83,85,87,89,91,93,95,97,99,101,-1,-1,103,-1,-1,-1,-1,-1,-1,-1,-1,-1,-1,-1,-1,-1,-1,-1,-1,-1,-1,-1,-1,-1,-1,-1,-1,-1,-1,-1,-1,-1,-1,-1,-1,-1,-1,-1,-1,-1,-1,-1,-1,-1,-1,-1,-1,-1,-1,-1,-1],"loss_changes":[1.0535855E1,1.0259377E1,2.4160723E1,1.7255861E1,3.136816E1,1.0478476E1,7.6988907E0,4.466786E1,5.859671E1,2.3469116E1,5.0078262E1,7.7993994E0,1.8669891E-1,1.1993774E1,2.1332235E0,1.6501373E2,1.4119337E2,4.7151527E1,8.530422E1,8.454691E1,4.835511E1,4.8659763E1,1.8312204E2,1.138398E1,1.5911356E1,0E0,0E0,2.5176498E1,1.1213478E1,0E0,1.9003134E0,7.430034E1,1.3475642E2,5.4365845E0,3.4808014E1,4.7478355E1,5.5571136E1,3.3110046E-1,2.9117409E1,5.423947E1,4.6518723E1,5.452787E1,1.8526796E1,1.189148E0,3.422906E1,2.7662598E2,3.3607147E1,6.0216885E0,4.891284E0,2.0127882E1,1.0958944E1,1.0978096E1,9.118412E0,7.391372E0,0E0,0E0,3.4933457E0,0E0,0E0,0E0,0E0,0E0,0E0,0E0,0E0,0E0,0E0,0E0,0E0,0E0,0E0,0E0,0E0,0E0,0E0,0E0,0E0,0E0,0E0,0E0,0E0,0E0,0E0,0E0,0E0,0E0,0E0,0E0,0E0,0E0,0E0,0E0,0E0,0E0,0E0,0E0,0E0,0E0,0E0,0E0,0E0,0E0,0E0,0E0,0E0],"parents":[2147483647,0,0,1,1,2,2,3,3,4,4,5,5,6,6,7,7,8,8,9,9,10,10,11,11,12,12,13,13,14,14,15,15,16,16,17,17,18,18,19,19,20,20,21,21,22,22,23,23,24,24,27,27,28,28,30,30,31,31,32,32,33,33,34,34,35,35,36,36,37,37,38,38,39,39,40,40,41,41,42,42,43,43,44,44,45,45,46,46,47,47,48,48,49,49,50,50,51,51,52,52,53,53,56,56],"right_children":[2,4,6,8,10,12,14,16,18,20,22,24,26,28,30,32,34,36,38,40,42,44,46,48,50,-1,-1,52,54,-1,56,58,60,62,64,66,68,70,72,74,76,78,80,82,84,86,88,90,92,94,96,98,100,102,-1,-1,104,-1,-1,-1,-1,-1,-1,-1,-1,-1,-1,-1,-1,-1,-1,-1,-1,-1,-1,-1,-1,-1,-1,-1,-1,-1,-1,-1,-1,-1,-1,-1,-1,-1,-1,-1,-1,-1,-1,-1,-1,-1,-1,-1,-1,-1,-1,-1,-1],"split_conditions":[5.4306747E1,2E0,3.8029785E2,4.1243176E1,4.240815E2,3.7044122E2,4.965527E2,4.6895273E2,4.591535E2,4.427023E1,3.795511E1,5.1093628E2,2E0,5.1093628E2,4.9774704E2,4.6304303E2,4.6934198E2,4.5660208E2,4.5975784E2,4.4016785E1,4.508321E1,4.5805566E2,3.8814503E1,3E0,2.459822E2,-2.2740948E-1,-3.7851247E-1,5E0,4.7364777E2,-3.092889E-1,2E0,4.6144327E2,3.8814503E1,3.6546967E1,4.853951E2,4.4111786E1,4.5728195E2,4.216396E1,4.6458142E2,4.0574625E2,3.9549747E2,4.0574625E2,4E0,4.5566534E2,3.7303097E1,4.5566534E2,4.3308032E2,3.3417358E2,2.637833E2,1.9441974E2,2E0,4.3681506E2,4.1026056E2,4.2478815E2,5.769064E-1,-7.965832E-4,3E0,1.0214177E-3,-2.5722942E-1,6.0279626E-1,1.1878081E-1,2.4868194E-2,-5.2479553E-1,-5.5162728E-2,1.7283564E-2,2.041894E-1,-1.9631316E-1,7.561764E-1,1.892318E-1,-3.5299143E-1,-4.8672268E-1,-6.375183E-2,1.48688555E-2,-3.190611E-3,6.9525525E-2,1.92315E-2,-2.7764255E-1,2.6171845E-1,3.922488E-3,1.4421025E-1,-8.60848E-3,-3.7414354E-1,-2.6850197E-1,4.326101E-1,-1.8055367E-1,1.1793491E0,-1.0742815E-1,-7.099237E-2,-1.3418918E-2,1.2674598E-1,4.3988273E-1,-1.4962457E-1,3.6507672E-1,-6.947266E-2,2.2532044E-1,-3.0278438E-1,2.6944518E-2,7.2404045E-1,3.2610524E-1,1.4424144E-1,-2.739012E-1,1.253129E-1,-1.9313729E-1,1.8479224E-1,1.6076794E-2],"split_indices":[0,3,2,0,2,2,2,2,2,0,0,0,3,0,2,2,2,2,2,0,0,2,0,3,2,0,0,3,2,0,3,2,0,0,2,0,2,0,2,2,2,2,3,2,0,2,2,2,2,2,3,2,2,2,0,0,3,0,0,0,0,0,0,0,0,0,0,0,0,0,0,0,0,0,0,0,0,0,0,0,0,0,0,0,0,0,0,0,0,0,0,0,0,0,0,0,0,0,0,0,0,0,0,0,0],"split_type":[0,0,0,0,0,0,0,0,0,0,0,0,0,0,0,0,0,0,0,0,0,0,0,0,0,0,0,0,0,0,0,0,0,0,0,0,0,0,0,0,0,0,0,0,0,0,0,0,0,0,0,0,0,0,0,0,0,0,0,0,0,0,0,0,0,0,0,0,0,0,0,0,0,0,0,0,0,0,0,0,0,0,0,0,0,0,0,0,0,0,0,0,0,0,0,0,0,0,0,0,0,0,0,0,0],"sum_hessian":[7.1768445E4,7.114131E4,6.271355E2,3.401941E4,3.71219E4,3.5525824E2,2.7187723E2,1.7102734E4,1.6916678E4,2.0224207E4,1.6897693E4,3.3575604E2,1.95022E1,1.522903E2,1.1958694E2,1.2446334E4,4.6564004E3,3.3191083E2,1.6584768E4,1.831867E4,1.9055366E3,1.9514061E2,1.6702553E4,9.813643E1,2.3761963E2,1.2739982E1,6.762217E0,1.0309453E2,4.9195774E1,1.4429159E0,1.1814402E2,1.1881479E4,5.648557E2,9.908615E1,4.5573145E3,2.0172746E2,1.3018336E2,6.317272E1,1.6521594E4,1.7929086E4,3.8958496E2,5.3260034E2,1.3729363E3,1.3786021E2,5.72804E1,1.05853874E2,1.65967E4,6.644545E1,3.1690979E1,1.6543733E2,7.218229E1,5.912596E1,4.3968567E1,4.4728348E1,4.467428E0,3.9800728E1,7.83433E1,1.1701472E4,1.8000626E2,1.1495831E2,4.498974E2,2.875888E0,9.6210266E1,2.877095E3,1.6802192E3,1.2776565E2,7.3961815E1,3.9457996E1,9.072537E1,1.9794548E1,4.3378174E1,7.9064905E2,1.5730945E4,1.6102579E4,1.8265066E3,1.2327186E2,2.663131E2,2.9932596E2,2.3327438E2,1.4049414E2,1.2324421E3,1.00576195E2,3.7284016E1,2.4926895E1,3.23535E1,4.9988205E1,5.586567E1,1.8214152E3,1.4775283E4,5.501203E1,1.1433419E1,2.937176E1,2.3192205E0,1.11044914E2,5.4392418E1,4.8484394E1,2.3697895E1,1.6111094E1,4.3014866E1,3.399144E1,9.977126E0,2.311364E1,2.1614708E1,4.1329193E1,3.7014103E1],"tree_param":{"num_deleted":"0","num_feature":"4","num_nodes":"105","size_leaf_vector":"1"}},{"base_weights":[-2.510104E-3,6.180269E-4,-5.0570857E-2,-2.8198431E-3,2.2031437E-1,-2.4924998E-1,-1.4908637E-2,1.8272118E-3,-9.27659E-2,1.4447342E0,1.7258924E-1,-1.6875158E-1,-9.800467E-1,2.8569216E-1,-3.164996E-2,-1.0278502E-3,2.5886333E-1,-9.612799E-1,-7.02906E-2,-5.518849E-1,1.5930141E0,5.0620866E-1,-9.162994E-3,-5.374596E-1,1.2936817E-1,-1.1265746E0,6.4670116E-1,5.4680474E-2,7.824437E-1,-8.1862056E-1,-1.3131301E-2,1.3924108E-3,-2.5035796E-1,-6.0277766E-1,3.656823E-1,5.39406E-1,-1.6082938E0,2.135098E-1,-1.440913E-1,4.616382E-1,7.2135645E-1,-6.215221E-1,8.723678E-1,-1.9720142E-1,9.0965235E-1,8.326363E-1,-6.632929E-1,5.091854E-1,-2.5902046E-2,-5.367577E-1,-1.0098873E0,-5.5712956E-1,4.760643E-1,1.130469E0,2.1150994E-1,-3.963562E-1,-9.788784E-1,4.9227688E-1,-3.8925402E-2,-1.3223164E-3,4.1565824E-2,-1.4916943E-1,1.2182715E-1,6.784522E-1,-4.1657767E-1,4.292338E-1,3.2722242E-2,-4.427526E-1,7.4310184E-1,-1.8851526E-2,-6.956454E-1,4.3346196E-1,3.317009E-2,-2.6958287E-1,-8.902864E-3,4.1339907E-1,-3.1432188E-1,4.7104946E-1,-2.1800391E-1,9.5743656E-2,-4.2528018E-1,4.9451777E-1,-2.7710256E-1,-7.899166E-1,5.624271E-1,-6.6980624E-1,-1.867956E-1,4.444107E-1,-6.646043E-2,-1.9264264E-1,1.3378341E-1,-2.9177985E-1,-4.697337E-1,5.284342E-1,-4.0510097E-1,-5.0403255E-1,2.8999627E-1,3.593813E-1,5.2201265E-1,3.254784E-1,-3.8992707E-2,-6.8741995E-3,-4.686645E-1,-3.3869323E-1,-5.241418E-1,9.505312E-1,1.5445423E-1,-1.4514822E-1,-6.9343187E-3],"categories":[],"categories_nodes":[],"categories_segments":[],"categories_sizes":[],"default_left":[0,0,0,0,0,0,0,0,0,0,0,0,0,0,0,0,0,0,0,0,0,0,0,0,0,0,0,0,0,0,0,0,0,0,0,0,0,0,0,0,0,0,0,0,0,0,0,0,0,0,0,0,0,0,0,0,0,0,0,0,0,0,0,0,0,0,0,0,0,0,0,0,0,0,0,0,0,0,0,0,0,0,0,0,0,0,0,0,0,0,0,0,0,0,0,0,0,0,0,0,0,0,0,0,0,0,0,0,0],"id":12,"left_children":[1,3,5,7,9,11,13,15,17,19,21,23,25,27,29,31,33,35,37,-1,39,41,43,45,47,49,-1,51,53,55,57,59,61,63,65,67,69,71,73,-1,-1,75,77,79,81,83,85,87,89,-1,91,93,95,97,99,101,103,105,107,-1,-1,-1,-1,-1,-1,-1,-1,-1,-1,-1,-1,-1,-1,-1,-1,-1,-1,-1,-1,-1,-1,-1,-1,-1,-1,-1,-1,-1,-1,-1,-1,-1,-1,-1,-1,-1,-1,-1,-1,-1,-1,-1,-1,-1,-1,-1,-1,-1,-1],"loss_changes":[1.0765705E1,5.0781395E1,3.1001648E1,2.767023E1,6.0283783E1,3.9006824E1,1.8685045E1,4.619466E1,6.3414818E1,1.8416862E1,6.052964E1,6.6132645E1,2.6882027E1,2.2435362E1,5.1233562E1,3.756904E1,6.3867844E1,8.044489E1,6.645041E1,0E0,1.3591385E0,1.4590735E2,1.11986404E2,4.691005E1,1.9658974E1,2.2603607E-1,0E0,3.5011574E1,1.2100533E1,5.0814667E0,4.481808E1,2.9699905E1,4.0822426E1,7.906538E1,1.23588394E2,5.726892E1,1.1664978E1,7.432088E1,1.624932E2,0E0,0E0,2.4431057E1,1.15801575E2,2.036578E2,5.8493156E1,3.990301E1,4.8215324E1,3.9493393E1,3.9148224E1,0E0,1.2120323E0,4.8771618E1,3.5637657E1,3.8082886E-1,4.6844273E0,7.010494E0,1.4270248E0,3.2466015E1,2.2866884E1,0E0,0E0,0E0,0E0,0E0,0E0,0E0,0E0,0E0,0E0,0E0,0E0,0E0,0E0,0E0,0E0,0E0,0E0,0E0,0E0,0E0,0E0,0E0,0E0,0E0,0E0,0E0,0E0,0E0,0E0,0E0,0E0,0E0,0E0,0E0,0E0,0E0,0E0,0E0,0E0,0E0,0E0,0E0,0E0,0E0,0E0,0E0,0E0,0E0,0E0],"parents":[2147483647,0,0,1,1,2,2,3,3,4,4,5,5,6,6,7,7,8,8,9,9,10,10,11,11,12,12,13,13,14,14,15,15,16,16,17,17,18,18,20,20,21,21,22,22,23,23,24,24,25,25,27,27,28,28,29,29,30,30,31,31,32,32,33,33,34,34,35,35,36,36,37,37,38,38,41,41,42,42,43,43,44,44,45,45,46,46,47,47,48,48,50,50,51,51,52,52,53,53,54,54,55,55,56,56,57,57,58,58],"right_children":[2,4,6,8,10,12,14,16,18,20,22,24,26,28,30,32,34,36,38,-1,40,42,44,46,48,50,-1,52,54,56,58,60,62,64,66,68,70,72,74,-1,-1,76,78,80,82,84,86,88,90,-1,92,94,96,98,100,102,104,106,108,-1,-1,-1,-1,-1,-1,-1,-1,-1,-1,-1,-1,-1,-1,-1,-1,-1,-1,-1,-1,-1,-1,-1,-1,-1,-1,-1,-1,-1,-1,-1,-1,-1,-1,-1,-1,-1,-1,-1,-1,-1,-1,-1,-1,-1,-1,-1,-1,-1,-1],"split_conditions":[4.965527E2,4.9485983E2,4.9774704E2,4.8950818E2,3.8091442E1,4.672934E1,3.9696396E1,4.8850058E2,3.795511E1,3.6546967E1,4.954407E2,4.313098E1,4E0,3.9342823E1,4.0334663E1,4.8780502E2,4.0972713E1,3.559645E1,4.169175E1,-5.518849E-1,3.748086E1,4.2111454E1,4.6240818E1,3.762369E1,4.4709385E1,4.7257496E1,6.4670116E-1,4.995105E2,4.9885785E2,3.9929962E1,4.1451473E1,4.8452924E2,2E0,3.9342823E1,4.2135147E1,4.9278717E2,4.9002066E2,4.9002066E2,4.319252E1,4.616382E-1,7.2135645E-1,4.1057026E1,4.556218E1,4.39528E1,2E0,4.9703323E2,4.0399498E1,4.9703323E2,4.9703323E2,-5.367577E-1,4.9355705E1,3.706581E1,3.706581E1,3.953651E1,3.944634E1,2E0,4.0272823E1,4.9885785E2,4.219086E1,-1.3223164E-3,4.1565824E-2,-1.4916943E-1,1.2182715E-1,6.784522E-1,-4.1657767E-1,4.292338E-1,3.2722242E-2,-4.427526E-1,7.4310184E-1,-1.8851526E-2,-6.956454E-1,4.3346196E-1,3.317009E-2,-2.6958287E-1,-8.902864E-3,4.1339907E-1,-3.1432188E-1,4.7104946E-1,-2.1800391E-1,9.5743656E-2,-4.2528018E-1,4.9451777E-1,-2.7710256E-1,-7.899166E-1,5.624271E-1,-6.6980624E-1,-1.867956E-1,4.444107E-1,-6.646043E-2,-1.9264264E-1,1.3378341E-1,-2.9177985E-1,-4.697337E-1,5.284342E-1,-4.0510097E-1,-5.0403255E-1,2.8999627E-1,3.593813E-1,5.2201265E-1,3.254784E-1,-3.8992707E-2,-6.8741995E-3,-4.686645E-1,-3.3869323E-1,-5.241418E-1,9.505312E-1,1.5445423E-1,-1.4514822E-1,-6.9343187E-3],"split_indices":[2,2,2,2,0,0,0,2,0,0,2,0,3,0,0,2,0,0,0,0,0,0,0,0,0,0,0,2,2,0,0,2,3,0,0,2,2,2,0,0,0,0,0,0,3,2,0,2,2,0,0,0,0,0,0,3,0,2,0,0,0,0,0,0,0,0,0,0,0,0,0,0,0,0,0,0,0,0,0,0,0,0,0,0,0,0,0,0,0,0,0,0,0,0,0,0,0,0,0,0,0,0,0,0,0,0,0,0,0],"split_type":[0,0,0,0,0,0,0,0,0,0,0,0,0,0,0,0,0,0,0,0,0,0,0,0,0,0,0,0,0,0,0,0,0,0,0,0,0,0,0,0,0,0,0,0,0,0,0,0,0,0,0,0,0,0,0,0,0,0,0,0,0,0,0,0,0,0,0,0,0,0,0,0,0,0,0,0,0,0,0,0,0,0,0,0,0,0,0,0,0,0,0,0,0,0,0,0,0,0,0,0,0,0,0,0,0,0,0,0,0],"sum_hessian":[7.1607695E4,6.72327E4,4.3749893E3,6.619781E4,1.0348948E3,6.6487726E2,3.7101118E3,6.2946656E4,3.2511536E3,3.772642E1,9.9716833E2,6.000155E2,6.486174E1,1.9487874E2,3.5152332E3,6.2256133E4,6.905221E2,8.0957016E1,3.1701968E3,1.4675543E0,3.6258865E1,3.510343E2,6.4613403E2,2.6789093E2,3.3212457E2,6.1933243E1,2.9284997E0,1.3377667E2,6.1102062E1,7.982391E1,3.4354092E3,6.1658605E4,5.9752905E2,7.565093E1,6.1487115E2,2.4439133E1,5.651788E1,6.538654E2,2.5163313E3,1.3849628E1,2.2409237E1,8.586915E1,2.6516513E2,5.3701715E2,1.0911687E2,2.2061728E1,2.4582921E2,9.571359E1,2.3641098E2,1.8076777E1,4.3856464E1,5.442887E1,7.93478E1,3.7352802E1,2.374926E1,2.2915903E1,5.690801E1,1.6593832E2,3.269471E3,5.895776E4,2.7008433E3,4.8969815E2,1.078309E2,1.1662905E1,6.398803E1,1.7528708E2,4.3958405E2,1.0939205E1,1.34999275E1,4.4749804E0,5.20429E1,8.43701E1,5.694953E2,4.6957635E2,2.0467549E3,7.2761893E0,7.859296E1,2.1831625E2,4.684889E1,3.5751376E2,1.795034E2,9.083013E1,1.8286736E1,3.3274167E0,1.873431E1,3.8739532E1,2.0708968E2,5.0269573E1,4.544402E1,1.0424652E2,1.3216446E2,1.8220348E1,2.5636116E1,1.025503E1,4.4173843E1,9.44077E0,6.990703E1,1.8676401E1,1.8676401E1,7.4997663E0,1.6249493E1,1.607596E1,6.839943E0,4.322892E1,1.3679089E1,7.7091675E0,1.5822916E2,2.0329448E2,3.0661765E3],"tree_param":{"num_deleted":"0","num_feature":"4","num_nodes":"109","size_leaf_vector":"1"}},{"base_weights":[-2.0598324E-3,7.3086545E-3,-1.7488962E-2,1.5498312E-3,8.938887E-1,-2.4416481E-1,-8.425966E-3,-3.8111543E-3,1.4299439E-1,2.096107E0,-5.340071E-2,-4.4098493E-1,9.084046E-1,5.109629E-1,-1.5318348E-2,5.497956E-3,-7.689437E-2,3.85467E-1,-8.637735E-2,1.3244754E0,2.5712683E0,5.9498173E-1,-6.7868745E-1,1.1877342E0,-5.058301E-1,1.2541363E0,-3.414169E-1,5.766708E-1,-4.6436378E-1,-1.3660386E-1,1.2613282E-3,9.787811E-4,3.8310423E-1,-9.2435144E-2,5.498079E-1,2.9285416E-1,1.3229806E0,-6.698784E-1,1.8149935E-1,1.6593953E0,7.297261E-1,3.390155E0,8.713729E-1,8.4229225E-1,-6.217537E-1,-7.766376E-1,4.8391643E-1,-2.9057026E-1,1.3931496E0,-2.7888083E-1,-7.835016E-1,1.6198674E0,6.071863E-1,-4.5504147E-1,2.024488E0,3.6871243E-1,1.7980156E0,-3.5505433E-2,-1.0915315E0,3.963161E-1,-8.098425E-3,-2.8362067E-3,2.5243193E-2,4.0553552E-1,-1.3795725E-2,-8.0404304E-2,-3.5581328E-3,3.4961477E-1,-2.5403652E-1,1.5995693E-1,-1.7348176E-1,7.8384846E-1,-4.280076E-1,-1.4225035E-2,-3.1334102E-1,2.4047258E-1,-9.5122755E-2,4.1194794E-1,7.5463974E-1,-2.4223582E-1,5.342691E-1,7.1230865E-1,1.4714756E0,-1.5886933E-1,4.8127723E-1,1.07517876E-1,-4.3141037E-1,-3.7231365E-1,-1.6143137E-1,3.5309997E-1,-1.8585639E-1,-3.080463E-1,1.0539406E-2,7.245133E-1,3.959787E-1,-2.7256414E-2,-3.6768648E-1,-5.1257735E-1,-1.3749476E-1,5.676754E-1,1.0174313E0,-4.1558805E-1,4.7292706E-1,3.2108867E-1,9.189771E-1,2.330756E-1,-2.697758E-1,1.8372729E0,5.2560776E-1,-1.0563401E-1,1.7717035E-2,-4.713284E-1,4.0754414E-1,2.8880256E-1,-7.918377E-2,3.4286607E-2,-5.8447365E-3],"categories":[],"categories_nodes":[],"categories_segments":[],"categories_sizes":[],"default_left":[0,0,0,0,0,0,0,0,0,0,0,0,0,0,0,0,0,0,0,0,0,0,0,0,0,0,0,0,0,0,0,0,0,0,0,0,0,0,0,0,0,0,0,0,0,0,0,0,0,0,0,0,0,0,0,0,0,0,0,0,0,0,0,0,0,0,0,0,0,0,0,0,0,0,0,0,0,0,0,0,0,0,0,0,0,0,0,0,0,0,0,0,0,0,0,0,0,0,0,0,0,0,0,0,0,0,0,0,0,0,0,0,0,0,0,0,0],"id":13,"left_children":[1,3,5,7,9,11,13,15,17,19,21,23,25,27,29,31,33,35,37,39,41,43,45,47,49,51,53,55,-1,57,59,61,63,65,67,69,71,73,75,77,79,81,-1,83,85,87,89,91,93,95,97,99,101,-1,103,105,107,109,111,113,115,-1,-1,-1,-1,-1,-1,-1,-1,-1,-1,-1,-1,-1,-1,-1,-1,-1,-1,-1,-1,-1,-1,-1,-1,-1,-1,-1,-1,-1,-1,-1,-1,-1,-1,-1,-1,-1,-1,-1,-1,-1,-1,-1,-1,-1,-1,-1,-1,-1,-1,-1,-1,-1,-1,-1,-1],"loss_changes":[1.0326428E1,2.2694533E2,5.5444572E1,3.348946E1,3.2680475E2,2.357756E2,9.291548E1,2.8950504E1,8.973114E1,4.2955505E1,6.5846306E1,9.42722E1,6.596419E1,3.801159E1,5.1507103E1,6.441121E1,4.687661E1,6.770058E1,1.2979407E2,8.798851E0,1.7447144E1,2.4529783E1,9.786549E0,1.0807823E1,5.3576874E1,2.7177155E1,6.568972E1,8.257805E1,0E0,2.973458E2,8.3328316E1,1.8700464E1,1.17610405E2,4.255984E1,4.5305275E1,5.5776543E1,1.0907245E2,1.8775719E1,1.00337234E2,2.5429306E0,1.690115E1,4.2353516E0,0E0,3.0326149E1,6.005785E0,4.029396E0,3.072567E0,7.8123E-1,3.3070374E0,6.35346E1,8.350972E1,1.0373459E1,4.3437546E1,0E0,1.1013336E0,6.31839E1,5.8125076E1,5.083817E1,5.5207977E1,1.0109171E2,1.3453189E1,0E0,0E0,0E0,0E0,0E0,0E0,0E0,0E0,0E0,0E0,0E0,0E0,0E0,0E0,0E0,0E0,0E0,0E0,0E0,0E0,0E0,0E0,0E0,0E0,0E0,0E0,0E0,0E0,0E0,0E0,0E0,0E0,0E0,0E0,0E0,0E0,0E0,0E0,0E0,0E0,0E0,0E0,0E0,0E0,0E0,0E0,0E0,0E0,0E0,0E0,0E0,0E0,0E0,0E0,0E0,0E0],"parents":[2147483647,0,0,1,1,2,2,3,3,4,4,5,5,6,6,7,7,8,8,9,9,10,10,11,11,12,12,13,13,14,14,15,15,16,16,17,17,18,18,19,19,20,20,21,21,22,22,23,23,24,24,25,25,26,26,27,27,29,29,30,30,31,31,32,32,33,33,34,34,35,35,36,36,37,37,38,38,39,39,40,40,41,41,43,43,44,44,45,45,46,46,47,47,48,48,49,49,50,50,51,51,52,52,54,54,55,55,56,56,57,57,58,58,59,59,60,60],"right_children":[2,4,6,8,10,12,14,16,18,20,22,24,26,28,30,32,34,36,38,40,42,44,46,48,50,52,54,56,-1,58,60,62,64,66,68,70,72,74,76,78,80,82,-1,84,86,88,90,92,94,96,98,100,102,-1,104,106,108,110,112,114,116,-1,-1,-1,-1,-1,-1,-1,-1,-1,-1,-1,-1,-1,-1,-1,-1,-1,-1,-1,-1,-1,-1,-1,-1,-1,-1,-1,-1,-1,-1,-1,-1,-1,-1,-1,-1,-1,-1,-1,-1,-1,-1,-1,-1,-1,-1,-1,-1,-1,-1,-1,-1,-1,-1,-1,-1],"split_conditions":[4.6578976E2,4.6526974E2,4.676226E2,4.6253445E2,4.2728355E1,4.6005627E1,4.6813547E2,4.489189E2,4.6406705E2,4.1580273E1,4.451922E1,3.8483128E1,4.6734998E2,4.6391144E1,4.7289224E2,4.4711307E2,4.985545E1,4.7847374E1,4.6458142E2,4.0219284E1,4.2037594E1,3E0,5E0,3.6546967E1,4.669517E2,3E0,3E0,4.4572796E1,-4.6436378E-1,4.726051E2,4.7364777E2,4.43612E1,3E0,4.56245E2,5.2245758E1,4.5424263E1,4.9355705E1,4.198451E1,2E0,4.0044724E1,4.0972713E1,2E0,8.713729E-1,2E0,4.3525177E1,4.819473E1,4.6005627E1,3.47278E1,4.6660492E2,4.4186424E1,2E0,4.872821E1,4.771883E1,-4.5504147E-1,4.6086407E1,2E0,4.556218E1,4.6934198E2,4E0,2E0,3.944634E1,-2.8362067E-3,2.5243193E-2,4.0553552E-1,-1.3795725E-2,-8.0404304E-2,-3.5581328E-3,3.4961477E-1,-2.5403652E-1,1.5995693E-1,-1.7348176E-1,7.8384846E-1,-4.280076E-1,-1.4225035E-2,-3.1334102E-1,2.4047258E-1,-9.5122755E-2,4.1194794E-1,7.5463974E-1,-2.4223582E-1,5.342691E-1,7.1230865E-1,1.4714756E0,-1.5886933E-1,4.8127723E-1,1.07517876E-1,-4.3141037E-1,-3.7231365E-1,-1.6143137E-1,3.5309997E-1,-1.8585639E-1,-3.080463E-1,1.0539406E-2,7.245133E-1,3.959787E-1,-2.7256414E-2,-3.6768648E-1,-5.1257735E-1,-1.3749476E-1,5.676754E-1,1.0174313E0,-4.1558805E-1,4.7292706E-1,3.2108867E-1,9.189771E-1,2.330756E-1,-2.697758E-1,1.8372729E0,5.2560776E-1,-1.0563401E-1,1.7717035E-2,-4.713284E-1,4.0754414E-1,2.8880256E-1,-7.918377E-2,3.4286607E-2,-5.8447365E-3],"split_indices":[2,2,2,2,0,0,2,2,2,0,0,0,2,0,2,2,0,0,2,0,0,3,3,0,2,3,3,0,0,2,2,0,3,2,0,0,0,0,3,0,0,3,0,3,0,0,0,0,2,0,3,0,0,0,0,3,0,2,3,3,0,0,0,0,0,0,0,0,0,0,0,0,0,0,0,0,0,0,0,0,0,0,0,0,0,0,0,0,0,0,0,0,0,0,0,0,0,0,0,0,0,0,0,0,0,0,0,0,0,0,0,0,0,0,0,0,0],"split_type":[0,0,0,0,0,0,0,0,0,0,0,0,0,0,0,0,0,0,0,0,0,0,0,0,0,0,0,0,0,0,0,0,0,0,0,0,0,0,0,0,0,0,0,0,0,0,0,0,0,0,0,0,0,0,0,0,0,0,0,0,0,0,0,0,0,0,0,0,0,0,0,0,0,0,0,0,0,0,0,0,0,0,0,0,0,0,0,0,0,0,0,0,0,0,0,0,0,0,0,0,0,0,0,0,0,0,0,0,0,0,0,0,0,0,0,0,0],"sum_hessian":[7.143775E4,4.4449047E4,2.6988701E4,4.4163188E4,2.8586234E2,1.0365853E3,2.5952117E4,4.255139E4,1.6117958E3,1.2544525E2,1.6041707E2,8.859177E2,1.5066757E2,3.3892114E2,2.5613195E4,3.7744535E4,4.8068555E3,7.8319116E2,8.286047E2,4.925145E1,7.61938E1,7.877789E1,8.163918E1,3.3258015E1,8.526597E2,1.1801754E2,3.265004E1,3.2673486E2,1.2186258E1,3.0793738E3,2.2533822E4,3.7299145E4,4.453919E2,4.6913726E3,1.15482704E2,7.1397327E2,6.92179E1,2.602392E2,5.683654E2,3.0363075E1,1.8888374E1,2.2228151E1,5.3965652E1,6.572628E1,1.3051612E1,7.560168E1,6.037509E0,4.0069327E0,2.9251081E1,4.702856E2,3.8237408E2,7.443461E1,4.3582928E1,2.4817493E1,7.8325467E0,2.8030862E2,4.6426258E1,2.7855085E3,2.938653E2,5.2056506E2,2.2013256E4,3.3012402E4,4.2867417E3,1.7684973E2,2.6854218E2,2.0393933E3,2.6519792E3,9.087778E1,2.4604923E1,6.2268726E2,9.128602E1,5.481568E1,1.440222E1,3.9689564E1,2.2054965E2,2.8383862E2,2.845268E2,9.519556E0,2.084352E1,5.8960114E0,1.2992363E1,4.4695725E0,1.7758577E1,1.4799358E1,5.092692E1,4.5643115E0,8.487301E0,5.2439064E1,2.3162611E1,4.299221E0,1.7382877E0,1.0253758E0,2.9815567E0,1.2645293E1,1.6605787E1,3.5466785E2,1.1561778E2,1.7842786E2,2.0394623E2,6.323337E1,1.1201239E1,1.1075587E1,3.250734E1,2.149972E0,5.6825747E0,2.3296341E2,4.7345207E1,5.5992794E0,4.082698E1,7.202007E2,2.0653079E3,2.8268173E2,1.1183579E1,3.361335E2,1.8443153E2,1.4283329E3,2.0584924E4],"tree_param":{"num_deleted":"0","num_feature":"4","num_nodes":"117","size_leaf_vector":"1"}},{"base_weights":[-2.5482944E-3,2.94009E-2,-6.5179747E-3,1.9916918E-2,9.8087154E-2,-2.1182248E-2,4.99625E-3,2.6430344E-2,-1.1812862E-1,4.4439325E-1,7.430468E-2,5.1750843E-3,-5.835318E-2,1.0242098E-1,-2.5307667E-3,1.9351851E-2,7.96987E-2,-3.8615572E-1,-5.7735693E-2,2.1958116E-1,4.0565488E-1,1.0157268E-1,-3.9256636E-2,-2.2796584E-2,5.791392E-2,-6.2281024E-1,-5.433116E-2,1.590058E-1,-7.762765E-2,-3.8753092E-2,4.7473884E-3,4.4019107E-2,6.45257E-3,3.7692973E-1,5.1527333E-2,-6.3401556E-1,-1.9618034E-1,-1.9189404E-1,9.642535E-2,1.8653567E-1,1.689617E-1,6.0027897E-2,2.921395E-1,8.352059E-1,-1.3529806E-1,8.950087E-4,-1.2208872E-1,7.181258E-2,-2.9726532E-1,-3.839195E-1,-7.8989244E-1,3.9129922E-1,-6.261833E-2,8.793242E-2,2.31404E0,-6.7013824E-1,1.06585205E-1,-2.5817448E-1,-9.762137E-3,9.474666E-2,-2.488646E-3,5.039006E-2,5.6039672E-3,-3.1747144E-2,1.15702655E-2,6.0151584E-2,-8.698686E-3,-1.669945E-1,-3.3684772E-1,-1.5841283E-1,1.3508745E-2,-2.2003987E-1,-3.0381683E-2,4.755984E-1,1.50408745E-2,5.4983586E-2,8.0323346E-2,3.7315767E-2,-1.3479638E-1,6.049932E-3,1.5925314E-1,1.6023873E-1,5.230319E-1,-1.4338778E-1,2.9081425E-2,3.5674179E-3,-7.441243E-2,-3.7226453E-2,-1.1479638E-1,2.3550054E-2,3.496728E-1,-5.599367E-1,4.871182E-2,-2.2724895E-1,